{
  "kind": "classifier",
  "target": "surface",
  "feature_names": [
    "SiO2_umf",
    "Al2O3_umf",
    "B2O3_umf",
    "Li2O_umf",
    "K2O_umf",
    "Na2O_umf",
    "KNaO_umf",
    "MgO_umf",
    "CaO_umf",
    "SrO_umf",
    "BaO_umf",
    "ZnO_umf",
    "PbO_umf",
    "P2O5_umf",
    "F_umf",
    "V2O5_umf",
    "Cr2O3_umf",
    "MnO_umf",
    "MnO2_umf",
    "FeO_umf",
    "Fe2O3_umf",
    "CoO_umf",
    "NiO_umf",
    "CuO_umf",
    "Cu2O_umf",
    "CdO_umf",
    "TiO2_umf",
    "ZrO2_umf",
    "SnO2_umf",
    "MoO3_umf",
    "Bi2O3_umf",
    "CeO2_umf",
    "PrO2_umf",
    "Pr2O3_umf",
    "Nd2O3_umf",
    "U3O8_umf",
    "Ho2O3_umf",
    "Er2O3_umf",
    "SiO2_Al2O3_ratio_umf",
    "R2O_umf",
    "RO_umf",
    "cone_num",
    "atm_oxidation",
    "atm_reduction",
    "atm_neutral",
    "atm_salt_soda",
    "atm_wood",
    "atm_raku",
    "atm_luster",
    "atm_known"
  ],
  "scaler": {
    "mean": [
      2.994224, 0.413103, 0.142755, 0.035542, 0.10025, 0.166074, 0.266325, 0.114465, 0.486776,
      0.023593, 0.021873, 0.047165, 0.002121, 0.00551, 0.006359, 1.3e-5, 0.001387, 0.002139,
      0.100633, 0.000878, 0.047096, 0.020878, 0.000938, 0.050354, 0.001728, 0.0, 0.044864, 0.014556,
      0.010818, 0.0, 5.4e-5, 1e-5, 2e-6, 9.7e-5, 5.4e-5, 2.4e-5, 5.1e-5, 5.4e-5, 8.794843, 0.301866,
      0.698134, 28.488296, 0.687342, 0.334576, 0.083942, 0.048904, 0.039511, 0.010437, 0.000298,
      0.868048
    ],
    "std": [
      3.708744, 0.631103, 0.203982, 0.102785, 0.086621, 0.137632, 0.150461, 0.139798, 0.228793,
      0.094394, 0.089179, 0.117804, 0.037862, 0.019923, 0.116358, 0.001024, 0.022295, 0.033205,
      3.650821, 0.009926, 0.923852, 0.592156, 0.010281, 1.458037, 0.133683, 1e-6, 0.097184,
      0.067857, 0.038268, 1.0, 0.003817, 0.000802, 0.000166, 0.002957, 0.001995, 0.001185, 0.00189,
      0.001915, 10.171139, 0.177353, 0.177353, 4.182611, 0.463576, 0.471842, 0.277301, 0.215668,
      0.194807, 0.101626, 0.017266, 0.338438
    ]
  },
  "layers": [
    {
      "w": [
        [
          0.010623, 0.216159, 0.081104, 0.140458, 0.08711, -0.194384, -0.479962, 0.118077, 0.053172,
          -0.063757, -0.6173, 0.32336, 0.092476, -0.38551, 0.076384, -0.021841, -0.024292, 0.019549,
          0.08711, 0.033398, -0.426949, -0.624168, -0.142332, 0.013369, 0.005405, 0.094656,
          -0.475725, 0.325702, -0.107515, -0.07273, 0.25228, -0.06562, -0.014323, 0.18504, 0.271493,
          0.120085, -0.077616, -0.321468, 0.079298, -0.007655, -0.203708, 0.182287, -0.195305,
          0.212706, -0.256921, 0.222041, 0.053807, 0.083868, 0.271103, -0.056323, 0.259341,
          0.098683, 0.091353, 0.204098, -0.140218, 0.178676, 0.079353, -0.017453, -0.2783,
          -0.419117, 0.032912, -0.106662, 0.24971, -0.044113, 0.167924, 0.256255, -0.119719,
          0.08173, -0.423475, 0.18602, 0.166319, -0.286371, -0.162895, 0.188022, 0.085253, 0.159251,
          0.152134, -0.329347, -0.190477, -0.038331, 0.158831, 0.23501, -0.036622, -0.389027,
          0.051663, -0.181065, 0.240182, 0.061419, 0.365789, 0.129526, -0.008488, -0.120769,
          0.256835, 0.066538, 0.12186, -0.017582
        ],
        [
          0.0292, -0.112993, -0.298561, -0.210444, -0.339591, 0.297228, 0.265232, -0.034051,
          0.120788, 0.167821, 0.12582, 0.05582, -0.085332, -0.029203, -0.388354, -0.313665,
          0.129848, 0.020882, -0.015985, 0.04965, 0.347985, 0.309763, 0.2372, -0.064206, 0.091241,
          0.229613, -0.011656, -0.369711, 0.069948, -0.069133, -0.109496, 0.171648, -0.313443,
          -0.051306, -0.134885, -0.095266, -0.283861, -0.070154, 0.183643, -0.025391, 0.062794,
          -0.077688, -0.002019, 0.231769, 0.233441, -0.155587, -0.020736, -0.035463, -0.247307,
          -0.287849, -0.054309, 0.123279, -0.016991, -0.149291, 0.145899, -0.186463, -0.326483,
          -0.09587, 0.293784, 0.072241, -0.070012, 0.060273, -0.321428, 0.089173, -0.063499,
          -0.001301, 0.041246, -0.045068, 0.095058, 0.097936, -0.073809, -0.158883, -0.194625,
          0.014607, 0.107383, -0.232465, 0.038014, -0.097913, 0.191406, -0.151565, 0.061219,
          -0.220678, 0.1678, -0.212652, -0.113357, -0.240516, 0.078884, 0.154708, -0.17004,
          0.065204, -0.065708, 0.121855, -0.228839, -0.016239, -0.130902, 0.112323
        ],
        [
          0.251771, 0.072099, 0.01947, -0.009328, 0.08672, 0.031349, 0.093766, 0.073754, 0.10085,
          -0.323739, -0.229488, 0.296688, -0.051066, -0.429156, -0.12292, 0.095889, -0.200675,
          -0.097417, 0.064228, 0.063343, -0.091506, -0.286708, 0.019836, -0.039737, -0.086043,
          0.117144, -0.020097, 0.178581, 0.052989, 0.044186, -0.13559, -0.017555, -0.205996,
          -0.03102, 0.052793, -0.118223, 0.20262, -0.01805, 0.135941, -0.01614, 0.091589, 0.068519,
          -0.145778, 0.078135, -0.23219, -0.151473, 0.071392, -0.140344, 0.129486, 0.350655,
          0.217221, -0.170968, -0.340521, 0.124492, -0.032354, 0.182489, 0.21856, 0.221201,
          -0.317959, -0.271366, 0.196196, -0.003084, -0.064015, 0.107539, 0.16423, 0.127155,
          0.110345, -0.155635, -0.011885, 0.182476, -0.186949, 0.03907, 0.155638, 0.115208, 0.09492,
          0.115738, -0.018048, -0.083428, -0.011151, 0.118046, 0.137635, 0.192186, 0.061806,
          0.019892, 0.057588, 0.095049, 0.110167, 0.114886, 0.131128, 0.049979, -0.0338, -0.346528,
          -0.026938, -0.22824, -0.058685, 0.057517
        ],
        [
          -0.127941, -0.06173, -0.180586, -0.122659, 0.100248, 0.022862, -0.233146, 0.037847,
          0.11408, -0.204023, 0.131851, 0.014224, -0.170207, -0.010176, 0.050327, 0.045781,
          0.013161, 0.143562, -0.041144, -0.154031, 0.072479, -0.074272, -0.041153, -0.082339,
          -0.169955, 0.213902, 0.164607, 0.076082, -0.027097, -0.168256, -0.253482, -0.157945,
          0.031067, 0.061226, 0.115997, -0.057621, 0.251611, -0.011729, 0.081437, -0.03784,
          -0.064789, -0.035514, -0.088666, 0.142674, -0.230938, -0.044284, -0.191322, -0.156918,
          0.108559, 0.126159, 0.058215, -0.207182, -0.032997, -0.102028, -0.202511, -0.037799,
          -0.089759, 0.079866, 0.039594, -0.141841, -0.076151, 0.09786, -0.031926, 0.100531,
          0.105167, -0.081885, -0.291033, 0.081202, -0.28583, 0.045209, 0.138642, 0.057949,
          -0.062343, -0.002025, -0.044165, -0.036585, 0.144031, -0.05353, 0.232491, 0.128598,
          -0.061942, -0.147442, -0.101909, -0.102027, -0.214286, 0.140647, -0.157598, -0.037864,
          0.0847, -0.261943, 0.142192, -0.175913, -0.141373, 0.121263, 0.0014, 0.115226
        ],
        [
          0.256217, 0.105141, -0.098101, -0.173279, 0.127456, 0.12567, 0.145553, -0.037966,
          -0.033876, 0.028101, -0.098797, 0.168162, 0.217251, 0.013871, 0.155293, 0.107154,
          -0.186218, 0.140715, 0.046632, 0.142459, -0.050844, 0.095655, -0.081589, -0.282545,
          0.097849, -0.194597, -0.135638, 0.112731, 0.180387, 0.031682, 0.057223, -0.044534,
          -0.070131, -0.051575, 0.124757, 0.127971, 0.158128, 0.193547, -0.153003, 0.055299,
          -0.190252, 0.084221, -0.073433, 0.118991, -0.138472, -0.080705, -0.255879, 0.197979,
          0.07206, -0.265163, -0.159675, 0.087642, -0.156572, 0.182182, 0.022215, -0.095389,
          -0.286731, 0.168825, -0.083296, -0.133234, 0.057723, 0.123818, 0.190164, 0.13164,
          -0.060155, -0.126473, 0.110115, 0.099141, -0.010734, 0.213686, -0.110549, -0.025751,
          -0.16069, -0.017883, -0.14329, -0.146738, -0.190575, -0.047782, 0.08183, -0.025725,
          0.235983, -0.063804, -0.146953, 0.17927, -0.093558, 0.197219, -0.175972, 0.171144,
          -0.231226, 0.24058, 0.092543, 0.142453, -0.154509, 0.086991, 0.271789, -0.000999
        ],
        [
          -0.015004, 0.115457, 0.019526, 0.044453, 0.032099, 0.161361, -0.165452, -0.077273,
          0.179769, 0.163997, -0.008087, 0.009895, -0.176232, -0.094684, -0.12311, -0.07629,
          0.119319, -0.163778, 0.236845, 0.262887, 0.060345, 0.038153, -0.021291, 0.025889,
          0.087739, -0.075635, 0.140608, 0.133808, 0.151658, 0.190095, -0.024259, -0.027286,
          0.145485, 0.148434, -0.27786, -0.245336, -0.121318, 0.08681, 0.15357, -0.11754, 0.154091,
          -0.146618, 0.217209, 0.119795, 0.153247, -0.105469, -0.000974, -0.155423, -0.2432,
          0.243569, 0.116961, 0.18872, 0.208269, 0.005769, 0.11255, 0.142877, 0.206161, -0.077966,
          0.035344, -0.128503, 0.204491, 0.073101, -0.120163, 0.14048, -0.035092, -0.147176,
          -0.131466, 0.063013, -0.002118, 0.018546, 0.08033, 0.136503, 0.075787, 0.056771, 0.128089,
          -0.047178, -0.05747, -0.155445, 0.065407, 0.017237, -0.018601, -0.100533, -0.070386,
          -0.283364, -0.096336, -0.022626, -0.116984, -0.016356, 0.208737, -0.060717, 0.026381,
          0.151119, -0.065948, 0.056236, 0.158759, 0.175079
        ],
        [
          -0.075321, 0.201314, 0.026172, -0.13906, -0.001496, 0.194894, -0.017718, -0.062956,
          0.05436, -0.141619, -0.186293, -0.208005, -0.173809, -0.084103, -0.201517, 0.047452,
          -0.060932, -0.066479, 0.225193, 0.053881, 0.053754, -0.156764, -0.096813, -0.307669,
          -0.166443, -0.057756, -0.181182, -0.196106, -0.183178, 0.078313, -0.176046, -0.059742,
          -0.021104, 0.083205, -0.226046, 0.08451, 0.000573, -0.149416, 0.120313, 0.227697, -0.0814,
          -0.13126, 0.129989, 0.064221, -0.162268, -0.163635, -0.089124, 0.02183, 0.010341,
          -0.010697, -0.02083, 0.091248, -0.174707, -0.073692, 0.070667, 0.148008, 0.013625,
          -0.005062, -0.128093, -0.058383, -0.002556, -0.112456, -0.098006, 0.02016, -0.26986,
          -0.132754, -0.08884, -0.027287, -0.150021, 0.112622, 0.128076, 0.056478, 0.180487,
          0.04287, -0.182986, 0.009734, 0.102504, 0.034836, -0.069063, -0.214075, -0.161505,
          -0.05624, 0.099824, -0.03349, -0.08042, 0.143964, -0.016281, -0.101068, -0.139862,
          -0.0877, -0.021756, -0.145641, -0.139128, -0.028419, -0.069471, 0.153303
        ],
        [
          -0.294506, -0.038535, -0.049794, 0.144615, -0.200716, -0.119295, 0.215081, 0.15552,
          0.189047, -0.113262, -0.226127, 0.131972, 0.179565, 0.015363, -0.016537, -0.116956,
          0.095327, -0.170811, -0.00879, -0.012187, -0.077641, -0.158891, -0.314663, -0.08979,
          0.006002, 0.06367, 0.024775, 0.037104, -0.187517, -0.175737, -0.145157, -0.250072,
          -0.130955, 0.252473, -0.066592, 0.134916, -0.069514, 0.121615, 0.135919, -0.002544,
          -0.060318, -0.140817, -0.093828, 0.287319, 0.275563, 0.096102, -0.198724, 0.022754,
          0.085461, -0.005279, -0.175465, 0.007335, 0.002027, 0.099481, -0.188466, 0.238595,
          -0.113757, -0.103671, -0.082024, 0.177498, 0.098992, 0.010572, -0.222605, 0.144711,
          -0.123425, 0.097153, 0.045147, -0.010751, -0.024679, 0.082287, 0.099231, 0.142788,
          -0.047778, 0.177501, -0.133817, -0.127901, 0.230344, 0.142365, -0.128204, 0.139893,
          -0.033757, -0.155227, -0.139966, 0.257476, -0.001977, -0.127829, 0.197821, 0.193897,
          -0.107667, -0.145733, -0.18601, 0.203561, -0.218969, -0.060787, 0.071716, 0.19614
        ],
        [
          -0.004957, 0.1649, -0.164878, 0.139649, -0.135718, -0.04178, 0.149968, -0.187099,
          -0.102837, 0.094245, 0.132636, -0.002459, 0.1044, 0.050099, -0.031734, -0.02199,
          -0.154997, 0.17011, -0.019744, -0.052015, 0.013437, 0.239779, -0.092517, 0.118939,
          -0.007941, 0.00792, -0.282549, 0.126151, 0.253753, 0.020141, 0.154701, 0.248342, 0.131948,
          -0.188359, -0.014625, 0.056583, 0.001767, 0.013971, 0.133878, 0.204725, 0.009631,
          -0.101966, 0.226331, 0.139694, -0.240875, 0.248147, 0.208147, 0.037704, 0.084656,
          -0.138476, -0.236122, -0.050242, 0.117322, -0.1186, 0.010194, -0.116363, 0.005419,
          0.19654, -0.150748, -0.071322, 0.064424, -0.029515, -0.02372, -0.027638, -0.094396,
          -0.163105, -0.09721, -0.125335, 0.169059, -0.056044, 0.000716, -0.010477, -0.265112,
          0.061902, -0.067847, 0.277546, -0.198298, -0.013346, -0.208744, 0.242739, 0.126979,
          0.083985, -0.197728, 0.078087, -0.016954, 0.23408, -0.076105, -0.179775, -0.195665,
          -0.004456, 0.004699, -0.183032, 0.126684, -0.060354, 0.020981, -0.014825
        ],
        [
          -0.013837, 0.11697, -0.147098, -0.082903, 0.188533, 0.130168, -0.10886, -0.079967,
          0.010953, -0.020426, -0.334525, -0.081908, -0.002622, 0.023415, -0.219461, -0.18973,
          -0.101282, 0.150551, -0.314129, -0.099865, 0.098187, -0.232021, 0.100211, -0.057666,
          -0.133657, -0.123839, 0.084881, 0.133349, 0.093775, -0.076532, 0.141634, -0.164014,
          -0.069177, 0.143549, -0.099858, -0.141821, -0.22096, -0.090877, -0.04866, -0.048401,
          -0.026064, 0.117732, 0.162637, -0.03514, -0.219376, -0.084755, 0.092287, -0.061966,
          0.166264, -0.028548, 0.031362, 0.020216, -0.03269, 0.114398, 0.053106, -0.308317, 0.22263,
          -0.089655, 0.122953, 0.123094, 0.087222, -0.222448, 0.012871, -0.026108, 0.043322,
          -0.050391, -0.169151, 0.244642, 0.118662, -0.040207, -0.048875, -0.037085, -0.270614,
          0.156861, -0.09299, 0.108675, -0.144313, -0.091331, 0.078425, 0.162265, -0.092295,
          -0.27538, -0.206934, 0.093451, 0.102606, 0.108549, -0.013031, 0.06049, -0.072564,
          0.199186, 0.017847, -0.109515, 0.158198, -0.139941, -0.152915, 0.070159
        ],
        [
          -0.234549, 0.033857, -0.155577, 0.067236, -0.209272, 0.03615, 0.02025, -0.103844,
          -0.039814, 0.070667, 0.095399, 0.26701, 0.053164, -0.161511, -0.228752, -0.208917,
          0.016683, -0.170812, -0.011236, -0.033133, 0.027505, 0.112231, -0.167709, -0.245919,
          0.105455, 0.018232, 0.152597, 0.042141, -0.017016, 0.044563, 0.13794, 0.120273, -0.151706,
          0.089194, -0.020411, -0.229397, 0.150931, -0.127596, 0.243281, -0.00675, -0.29783,
          0.046367, 0.120362, -0.039319, 0.124054, 0.044938, 0.054538, 0.061859, -0.165952,
          -0.092028, -0.065515, 0.186668, 0.20162, -0.284174, 0.126698, 0.128914, -0.098042,
          -0.032119, 0.249247, -0.139766, 0.096372, -0.142555, 0.206657, 0.188426, 0.168141,
          0.058627, 0.113085, 0.084016, 0.091287, 0.102033, -0.149817, 0.066442, -0.141494,
          -0.181249, -0.135834, 0.030825, -0.032946, 0.117133, -0.060562, -0.133282, -0.02594,
          0.204241, -0.096922, 0.048086, 0.194968, 0.097022, -0.209821, -0.199035, 0.156174,
          -0.172227, 0.186102, 0.002298, 0.179012, 0.155795, 0.231455, -0.184211
        ],
        [
          0.115561, -0.071087, 0.001054, 0.02929, 0.168801, 0.205163, 0.158902, 0.026672, -0.042082,
          0.120017, -0.200013, -0.298527, -0.009768, -0.145537, -0.089632, 0.003109, -0.087551,
          -0.145767, 0.205736, -0.059348, 0.013851, 0.057973, -0.080514, 0.239065, 0.083368,
          -0.238515, -0.068429, 0.172489, 0.246845, -0.042282, -0.044386, -0.134446, 0.149014,
          -0.100217, 0.189293, 0.077025, -0.000348, 0.088371, -0.220562, -0.005847, -0.119697,
          -0.143945, 0.10501, -0.215264, -0.130075, 0.170589, 0.083184, 0.206107, 0.228951,
          -0.114353, -0.028218, 0.184192, 0.08226, -0.12653, 0.083095, -0.011335, -0.140548,
          -0.003848, 0.086196, -0.000434, -0.302221, 0.152413, -0.203533, -0.223643, 0.188829,
          0.211486, 0.213197, 0.113258, 0.094307, -0.043802, -0.229878, -0.068227, -0.015482,
          -0.101486, 0.077152, 0.008575, -0.171893, -0.174062, 0.091161, -0.15429, 0.102176,
          -0.01422, -0.031191, 0.009953, 0.07574, -0.177201, 0.040151, 0.016396, -0.146355,
          0.134461, 0.143178, 0.038643, 0.077613, 0.150986, 0.003994, 0.194749
        ],
        [
          0.097397, 0.061906, 0.060933, 0.128331, -0.100561, 0.141642, 0.119154, -0.236075,
          0.100187, -0.038803, -0.016328, 0.079997, -0.182625, 0.146436, 0.12111, -0.056232,
          -0.220521, -0.087075, 0.075942, 0.255057, 0.023303, -0.053769, 0.060793, 0.040056,
          0.053004, -0.098379, 0.108581, 0.045439, 0.20463, -0.076566, 0.054366, 0.107785,
          -0.120665, 0.178098, 0.165431, -0.19019, -0.060086, 0.121868, -0.224357, -0.056415,
          -0.027871, 0.021909, -0.230416, 0.143377, 0.107007, 0.200122, 0.103382, -0.15424,
          0.125664, -0.119388, -0.116102, -0.070463, 0.028307, 0.103849, 0.100061, -0.082565,
          -0.128821, 0.160182, -0.030182, -0.032294, -0.084964, 0.105625, 0.091204, -0.151382,
          -0.125874, 0.083324, 0.086736, -0.190619, 0.150719, -0.130065, -0.150355, 0.207299,
          -0.135896, 0.084757, -0.053841, -0.153821, 0.169726, -0.058141, 0.123448, -0.066129,
          -0.051026, -0.304089, 0.083041, -0.104676, 0.133098, -0.058494, 0.243207, -0.079896,
          0.164493, 0.086602, 0.129205, 0.13295, 0.11931, 0.091017, -0.222763, -0.202131
        ],
        [
          0.18531, -0.036608, 0.093897, 0.041892, -0.178109, -0.225347, -0.001848, 0.047321,
          -0.20411, 0.075738, -0.127286, 0.089351, -0.075456, 0.103697, -0.006305, -0.035059,
          -0.324079, -0.235705, -0.145773, -0.044382, -0.042659, -0.01537, 0.148621, 0.176478,
          0.092407, -0.180204, -0.024906, -0.183063, -0.003889, 0.162364, -0.196667, -0.0577,
          -0.016388, 0.043789, 0.00885, -0.214556, -0.167146, 0.021901, -0.089302, -0.110096,
          -0.360647, -0.078388, -0.13766, -0.118132, 0.092411, 0.078919, 0.138107, -0.269226,
          -0.319751, -0.163966, 0.086305, 0.05417, -0.130684, 0.201891, -0.103269, -0.003735,
          0.046417, 0.161152, 0.140494, 0.069701, -0.059203, 0.183367, -0.203507, 0.171831,
          -0.036862, 0.146173, -0.046454, 0.041509, 0.045568, 0.08713, -0.210641, -0.127508,
          -0.092187, -0.213767, 0.272584, -0.121427, 0.239074, -0.191205, -0.105565, 0.066647,
          0.001643, -0.091382, 0.058384, 0.156283, -0.137632, 0.222112, 0.226793, 0.064646,
          -0.093421, 0.033808, -0.275516, -0.303229, -0.169211, 0.073135, 0.195624, 0.164009
        ],
        [
          0.02932, 0.012754, -0.123105, -0.030606, 0.20705, 0.003957, 0.126921, 0.019575, -0.002113,
          0.069421, 0.008357, 0.197588, 0.132274, -0.019055, -0.125811, 0.065156, 0.163184,
          -0.164283, 0.026314, 0.018942, 0.081187, -0.07051, 0.074182, 0.165453, -0.253658,
          -0.013563, 0.20394, -0.09677, 0.095708, -0.005231, -0.039987, 0.140012, -0.093785,
          -0.004004, -0.168379, -0.030523, -0.339101, -0.018803, 0.19633, -0.011625, 0.074445,
          -0.045687, 0.102434, -0.087992, 0.164629, 0.039604, -0.119009, -0.216742, -0.242571,
          0.008228, 0.002455, 0.124545, 0.009301, -0.188847, -0.00799, 0.043944, -0.172701,
          -0.251742, 0.026054, 0.093934, 0.082822, 0.003687, 0.177208, 0.138891, 0.032127, 0.16842,
          -0.131908, -0.093915, -0.081245, -0.172085, 0.045558, 0.198496, -0.252236, -0.163807,
          -0.02243, 0.107607, -0.208772, -0.066529, -0.073746, -0.178382, 0.198834, 0.206727,
          -0.182119, 0.140637, 0.131675, 0.167959, -0.037198, -0.021144, -0.043789, 0.04603,
          -0.261643, -0.194155, -0.062864, 0.091101, -0.083814, 0.112299
        ],
        [
          0.176197, -0.228927, 0.045503, 0.002273, 0.128161, -0.121707, 0.031668, 0.111835,
          0.201876, 0.102055, -0.17252, 0.061002, 0.116025, 0.023764, -0.092979, 0.153799, 0.099356,
          0.093048, -0.150333, 0.085642, -0.126987, 0.050235, -0.189763, 0.089329, 0.227223,
          -0.165572, 0.17197, -0.014605, 0.158792, 0.127409, 0.011696, 0.108372, 0.147044, 0.01009,
          -0.014957, 0.045186, 0.09804, 0.127239, 0.103992, -0.090261, 0.141689, -0.065197,
          -0.005727, -0.188271, -0.200432, -0.041901, -0.068615, 0.055515, -0.091887, 0.106554,
          -0.075953, -0.019421, -0.080965, -0.229322, 0.04014, 0.092806, 0.020323, -0.00265,
          -0.007133, 0.13635, 0.034054, -0.02344, -0.286067, -0.050918, -0.043376, 0.086044,
          0.051122, -0.011404, 0.067601, 0.134594, 0.096994, 0.094789, 0.161664, -0.305788,
          -0.19645, -0.242835, 0.070732, 0.176535, -0.078473, 0.148357, -0.083132, 0.171489,
          -0.053358, -0.149297, -0.054688, -0.160866, -0.043989, -0.11311, 0.095637, 0.039945,
          -0.154288, 0.064428, 0.096249, -0.075446, -0.041273, -0.159684
        ],
        [
          -0.103388, 0.072072, -0.196499, -0.066722, 0.120326, -0.142681, -0.025411, -0.244264,
          0.145063, 0.044579, 0.123236, -0.022311, -0.240055, 0.018672, 0.197895, 0.088087,
          0.160496, 0.157324, -0.183471, -0.097278, -0.061589, -0.059322, 0.154847, 0.179955,
          -0.02806, -0.189487, 0.115835, -0.05111, 0.079648, -0.048881, 0.097543, -0.240674,
          0.038813, -0.004313, -0.007144, -0.280461, 0.146241, 0.140529, -0.079466, -0.31465,
          -0.165475, 0.055769, 0.0453, -0.004157, -0.067853, -0.093712, 0.013065, -0.042287,
          0.231347, -0.045465, 0.085019, 0.026609, -0.01235, 0.112319, 0.10835, 0.265937, -0.094291,
          -0.124834, 0.060844, -0.009594, -0.214613, -0.204903, -0.245001, 0.163388, -0.144723,
          -0.047171, -0.001042, -0.036203, -0.110313, 0.050348, -0.253569, 0.034586, -0.284259,
          0.012943, 0.133287, 0.048532, 0.003191, -0.019265, -0.018693, 0.06429, 0.248254, 0.077791,
          0.031495, 0.04983, -0.051445, -0.101447, 0.024176, 0.061409, -0.108425, 0.098367,
          -0.143477, 0.007283, -0.195194, -0.036555, 0.08629, -0.165966
        ],
        [
          0.05699, 0.063216, 0.174999, -0.157472, -0.035341, -0.170693, 0.197405, 0.166768,
          0.067305, 0.145098, 0.0138, 0.028862, 0.010971, 0.099891, -0.057166, 0.08615, 0.105792,
          0.063454, -0.118125, -0.114242, -0.083221, -0.219678, -0.201829, 0.185634, 0.010904,
          -0.025111, -0.087726, 0.007985, 0.011231, 0.027609, 0.183198, 0.011202, 0.198901,
          0.162616, 0.037209, 0.132542, -0.242594, 0.1466, -0.08148, 0.173693, 0.120753, 0.112464,
          0.092004, -0.162466, -0.217846, -0.04411, -0.102769, 0.109558, -0.002089, 0.202042,
          0.10604, 0.15231, -0.207384, 0.140379, 0.136522, 0.082469, 0.021494, 0.091467, -0.055717,
          -0.017457, -0.019916, -0.033442, -0.050479, -0.258978, -0.119819, -0.099189, 0.193731,
          0.061629, 0.190591, -0.135039, -0.073192, 0.011309, 0.019946, -0.21674, 0.092549,
          -0.002821, 0.012342, 0.073783, -0.155365, -0.113631, 0.116544, -0.086847, -0.286718,
          0.198421, -0.084501, 0.103908, 0.186606, -0.023756, -0.028371, -0.133914, -0.099475,
          -0.148067, 0.065217, -0.059759, 0.045699, 0.184644
        ],
        [
          0.110597, 0.013964, -0.3092, 0.017071, -0.199655, 0.077789, -0.172112, 0.04058, 0.033101,
          0.048859, -0.050329, -0.061888, 0.171939, 0.112984, -0.027249, -0.38986, -0.1147,
          -0.030204, -0.406597, -0.176234, 0.174737, -0.161257, 0.122397, -0.176958, -0.196723,
          -0.066237, 0.242862, -0.103412, 0.22557, -0.178493, -0.407686, 0.084063, -0.148638,
          0.058374, -0.300927, -0.062386, -0.018882, -0.041346, 0.117232, 0.042123, -0.183695,
          -0.172616, -0.073275, 0.161787, 0.190271, 0.177952, 0.075372, -0.22011, -0.11222,
          0.058978, -0.189883, 0.295711, -0.184269, 0.148148, -0.035372, 0.131705, -0.117792,
          0.324213, 0.145525, 0.085168, -0.326336, -0.060204, -0.285374, 0.031722, 0.040331,
          -0.064627, -0.060375, -0.23267, 0.133916, -0.198381, -0.217522, -0.248173, 0.11684,
          0.071941, -0.025261, -0.189144, -0.183252, 0.130386, 0.108964, -0.194478, -0.126473,
          -0.330978, 0.026624, 0.278775, -0.239279, -0.198897, -0.29248, 0.15751, -0.276153,
          0.173457, -0.017993, 0.045735, -0.300843, -0.128255, 0.239876, 0.044371
        ],
        [
          0.030863, -0.041596, -0.225973, 0.193094, 0.11526, -0.103269, 0.161103, 0.030855,
          0.085043, 0.055561, 0.121573, 0.047895, -0.195204, -0.053688, 0.18309, -0.18082,
          -0.133334, 0.065858, -0.118578, -0.059611, 0.174737, -0.178255, -0.179466, -0.146971,
          0.107278, 0.071433, -0.124367, 0.086922, 0.124877, 0.126022, 0.161596, -0.112008,
          0.110505, -0.034107, 0.217465, 0.223777, 0.159078, 0.048339, -0.19286, 0.104322, 0.167673,
          0.257907, -0.328953, -0.26462, -0.361544, 0.078333, 0.087463, -0.052058, 0.047053,
          0.144409, 0.075842, 0.019835, 0.044253, 0.070954, -0.047145, 0.066154, 0.046183, 0.137028,
          0.043466, 0.097001, -0.164735, -0.044584, -0.040215, -0.005834, 0.091035, 0.207662,
          -0.226002, -0.04736, 0.105989, -0.053686, 0.011899, 0.035687, 0.019016, -0.197047,
          -0.016258, 0.163435, 0.03697, -0.144608, 0.102046, -0.202656, 0.141246, -0.252547,
          0.158628, -0.15071, -0.029789, -0.294284, -0.085788, 0.075128, 0.193033, 0.042189,
          0.010074, 0.086055, 0.154056, 0.077134, 0.011525, -0.043261
        ],
        [
          0.110197, -0.279299, 0.032909, -0.002277, 0.044034, 0.141755, -0.059717, -0.002295,
          0.052727, -0.241794, -0.181877, 0.050301, 0.044248, -0.134408, 0.034028, 0.133765,
          -0.234303, 0.110057, -0.009517, -0.241962, -0.254987, -0.028707, 0.129512, 0.077059,
          0.089465, 0.022209, -0.056047, -0.139305, 0.19271, -0.211752, -0.276951, -0.052232,
          0.095348, 0.074308, 0.2447, 0.190454, 0.178751, -0.152364, 0.099192, 0.135095, -0.339663,
          -0.026222, 0.01784, -0.03288, 0.028387, 0.031411, -0.153279, -0.067546, -0.150538,
          -0.073817, -0.02666, 0.156646, -0.126923, 0.014245, -0.113872, 0.17061, -0.126229,
          0.137239, 0.155199, 0.08163, -0.168999, 0.115766, -0.060482, 0.008744, -0.307138,
          -0.134149, 0.112759, 0.011865, -0.034371, 0.065283, 0.113199, -0.197549, -0.01096,
          -0.132075, 0.128547, 0.063942, 0.177342, -0.377525, -0.04021, -0.115664, -0.079642,
          -0.06179, 0.157402, -0.07634, -0.263958, 0.077621, 0.008481, 0.107317, -0.142484,
          -0.020599, -0.351811, -0.375348, 0.088557, -0.380266, 0.035001, -0.043344
        ],
        [
          -0.059821, 0.136077, -0.235628, 0.029855, 0.089783, 0.099068, 0.053708, -0.219583,
          -0.011238, -0.087224, 0.039414, 0.180678, -0.082339, 0.071915, -0.296153, -0.067678,
          -0.050588, 0.167274, -0.079835, -0.144258, -0.130814, -0.106322, -0.112704, -0.029274,
          0.131846, 0.067256, 0.099002, -0.354697, 0.171187, -0.006632, -0.341704, 0.110105,
          -0.084651, -0.270842, -0.147962, 0.011703, -0.032129, 0.217602, 0.156177, 0.146273,
          -0.169061, -0.2238, 0.002393, 0.031754, -0.116888, 0.022525, 0.08584, 0.012199, -0.384766,
          0.159025, -0.18246, -0.051325, -0.065545, -0.073754, 0.100441, 0.064095, -0.223317,
          0.149731, 0.239437, 0.217693, -0.113794, -0.050235, 0.058815, 0.084709, -0.274568,
          -0.290691, 0.114475, 0.124015, 0.07244, -0.061047, -0.280393, -0.001204, 0.099431,
          -0.067717, 0.126378, 0.165505, -0.273879, -0.006082, -0.030091, 0.048692, 0.029016,
          -0.131315, 0.097175, -0.029424, -0.023686, -0.014057, -0.209929, 0.055092, -0.046116,
          -0.039149, 0.115293, 0.23877, -0.241541, 0.185102, 0.045638, -0.139573
        ],
        [
          -0.143368, 0.140959, 0.055865, -0.07464, -0.013767, 0.103734, -0.157251, 0.132885,
          0.137562, -0.036279, 0.169951, 0.047306, 0.175419, 0.039535, 0.023533, -0.119083,
          0.122355, -0.094267, -0.265304, -0.191622, 0.038809, -0.009937, 0.07865, 0.102219,
          -0.083147, 0.16433, -0.070656, 0.120028, 0.177147, -0.010271, 0.063715, -0.204977,
          -0.006306, 0.118626, -0.039402, -0.074236, 0.022042, 0.167502, -0.088596, -0.186372,
          0.060758, 0.10639, -0.240172, -0.080978, -0.056161, -0.029887, 0.024996, 0.091195,
          0.024828, 0.07366, 0.023935, 0.153146, 0.021386, 0.252856, 0.036177, -0.027368, 0.040008,
          -0.159229, 0.042702, -0.224297, -0.115243, 0.097319, -0.212543, 0.106444, -0.02202,
          0.099363, 0.043504, -0.006033, -0.138664, -0.082179, -0.355572, -0.117817, 0.082652,
          0.142313, 0.174488, 0.112321, 0.120699, 0.094741, -0.058366, 0.170006, 0.098219, 0.033421,
          -0.134528, -0.001847, 0.020689, 0.128908, 0.068645, -0.104995, 0.149185, -0.259204,
          -0.024745, -0.205553, 0.048849, 0.168794, -0.074185, 0.126045
        ],
        [
          -0.060355, 0.152507, 0.07938, 0.109279, -0.159199, 0.253621, 0.068405, -0.050781,
          0.121713, -0.060994, 0.188395, -0.102339, 0.09969, -0.023942, -0.212108, -0.058002,
          -0.332645, -0.04313, -0.130497, 0.041336, -0.070617, -0.242048, 0.134702, -0.205806,
          0.134743, 0.198528, 0.109473, 0.003481, 0.178438, -0.18137, -0.115916, -0.096986,
          0.127508, -0.18252, 0.059575, 0.209742, 0.189085, 0.01575, -0.120833, 0.143582, 0.003332,
          -0.149674, -0.19292, 0.145496, 0.065586, 0.172585, 0.184423, 0.004961, 0.08258, -0.094105,
          -0.213152, 0.058847, 0.084602, 0.039838, 0.137173, 0.040731, 0.048352, 0.040663, 0.102504,
          0.090343, 0.018619, 0.004537, -0.19844, -0.097726, -0.198102, 0.02171, 0.180943, 0.07591,
          0.067075, -0.011462, 0.066314, -0.117425, -0.158485, -0.089496, 0.001498, -0.176337,
          -0.163971, -0.139471, 0.278727, -0.018768, 0.015304, -0.120702, 0.037693, -0.065366,
          -0.218698, 0.010875, -0.181892, -0.205078, -0.121134, -0.115706, -0.032755, 0.01579,
          0.100808, 0.038791, 0.046647, -0.090079
        ],
        [
          0.237769, -0.21211, -0.358248, 0.008529, -0.316659, 0.064359, 0.028124, 0.131383,
          0.024224, 0.188492, 0.237882, -0.152281, -0.074502, -0.031776, -0.182073, -0.198658,
          0.169544, 0.081002, -0.032741, -0.075281, 0.160383, 0.292063, 0.209243, -0.2516, 0.05738,
          -0.049639, 0.023253, -0.277097, 0.079943, 0.050839, -0.209206, -0.178993, -0.015362,
          -0.122778, -0.089616, -0.012812, 0.117022, -0.14172, -0.031436, -0.118046, 0.115662,
          -0.012128, 0.043731, 0.041597, 0.021499, -0.164497, 0.090647, 0.134028, 0.015906,
          0.228507, 0.092607, -0.118363, 0.158176, -0.269672, -0.006037, 0.057551, -0.261202,
          0.129023, -0.07501, 0.014155, -0.049305, -0.186836, -0.288708, 0.042053, -0.211512,
          0.089479, 0.107954, 0.176362, 0.13547, -0.140208, 0.021064, -0.196517, -0.248206,
          0.055551, 0.038232, 0.122428, 0.107409, 0.181542, 0.291241, -0.112012, 0.009752,
          -0.000402, -0.134256, 0.13074, 0.029406, 0.130737, -0.17898, -0.08939, -0.179428,
          -0.132884, 0.096129, -0.08022, -0.233332, -0.258558, 0.064988, 0.071012
        ],
        [
          -0.076957, -0.237498, -0.083456, -0.109517, 0.018035, 0.046897, -0.113486, -0.170187,
          0.154154, 0.050958, -0.012339, -0.101642, -0.004175, -0.156692, 0.02207, 0.136915,
          -0.042162, -0.231973, -0.235802, -0.058377, -0.137844, -0.230124, 0.093983, -0.027746,
          -0.067991, 0.124898, -0.078383, 0.116077, -0.050063, 0.107192, -0.036238, 0.086062,
          0.152884, -0.032602, 0.17956, -0.053459, -0.12801, -0.035148, 0.046897, -0.196892,
          -0.055662, 0.005932, 0.019855, 0.12692, -0.096699, -0.089681, -0.14873, -0.203804,
          -0.26869, 0.020107, -0.092156, 0.212234, 0.079877, -0.126879, -0.026001, -0.144904,
          -0.058436, 0.0891, 0.043935, -0.058796, 0.213912, 0.13229, -0.054474, 0.034915, -0.020868,
          -0.119255, -0.059335, -0.189799, 0.066033, 0.045916, -0.226461, 0.185882, 0.145209,
          0.035666, 0.009519, 0.076753, -0.15854, 0.098816, -0.12476, 0.07052, -0.023291, 0.035679,
          0.176114, -0.131381, -0.063039, 0.205522, -0.05631, 0.100042, -0.058164, -0.062419,
          -0.176029, -0.113, 0.022188, -0.033446, -0.004454, -0.016983
        ],
        [
          -0.039395, 0.085469, 0.18887, -0.017499, 0.133031, 0.072609, -0.063421, 0.196767,
          -0.178361, -0.156409, 0.262411, -0.021784, 0.110354, 0.186855, -0.244603, 0.118142,
          -0.050129, -0.096746, -0.035166, 0.148384, -0.140013, -0.010108, 0.189718, 0.182902,
          0.065628, -0.120124, -0.030684, -0.02797, 0.131636, -0.138576, -0.183821, 0.106344,
          -0.352114, 0.276806, 0.125224, 0.199714, -0.051207, -0.101613, 0.06832, 0.120489,
          0.042899, -0.186412, 0.075193, 0.009039, 0.027616, 0.099988, 0.064443, 0.063806,
          -0.022901, 0.04997, -0.252046, -0.000921, -0.054747, -0.114905, 0.020362, -0.212792,
          0.017223, 0.194366, -0.098241, 0.148009, 0.003097, -0.091611, -0.20552, -0.049018,
          0.12884, 0.119496, -0.189793, -0.132472, 0.012676, -0.187628, -0.156999, -0.136031,
          -0.020317, 0.184162, -0.014935, 0.223317, -0.195754, -0.097678, 0.033351, 0.011475,
          0.302424, 0.122308, -0.10167, -0.106593, -0.295486, 0.195462, 0.001658, -0.034065,
          -0.000861, 0.020758, -0.213279, -0.003798, -0.202916, 0.322717, 0.134619, 0.161363
        ],
        [
          -0.018057, 0.005525, -0.267676, 0.119846, -0.092549, 0.029324, -0.098738, -0.180086,
          0.035783, -0.215838, 0.18341, -0.03145, -0.279081, 0.022218, -0.075417, -0.033748,
          0.109995, -0.128686, 0.165602, -0.26302, -0.042797, 0.052603, -0.136524, -0.087849,
          -0.079488, -0.155506, 0.149271, 0.064413, 0.022775, 0.151716, 0.088505, 0.182299,
          -0.173853, 0.218616, -0.270533, 0.004992, -0.022584, -0.086312, -0.010469, 0.07391,
          -0.157266, -0.060706, 0.024106, 0.054767, 0.17545, 0.119356, 0.105427, 0.001677,
          -0.055126, -0.176536, 0.161368, 0.051473, -0.242234, 0.036052, 0.187031, 0.021162,
          -0.039866, 0.017323, -0.114456, -0.148575, -0.142136, -0.285974, 0.107886, -0.086595,
          0.211712, 0.124006, -0.171074, 0.089463, -0.04349, 0.111349, -0.139264, 0.026677,
          -0.028763, -0.126059, -0.247767, 0.004428, 0.019767, -0.085595, 0.123714, 0.014921,
          0.105573, -0.213517, 0.209495, -0.143373, -0.016937, -0.173987, -0.07488, -0.18089,
          -0.211505, 0.162535, -0.316065, -0.070934, 0.003655, -0.124842, -0.139625, 0.02407
        ],
        [
          -0.06123, -0.012225, -0.005287, 0.054512, -0.17436, -0.103776, 0.257775, 0.008791,
          0.07992, -0.175208, 0.148856, 0.11887, 0.012594, 0.248486, -0.077054, -0.276008, 0.022333,
          0.17335, -0.145097, -0.157593, -0.023058, -0.113548, 0.168969, 0.05822, -0.107845,
          -0.05862, -0.313013, -0.039446, 0.022639, 0.200669, 0.195522, -0.372773, 0.148088,
          0.049566, 0.12682, -0.078841, -0.121701, -0.148539, -0.209186, 0.073559, -0.054358,
          0.016253, 0.086931, -0.000289, -0.115163, 0.144422, 0.163797, 0.147046, 0.155538,
          0.066576, 0.281933, -0.176064, -0.053824, -0.196966, -0.014399, -0.187809, 0.072354,
          0.047028, 0.055911, -0.066991, 0.078003, -0.010425, -0.0207, 0.023829, -0.206136,
          -0.138278, 0.164972, -0.101391, -0.003701, 0.11546, 0.069021, -0.158411, -0.082837,
          -0.220214, 0.175204, -0.008938, -0.21058, 0.215751, -0.061178, -0.081835, 0.066867,
          0.091836, -0.040706, -0.083803, 0.14449, -0.058242, -0.033568, -0.09031, -0.29053,
          -0.22766, 0.032204, -0.06427, -0.182213, 0.213836, 0.158806, 0.102062
        ],
        [
          2e-6, 0.0, 0.000148, -0.0, 0.000114, 0.000356, 0.0, 0.000256, -0.0, -0.0, -0.0, -0.0,
          -5.1e-5, 0.0, 0.000257, -0.0, 0.0, 2.5e-5, 9e-5, 0.000146, -0.0, 0.000233, -0.0, -1e-6,
          -0.0, -0.0, -0.0, 0.0, -0.0, -0.0, -0.0, -0.0, 0.0, -0.000303, -0.000326, 0.0, 5e-5, 0.0,
          0.0, -0.0, -0.0, 1e-6, -0.0, -2.2e-5, 0.0, -0.000196, 0.0, 0.0, -8e-6, -0.0, -0.0, 3.9e-5,
          0.000344, -0.000127, -0.0, 0.0, 0.0, -0.0, 3.8e-5, 0.000112, -0.0, 0.0, 0.0, -0.0, -0.0,
          -0.0, 0.0, 0.0, -0.0, 3.7e-5, -1.7e-5, -0.0, -0.0, -0.00015, -0.000163, -0.0, 3e-6, 0.0,
          0.00011, -0.0, -0.0, -0.0, 0.0, -0.0, 0.0, 0.0, 1.4e-5, 9.8e-5, 1.3e-5, 0.0, 0.0, -0.0,
          0.0, -0.0, -0.0, -0.0
        ],
        [
          -0.062647, 0.139997, -0.164091, -0.204813, -0.218196, 0.170857, -0.011982, 0.01718,
          0.139984, 0.13684, -0.150815, 0.067519, 0.109199, 0.081423, -0.114833, 0.157884, 0.062782,
          -0.139077, 0.004648, -0.192785, -0.15108, 0.058041, -0.198498, 0.015243, 0.046456,
          -0.189244, 0.187019, -0.071395, -0.090858, -0.113477, -0.182822, -0.229689, 0.113598,
          0.176906, -0.103106, 0.044048, 0.073304, 0.147447, -0.028178, -0.141612, -0.112451,
          0.081585, 0.123273, -0.122215, -0.124376, 0.140578, 0.10553, 0.184487, 0.088345,
          -0.073682, 0.023752, 0.052817, -0.103291, 0.009384, 0.089882, -0.190363, 0.091286,
          0.049572, 0.198418, -0.201625, -0.013526, 0.024282, -0.181956, 0.09945, 0.122144,
          -0.158228, 0.037406, -0.009088, -0.070725, 0.19753, 0.139688, 0.091921, 0.085877,
          -0.009631, 0.136511, 0.070203, 0.11576, 0.137582, -0.066837, 0.10875, -0.054702,
          -0.001916, -0.011802, 0.183644, 0.201377, 0.041508, 0.117977, 0.058676, 0.176556,
          0.018558, -0.140111, -0.12939, 0.129904, 0.090665, -0.05274, -0.19823
        ],
        [
          0.112755, -0.260912, 0.061642, 0.174547, -0.074479, -0.098947, 0.042344, 0.121379,
          0.011164, 0.201204, -0.258466, 0.04747, 0.051995, 0.138673, -0.103444, 0.122149, 0.013291,
          -0.094358, -0.195776, 0.137894, -0.138926, -0.117536, -0.085517, 0.149371, 0.070106,
          0.101632, -0.026529, 0.033539, 0.029372, 0.121154, 0.133975, -0.223832, 0.072876,
          -0.121851, 0.044468, -0.091856, -0.157767, -0.030306, 0.062138, -0.128719, 0.052308,
          -0.047262, -0.245186, 0.120163, -0.157112, -0.039345, 0.061588, -0.152376, -0.269109,
          0.013266, 0.184552, 0.069879, 0.087212, 0.05094, -0.166714, -0.036304, 0.074906,
          -0.116353, -0.037173, -0.10844, -0.004208, 0.183862, -0.269804, 0.015852, -0.189249,
          0.195576, -0.167715, -0.04952, 0.1074, 0.085305, -0.151791, -0.03521, -0.050478, -0.13939,
          -0.116802, -0.067816, -0.106162, -0.098961, 0.076726, 0.167241, 0.042357, -0.27803,
          -0.162727, 0.197381, -0.122762, -0.126881, 0.014236, 0.042181, 0.040169, -0.103292,
          -0.280933, 0.180266, -0.179434, 0.037608, 0.071001, 0.04522
        ],
        [
          -0.087123, -0.160062, 0.038367, 0.145835, 0.137022, -0.149713, -0.194446, 0.177456,
          0.094145, 0.161312, -0.200117, 0.056933, 0.065552, 0.075479, -0.013719, -0.234205,
          0.046215, -0.149574, -0.069233, 0.177972, -0.043855, 0.079739, -0.124603, 0.081482,
          0.210827, -0.169663, -0.120006, -0.090743, -0.136261, 0.117944, 0.154497, -0.063357,
          -0.123767, 0.022644, 0.096503, -0.196872, 0.02009, 0.05581, 0.073201, -0.163594, 0.083344,
          -0.168683, -0.195179, 0.150115, 0.079133, -0.201049, -0.153048, -0.196424, -0.184596,
          -0.015145, -0.170745, 0.011021, 0.097205, 0.040586, 0.047803, -0.167489, 0.182172,
          0.139678, 0.124503, 0.129215, 0.177241, 0.001826, -0.218385, 0.047754, 0.103087, 0.111092,
          0.002222, -0.178627, 0.024909, 0.172013, 0.024563, 0.016253, -0.099693, -0.099567,
          0.17151, 0.061332, 0.119011, -0.03335, 0.051289, -0.138502, 0.085249, -0.140579,
          -0.019554, 0.057135, 0.173361, -0.137378, 0.127584, -0.11879, -0.113918, -0.196258,
          -0.170113, 0.004012, -0.256267, -0.003727, 0.179988, -0.165996
        ],
        [
          0.155569, -0.109016, 0.073103, -0.131852, -0.187262, -0.130637, -0.234041, -0.186313,
          -0.001875, 0.094139, 0.105948, 0.080273, -0.151193, -0.057522, -0.004774, -0.145232,
          0.006548, -0.015283, -0.107693, -0.073733, 0.0721, 0.040818, -0.081082, 0.204173,
          0.153036, -0.091076, -0.037418, -0.013736, 0.132755, 0.159979, -0.236987, -0.081709,
          0.051817, 0.015748, -0.11822, 0.199297, 0.044215, 0.089248, 0.169204, 0.064307, -0.065327,
          0.08157, -0.217478, 0.053293, -0.203072, 0.134473, -0.163191, -0.243374, -0.230006,
          -0.114558, 0.053846, 0.051268, 0.021737, -0.205251, -0.22082, -0.196041, -0.171327,
          0.152946, -0.053471, -0.078756, -0.135483, -0.126735, 0.052282, 0.091785, -0.169138,
          -0.180673, 0.010806, -0.118861, -0.051216, 0.140323, 0.040289, 0.016508, -0.045787,
          -0.07885, -0.02392, 0.057973, 0.090945, -0.147098, 0.025338, -0.078666, 0.193458,
          0.096079, 0.062704, -0.150379, 0.011268, -0.123852, -0.11576, -0.182368, 0.12446,
          -0.131983, -0.138691, 0.108826, -0.201189, 0.027342, -0.040858, -0.206258
        ],
        [
          0.106738, -0.244088, -0.058757, 0.019749, 0.001508, 0.066729, -0.160625, -0.256066,
          0.066203, 0.044245, 0.112575, 0.151398, 0.127258, 0.022581, -0.045159, 0.079006,
          -0.007029, -0.180883, 0.11706, 0.14683, -0.017166, -0.212884, -0.049063, 0.099081,
          0.166971, -0.138368, -0.101354, 0.109505, -0.021617, -0.023241, 0.154545, -0.209826,
          0.031553, -0.119366, -0.045932, 0.110395, -0.113442, 0.200914, 0.042494, -0.137985,
          -0.188738, -0.070108, -0.132735, -0.169787, -0.126622, -0.028049, 0.076874, 0.005718,
          0.039929, -0.110963, -0.116344, 0.061079, 0.005156, -0.265002, 0.112301, 0.090278,
          0.025431, -0.132555, 0.138492, 0.018134, 0.149184, 0.107063, 0.065083, 0.015615,
          -0.209882, 0.060893, 0.027353, 0.105159, -0.055689, -0.088278, 0.086982, 0.122944, 0.1641,
          0.058403, 0.018444, 0.008435, 0.180625, 0.008467, 0.042938, -0.179219, 0.051969,
          -0.001409, -0.088584, -0.115437, -0.124057, -0.074406, -0.162935, -0.07009, 0.158298,
          -0.014931, -0.219206, -0.165899, 0.030785, -0.037788, 0.131732, 0.072015
        ],
        [
          0.095525, -0.162333, 0.06443, -0.129456, 0.171448, 0.084919, -0.131376, -0.151622,
          -0.160341, 0.076341, -0.197044, 0.066581, -0.088667, 0.079108, 0.113704, 0.10312,
          0.073607, -0.177883, -0.214676, 0.046878, -0.05655, -0.070028, -0.188826, -0.104342,
          -0.169297, 0.136332, -0.070543, 0.008294, -0.159958, 0.044582, -0.147616, 0.176528,
          0.152693, -0.032966, 0.117872, 0.173966, 0.13532, 0.141168, -0.064259, 0.03906, -0.247511,
          -0.17039, 0.218267, -0.067542, 0.093896, 0.108073, 0.147044, 0.191764, -0.198158,
          -0.096616, -0.039874, -0.116069, -0.127025, -0.125008, 0.104259, 0.032393, -0.111467,
          0.02444, -0.056295, -0.214073, 0.115245, 0.013425, 0.053408, -0.169896, 0.139105,
          0.030519, -0.030226, 0.051519, 0.183578, 0.00127, 0.009834, 0.204283, 0.097902, -0.072419,
          0.087059, -0.105447, -0.124834, 0.037918, 0.189865, 0.179785, 0.000893, -0.102369,
          -0.111462, 0.20221, 0.207066, 0.046648, 0.136277, 0.110848, 0.036297, -0.189283,
          -0.112631, 0.108318, 0.077934, -0.040608, 0.173934, -0.145045
        ],
        [
          -0.01915, 0.075008, 0.098492, 0.063568, -0.14063, -0.132028, -0.01821, -0.006589,
          -0.16579, 0.108172, -0.085313, 0.063238, 0.144881, -0.104686, -0.169688, 0.12652,
          0.090475, 0.097079, 0.143616, 0.137234, 0.140776, -0.025622, -0.015349, -0.050126,
          -0.124045, -0.002367, -0.018083, 0.165475, 0.024026, 0.053246, -0.094334, -0.215592,
          -0.217003, 0.01767, -0.160827, 0.040219, 0.055171, 0.130929, 0.104353, -0.181234,
          0.080285, 0.186651, -0.202179, 0.053441, -0.15974, 0.122842, 0.193049, -0.276128,
          0.170146, 0.066494, 0.167953, 0.014621, 0.133779, -0.24274, -0.121502, -0.176406,
          0.207268, 0.129426, 0.134258, 0.126232, -0.142947, -0.061368, -0.274292, -0.10479,
          -0.17478, -0.00788, -0.110526, -0.171106, -0.05665, -0.106873, 0.19404, 0.155231, 0.20829,
          -0.074271, -0.090458, 0.110014, -0.088016, -0.0957, -0.084406, -0.189828, -0.033164,
          -0.17163, 0.102061, -0.170262, -0.163842, 0.103472, -0.189546, -0.102584, 0.149221,
          -0.151432, -0.261015, -0.003418, -0.161457, 0.02683, 0.074019, -0.158237
        ],
        [
          0.059765, -0.070592, -0.191206, 0.086871, -0.141403, -0.000322, -0.228654, -0.076399,
          -0.1151, 0.113846, -0.262754, 0.041975, -0.029138, 0.042704, 0.067914, 0.106273, 0.101511,
          0.177812, -0.124841, 0.060158, 0.061561, 0.128799, 0.125153, -0.066554, -0.107886,
          -0.020684, 0.067645, 0.07195, -0.003148, 0.181213, -0.046884, 0.10869, -0.069142,
          -0.019726, 0.055149, 0.165541, -0.234516, -0.093402, 0.222879, -0.195514, -0.011766,
          0.066822, -0.002511, 0.028897, -0.182457, 0.050394, -0.022845, 0.081671, -0.239267,
          0.018506, -0.129256, -0.057585, -0.051225, -0.195938, 0.100745, -0.089429, 0.232557,
          0.152042, 0.000244, -0.163398, -0.02792, 0.145064, -0.156688, -0.153535, 0.034691,
          0.194944, 0.127203, -0.141876, 0.018507, -0.078519, -0.23657, 0.159839, -0.111208,
          -0.144098, -0.200629, 0.186171, 0.108832, -0.007154, 0.053674, -0.181183, 0.062827,
          -0.173362, -0.159308, 0.000234, 0.163729, -0.153403, -0.133194, -0.156136, -0.198381,
          0.207618, 0.028685, -0.01068, 0.170829, -0.126697, -0.013978, -0.042281
        ],
        [
          0.108607, 0.138523, 0.046545, -0.118131, 0.158713, -0.395755, -0.536795, -0.285732,
          -0.03984, 0.02316, 0.036914, 0.082525, -0.002621, 0.048217, -0.152701, -0.162235,
          0.073266, -0.001925, 0.103044, -0.091899, -0.756583, -0.45317, -0.190632, -0.145484,
          0.069776, -0.347178, -0.009113, -0.019335, -0.340254, -0.125984, 0.207072, -0.096675,
          0.110504, 0.023359, 0.095525, -0.154971, 0.347868, 0.047048, 0.202684, -0.060672,
          -0.207218, -0.157752, 0.10903, -0.0026, 0.020522, -0.104353, -0.048004, -0.212765,
          0.203953, 0.132425, 0.152423, -0.305581, 0.050023, 0.075174, -0.210986, 0.217419,
          0.147825, 0.337709, 0.069941, -0.325101, -0.110667, 0.151807, -0.035537, 0.043679,
          0.044225, 0.014229, 0.269555, -0.078573, -0.20981, -0.251156, -0.121393, -0.118794,
          0.005484, 0.108118, 0.22762, -0.014935, -0.237993, 0.192475, -0.445767, -0.339541,
          0.020211, 0.040232, -0.103087, 0.2486, -0.104399, 0.067523, -0.032966, -0.09387, 0.049952,
          0.195472, 0.117843, -0.003206, 0.175607, 0.181858, 0.063701, -0.177871
        ],
        [
          -0.176553, -0.152957, 0.102568, -0.039009, -0.041258, 0.180088, 0.115119, 0.185549,
          -0.07078, -0.010253, -0.030299, -0.072514, -0.14086, -0.033308, -0.052115, 0.1273,
          -0.156912, 0.062514, 0.044792, -0.055048, -0.041552, -0.091526, 0.043414, -0.069585,
          -0.159178, -0.109731, 0.00587, 0.123572, -0.080969, 0.154503, -0.041255, 0.132857,
          0.114853, 0.023246, 0.062563, 0.13594, -0.031082, -0.106802, -0.202165, 0.121028,
          0.172568, -0.157451, 0.010616, -0.028814, -0.199571, 0.20613, -0.151348, -0.135821,
          -0.029178, 0.156335, -0.13248, 0.043976, -0.000771, -0.174478, -0.16541, 0.000379,
          -0.120923, 0.1896, 0.144607, 0.189643, -0.125228, 0.209315, -0.0405, -0.022284, -0.216204,
          -0.210725, 0.047087, 0.03772, -0.144958, 0.007899, -0.055396, 0.028873, -0.010628,
          0.104656, 0.091257, -0.045544, -0.036271, -0.108818, 0.1204, -0.146699, -0.157871,
          -0.156972, 0.046989, -0.030124, 0.089054, -0.114773, -0.091977, 0.141374, 0.093568,
          -0.017398, 0.055444, -0.12126, 0.165095, -0.085669, 0.197631, 0.04031
        ],
        [
          -0.01027, -0.152904, -0.046184, -0.034349, -0.135557, 0.039184, 0.235963, 0.005466,
          0.082382, -0.087209, -0.095599, -0.20813, 0.058873, 0.146991, 0.089276, -0.164686,
          -0.055956, 0.053201, -0.071275, 0.104292, 0.166169, 0.055776, -0.055754, -0.056277,
          -0.13639, -0.104344, -0.022133, 0.110767, 0.081826, -0.234273, 0.063103, -0.086942,
          -0.12385, 0.136336, -0.184532, -0.007327, -0.144007, 0.190292, 0.027146, -0.097563,
          -0.049665, 0.090989, 0.205975, -0.099046, 0.201552, 0.164423, 0.204473, 0.015435,
          0.120213, -0.098787, 0.045359, 0.033036, 0.085694, -0.015152, 0.12653, 0.15862, -0.104852,
          0.122853, 0.000853, 0.14601, 2.5e-5, -0.067982, 0.180808, -0.140324, 0.173493, 0.023116,
          0.036382, -0.132368, 0.063736, -0.032527, -0.231364, -0.089788, -0.24643, 0.220019,
          0.227315, -0.006076, 0.068343, -0.009351, 0.072855, 0.20081, 0.220967, -0.051684,
          0.054294, -0.071886, 0.247274, -0.190207, 0.08571, 0.048191, 0.113711, -0.183128,
          0.105641, -0.087646, 0.05992, -0.181117, -0.100027, 0.05302
        ],
        [
          -0.132752, -0.204998, -0.145631, -0.063058, 0.150751, 0.228191, -0.054387, -0.028709,
          -0.134794, -0.223147, 0.081992, 0.001464, -0.237731, -0.156453, -0.186177, 0.139815,
          0.327714, -0.100926, -0.055385, 0.202603, 0.180417, -0.116437, -0.072906, -0.273856,
          0.184467, -0.034269, -0.260812, 0.035305, -0.128596, 0.19421, 0.023159, -0.272517,
          0.170906, -0.023179, 0.208397, 0.016632, -0.065393, 0.159285, -0.072674, 0.291453,
          -0.080151, 0.033824, -0.181481, 0.006798, 0.1757, 0.22615, -0.000733, -0.093314, 0.237994,
          0.101287, -0.225331, -0.014798, -0.12454, 0.275924, -0.176101, -0.111117, 0.1551,
          -0.197562, 0.064997, -0.025328, -0.06565, -0.003149, -0.010522, -0.156341, 0.018698,
          0.07729, 0.171401, -0.27381, -0.15033, -0.093079, 0.017819, -0.209622, -0.005673,
          -0.209579, -0.172502, -0.010009, 0.213179, -0.164568, 0.163914, -0.030785, 0.326362,
          0.231663, -0.064334, -0.065872, -0.017123, -0.122205, 0.036742, 0.189974, 0.077372,
          0.223147, 0.102566, -0.223111, 0.15533, 0.018395, -0.048531, -0.124362
        ],
        [
          -0.166211, 0.221174, -0.147768, 0.236639, 0.159243, 0.139887, 0.025838, 0.13451, 0.124642,
          -0.029915, -0.008622, 0.208997, -0.14171, -0.05645, -0.116992, 0.011038, 0.193992,
          -0.145321, 0.208553, 0.081945, 0.156785, 0.019441, 0.098561, -0.175509, 0.140651,
          -0.187016, 0.042488, 0.24919, -0.074024, -0.174305, 0.003861, -0.052006, 0.033508,
          -0.146937, -0.116648, 0.221324, 0.006929, 0.125349, -0.180302, 0.108402, 0.162516,
          0.054633, 0.083731, 0.051319, -0.042935, -0.029941, 0.137027, -0.097216, 0.068911,
          -0.004278, 0.049036, 0.131935, -0.149665, -0.223076, -0.193469, -0.031114, 0.156047,
          -0.13897, 0.013655, -0.051869, 0.034537, 0.287191, -0.042757, 0.01588, -0.135519,
          -0.162477, -0.073766, -0.204329, -0.066961, -0.196918, -0.000461, -0.083044, -0.121575,
          0.111716, 0.159505, -0.218868, 0.211223, 0.010058, -0.031066, 0.012367, -0.10777,
          -0.164533, 0.063855, -0.148473, 0.271079, -0.018358, -0.168484, 0.050556, -0.135711,
          -0.06839, 0.087283, 0.156807, 0.188682, 0.137639, 0.008332, 0.225852
        ],
        [
          -0.012414, -0.294431, -0.100136, -0.179, 0.123899, -0.030886, 0.006435, -0.239411,
          0.204912, -0.09784, 0.075897, -0.022728, 0.119531, -0.12167, -0.182545, 0.192761,
          0.291149, 0.076517, -0.102985, -0.095269, 0.042802, 0.098551, -0.136699, -0.260016,
          0.191602, -0.049748, -0.096919, -0.311773, 9.2e-5, 0.21418, 0.214871, 0.085781, 0.018537,
          -0.083331, 0.020031, -0.054022, 0.114032, -0.110314, -0.064486, -0.219169, -0.063125,
          -0.181404, -0.245951, 0.209257, -0.009218, 0.020488, 0.149505, 0.274723, 0.090742,
          0.161591, -0.102536, -0.138802, -0.016272, 0.075992, 0.093281, -0.071047, -0.158269,
          0.037268, -0.129664, 0.011468, 0.130006, 0.052196, 0.143453, 0.209806, -0.075568,
          -0.018757, 0.05737, -0.222494, -0.114921, -0.106566, 0.008433, 0.056048, 0.130143,
          -0.19621, -0.152452, 0.295006, -0.095649, -0.002695, -0.012572, -0.002258, -0.137017,
          -0.087803, -0.179887, 0.071648, -0.001478, -0.141909, 0.124077, 0.097062, -0.292347,
          0.068174, 0.044656, -0.059269, -0.022236, 0.070889, 0.145657, 0.117681
        ],
        [
          0.039868, 0.184111, -0.089778, 0.155012, -0.053741, -0.048358, 0.029895, 0.031689,
          -0.095481, 0.114469, -0.059034, -0.060156, -0.247538, 0.127721, 0.073991, -0.097054,
          -0.024208, -0.000717, 0.117236, 0.063224, 0.002659, 0.092671, -0.117559, -0.144414,
          -0.033708, 0.162479, 0.005651, -0.286675, 0.017114, -0.07331, -0.108383, 0.01968,
          0.277456, 0.009362, -0.085609, -0.121077, -0.230774, 0.159797, 0.051887, -0.009797,
          -0.003575, 0.006024, -0.062004, -0.161541, 0.173216, 0.193914, 0.132048, 0.256442,
          -0.155306, -0.023212, 0.080925, 0.025517, -0.043123, -0.079414, -0.185475, -0.097002,
          -0.148597, 0.032498, -0.147762, -0.110246, 0.085531, 0.054832, 0.183208, 0.082055,
          -0.12484, 0.141887, 0.043928, -0.202734, -0.032826, 0.13314, 0.042695, -0.077157,
          -0.150659, -0.158661, 0.060675, 0.047946, -0.214158, 0.179067, 0.114388, 0.097817,
          0.174601, -0.294982, 0.022727, -0.0174, 0.126573, 0.142863, -0.191711, 0.174469,
          -0.267706, 0.0677, 0.280681, -0.182579, 0.114442, -0.218685, -0.019436, 0.051978
        ],
        [
          -0.00284, 0.178417, 0.074383, -0.026793, 0.151531, 0.18441, -0.262384, 0.193586,
          -0.261183, 0.141526, -0.198289, -0.05121, 0.051466, 0.030758, -0.093954, -0.172185,
          0.013512, 0.127901, -0.079627, -0.119575, 0.015418, -0.151309, 0.100528, 0.010148,
          0.051612, -0.051257, 0.115976, -0.038564, 0.155131, 0.011257, 0.114259, 0.020875,
          -0.018693, 0.207202, 0.0641, 0.004584, -0.080579, 0.055933, 0.042468, -0.236821,
          -0.283434, -0.005103, 0.024037, 0.03319, -0.045952, 0.080309, -0.269532, -0.001774,
          -0.190326, -0.073336, -0.161088, 0.017974, -0.187446, -0.06795, -0.019597, -0.015696,
          -0.154427, 0.150024, -0.131401, 0.063208, -0.169285, -0.149175, 0.033587, 0.022091,
          0.171541, 0.055448, 0.191225, -0.186559, -0.177987, -0.183218, -0.214863, -0.045625,
          0.062804, -0.236563, 0.141131, 0.136813, -0.0644, -0.196238, -0.112877, -0.209866,
          -0.113194, -0.089883, -0.058707, -0.098969, 0.253443, 0.054628, 0.232935, -0.25186,
          -0.03499, 0.020102, -0.205547, -0.198006, 0.029844, -0.005559, -0.067079, 0.006301
        ],
        [
          -0.119237, -0.203954, -0.021594, -0.113803, -0.127872, 0.177958, -0.064409, 0.089651,
          -0.160622, -0.075836, -0.075809, -0.060169, -0.133288, 0.070753, 0.074958, 0.015047,
          -0.024967, 0.153129, -0.217287, -0.002882, -0.033638, 0.091622, 0.168869, -0.084872,
          0.178855, 0.155191, -0.042731, -0.037674, -0.066271, 0.226822, -0.126819, 0.129071,
          -0.003233, 0.09457, 0.038572, 0.02482, 0.122487, 0.092172, 0.185746, -0.257733, -0.107073,
          -0.154618, -0.028916, 0.074149, -0.017937, 0.082343, 0.118332, -0.171734, 0.126083,
          -0.060183, -0.204097, -0.224064, 0.173254, 0.191232, 0.161981, 0.126906, -0.150331,
          -0.115359, 0.036496, -0.038652, 0.070086, -0.018074, 0.057595, 0.036219, -0.133183,
          -0.003981, -0.025201, 0.041963, -0.166453, 0.136641, -0.354716, -0.08688, 0.109826,
          -0.044402, -0.159423, 0.125136, 0.074905, 0.049836, 0.06334, 0.049019, 0.010159,
          -0.175952, -0.09031, -0.052532, 0.093738, -0.031838, -0.13522, -0.265462, 0.041384,
          -0.042893, 0.101977, -0.189963, 0.059943, 0.150225, -0.245619, -0.019327
        ],
        [
          -0.117608, 0.013625, 0.020775, -0.126277, 0.101363, 0.101981, -0.089365, -0.205632,
          0.109768, 0.038113, 0.178693, 0.006372, 0.118741, 0.015745, 0.123497, 0.187902, -0.023863,
          -0.091897, -0.169783, -0.178169, -0.114356, -0.119298, 0.00501, -0.013362, -0.080004,
          0.041714, -0.195548, -0.225234, -0.115614, -0.011681, -0.173378, -0.032127, -0.00216,
          0.139213, -0.183465, 0.071288, 0.135127, 0.157431, 0.166829, -0.25102, -0.259146,
          0.117874, 0.001723, -0.029967, 0.10638, -0.025892, 0.107952, 0.225779, 0.104588,
          -0.146382, 0.227334, -0.093931, 0.02263, 0.09857, -0.145927, -0.154716, -0.133071,
          0.10209, 0.004293, 0.087293, -0.10545, 0.178152, 0.169804, -0.032341, -0.021051,
          -0.152469, 0.21208, 0.090974, 0.187696, -0.046914, 0.114752, 0.164741, 0.085926, 0.219857,
          -0.064485, -0.212671, 0.032188, 0.111635, 0.097776, -0.195168, -0.04914, -0.089639,
          -0.057616, 0.03574, 0.143374, -0.071418, -0.134105, -0.123671, -0.213792, 0.076337,
          0.184154, 0.003004, 0.109251, 0.234213, 0.17617, -0.145441
        ],
        [
          0.181257, -0.120501, -0.112137, -0.209212, -0.056397, -0.149775, -0.160534, -0.132394,
          0.118914, 0.154999, -0.163442, 0.166523, 0.132216, 0.114347, -0.117678, 0.085766,
          0.208676, 0.073516, -0.117059, -0.015681, 0.058218, -0.038836, -0.153223, -0.083667,
          0.131142, 0.136742, -0.071949, 0.190487, -0.045055, 0.08978, 0.096639, 0.092167, 0.202416,
          -0.024576, 0.171407, -0.153989, 0.045558, 0.102444, 0.086184, -0.162551, 0.133747,
          -0.140589, -0.254969, 0.085542, -0.08376, 0.118841, -0.100606, -0.21814, 0.127894,
          0.023907, -0.125327, 0.077921, 0.011863, 0.048097, -0.071484, 0.131449, 0.129478,
          0.086009, -0.105358, 0.127861, 0.067815, 0.079417, -0.156949, 0.162811, 0.102448,
          -0.155818, -0.030608, 0.156958, -0.103724, 0.194195, 0.061411, 0.048349, -0.101048,
          -0.147621, 0.17298, -0.139595, 0.120766, -0.057846, -0.120424, -0.233392, 0.079772,
          0.188386, -0.048871, -0.053785, -0.109336, 0.013437, -0.073565, 0.149997, -0.091322,
          0.032479, -0.236225, 0.186691, -0.181219, -0.153616, 0.06171, 0.041938
        ],
        [
          -0.098679, -0.037093, 0.13526, -0.116894, 0.117385, 0.028644, -0.02159, 0.00504,
          -0.061148, 0.204842, 0.036724, -0.033125, -0.037498, 0.219442, 0.004884, 0.231381,
          -0.119778, -0.163841, -0.042439, -0.01248, -0.120159, -0.188197, 0.076459, 0.120246,
          0.026178, -0.124779, -0.193946, -0.15436, 0.105634, 0.201706, -0.079251, -0.062743,
          -0.035752, 0.007893, -0.077891, 0.098499, 0.155115, -0.107071, -0.228768, 0.275624,
          -0.016384, -0.18572, -0.204659, -0.222954, -0.082747, 0.118408, -0.120286, 0.027118,
          0.071615, -0.016249, 0.008679, 0.17, -0.181971, 0.054424, -0.022057, 0.149729, 0.046893,
          0.249358, 0.052276, -0.07506, 0.047569, 0.237421, 0.158618, -0.145214, 0.057373,
          -0.081076, -0.097864, -0.080453, -0.108024, 0.060315, 0.019441, 0.153709, -0.247979,
          -0.067527, -0.153401, -0.119775, -0.135421, -0.029828, -0.045707, -0.04333, -0.030832,
          -0.030065, 0.205418, 0.296238, 0.059335, -0.058783, -0.155514, 0.246715, -0.228966,
          -0.066155, -0.097909, -0.004803, -0.127321, 0.130408, -0.167798, 0.143414
        ]
      ],
      "b": [
        -0.132495, -0.100061, 0.215037, -0.089645, 0.182662, 0.012495, -0.10702, 0.245582,
        -0.064382, 0.075754, -0.046211, 0.106492, -0.198114, -0.02182, 0.087901, 0.221804, 0.164835,
        0.185952, 0.207872, -0.106046, -0.083322, -0.041893, -0.045245, -0.031723, 0.005744,
        -0.114366, 0.006744, -0.068915, -0.09934, 0.043489, 0.198976, 0.136911, 0.091823, -0.187764,
        0.015755, -0.154244, 0.039794, -0.062548, -0.218536, -0.022405, 0.263805, 0.195044,
        0.024382, -0.185551, -0.054468, -0.029426, 0.236745, -0.050567, 0.203388, -0.240952,
        0.200691, -0.079213, 0.050537, 0.00958, 0.110814, -0.121133, -0.105476, 0.136543, 0.119432,
        0.177459, 0.029011, 0.141324, -0.069449, -0.075314, -0.006579, 0.060314, -0.039583,
        -0.128946, -0.037828, 0.096538, 0.079575, -0.168877, -0.10997, -0.054936, -0.079026,
        0.122705, 0.06172, 0.095055, -0.078394, 0.176025, -0.183376, 0.102688, 0.119491, -0.131317,
        -0.103257, 0.128128, -0.01104, 0.115914, -0.096123, 0.093305, 0.022555, -0.182721, 0.12784,
        -0.112225, -0.036691, -0.155145
      ]
    },
    {
      "w": [
        [
          -0.129517, -0.127053, -0.33175, 0.102038, -0.232505, 0.003362, -0.176227, 0.024865,
          0.209182, -0.1921, 0.164404, -0.226691, 0.15841, 0.016752, 0.128182, -0.008917, 0.049455,
          -0.205885, -0.127948, 0.175979, -0.094188, -0.099873, 0.070591, -0.093562, 0.3014,
          0.089766, 0.098282, 0.181263, -0.236268, -0.145748, -0.013224, -0.044786, 0.170198,
          -0.058758, -0.039668, -0.154565, 0.201242, -0.014726, 0.013044, 0.003684, 0.08459,
          0.108002, 0.051774, 0.130926, -0.129158, -0.016808, 0.150528, -0.104802
        ],
        [
          0.117868, 0.180876, 0.109567, 0.15548, 0.112526, 0.151589, -0.03081, -0.399576, -0.097925,
          0.118938, 0.005109, 0.087947, -0.051827, 0.08909, -0.071167, 0.058418, 0.05342, -0.170966,
          -0.085412, 0.083048, -0.042067, -0.145788, 0.175121, 0.097272, 0.030161, -0.054745,
          -0.001419, 0.162954, 0.02168, 0.049795, -0.140536, -0.042231, -0.179362, 0.014157,
          -0.186981, -0.185249, 0.161486, -0.107462, 0.118061, 0.095937, -0.045162, -0.088847,
          0.096403, 0.055529, 0.113017, 0.121563, 0.201718, 0.043842
        ],
        [
          -0.022741, 0.169006, -0.121589, 0.096965, -0.168509, -0.069358, 0.168478, 0.090993,
          -0.067862, 0.008832, 0.148165, 0.008159, 0.127249, -0.156515, 0.190354, 0.224431,
          -0.136403, -0.069553, -0.065653, 0.103439, 0.049296, 0.06191, -0.041725, -0.089591,
          -0.15518, -0.020299, 0.05617, 0.21151, 0.147557, -0.05372, 0.155928, 0.08589, 0.217696,
          0.02154, -0.121893, -0.238753, 0.100995, -0.117486, -0.110033, -0.167162, 0.08964,
          0.045057, -0.071443, -0.082907, 0.072911, 0.228439, 0.150833, 0.276379
        ],
        [
          0.152318, 0.070356, -0.166991, 0.089982, 0.034908, 0.046809, 0.036845, 0.013022,
          -0.097091, -0.08035, -0.17095, 0.194688, -0.084487, -0.1858, -0.027244, 0.108206,
          0.015482, -0.102912, 0.062257, -0.008096, 0.228742, 0.15451, 0.019719, -0.093985,
          -0.045628, -0.212864, -0.013443, -0.050845, 0.208233, -0.206689, 0.028385, 0.174804,
          -0.066369, -0.129564, 0.192832, -0.052764, 0.076239, -0.122367, -0.012458, 0.071228,
          -0.220744, -0.105609, 0.151019, -0.106017, 0.006501, 0.00227, 0.12816, -0.122539
        ],
        [
          0.04622, -0.054455, -0.10598, -0.216781, 0.099907, -0.19364, -0.169473, -0.024882,
          0.179593, -0.10148, -0.026723, -0.17006, -0.086292, 0.006214, -0.021909, -0.089206,
          -0.04807, -0.202052, -0.040619, -0.146156, 0.04801, 0.154192, 0.238302, 0.167563, -0.0141,
          0.168708, -0.100792, 0.077449, 0.061601, -0.001185, 0.062236, -0.073845, -0.102641,
          0.224574, -0.182102, 0.007109, 0.188436, 0.073696, 0.05625, -0.106619, -0.006774,
          0.208094, 0.094952, 0.014216, -0.122572, -0.222035, 0.231711, 0.003355
        ],
        [
          0.013789, -0.153655, 0.044222, 0.166472, 0.019025, -0.247326, 0.023679, 0.165267,
          -0.04368, 0.145339, 0.044695, 0.148622, 0.063327, -0.118505, -0.100463, -0.147797,
          0.247992, 0.171088, 0.032452, -0.054135, -0.181759, 0.084444, -0.025528, -0.071064,
          0.068076, -0.204401, -0.058769, -0.046027, -0.165188, 0.267864, -0.158516, -0.16039,
          -0.148968, 0.147754, -0.044931, 0.135146, -0.278751, -0.135817, 0.013793, 0.051264,
          0.23592, -0.11762, 0.007712, 0.15808, -0.175312, 0.090409, -0.172513, 0.140839
        ],
        [
          0.096997, 0.181323, 0.054548, 0.054715, 0.145132, -0.133298, -0.077289, 0.149948,
          0.140398, 0.086079, -0.161105, 0.140777, 0.190347, -0.194408, -0.052774, -0.01268,
          -0.036651, 0.222684, 0.027059, 0.09252, 0.263154, -0.080225, 0.054407, -0.024867,
          0.271043, -0.215748, 0.221222, -0.103244, -0.078193, 0.229267, -0.105745, 0.111566,
          0.009255, 0.079059, -0.052653, -0.185603, -0.104755, -0.002169, -0.100642, -0.071039,
          -0.160009, -0.243546, 0.014353, 0.143244, -0.061519, 0.023084, 0.053176, -0.08015
        ],
        [
          0.127795, 0.034829, -0.008259, -0.153874, 0.0339, 0.09218, -0.124196, -0.022308, 0.210424,
          -0.06536, -0.02563, 0.264553, 0.054068, 0.049825, 0.11476, 0.216236, 0.007577, -0.043213,
          0.015428, 0.209589, 0.145215, -0.17591, 0.196437, -0.013559, -0.266789, 0.062667,
          -0.097751, 0.210655, -0.084249, 0.10906, 0.028333, -0.173427, 0.212174, 0.007969,
          -0.092345, -0.076848, 0.17845, -0.090537, -0.25664, -0.116771, -0.082927, 0.135024,
          -0.017001, -0.169755, -0.058378, -0.038275, 0.217141, 0.01937
        ],
        [
          0.142746, -0.017078, -0.083, 0.238328, -0.020683, 0.137203, 0.160735, -0.10048, -0.158303,
          0.083836, -0.045207, -0.159568, -0.155787, -0.158803, 0.132089, -0.17338, -0.005566,
          0.100184, -0.115725, -0.230844, 0.134279, -0.179953, 0.040814, 0.180604, 0.09051,
          -0.07483, 0.004356, -0.06453, 0.103879, 0.175363, -0.082477, 0.021507, 0.149687, 0.215722,
          0.010853, -0.073532, -0.12011, 0.193376, -0.216375, -0.007913, -0.072353, -0.087755,
          -0.034883, 0.212697, -0.23329, 0.044535, -0.209944, -0.173217
        ],
        [
          -0.014481, 0.002077, -0.059828, -0.104152, -0.197101, -0.164485, 0.176297, 0.304162,
          -0.096215, -0.068665, 0.175224, -0.269738, 0.176295, 0.237605, -0.127164, -0.276137,
          0.226628, 0.084782, -0.187452, -0.071711, -0.077777, 0.056223, 0.074832, 0.220619,
          -0.03284, 0.037219, 0.056372, -0.034371, -0.1332, 0.238876, 0.093615, -0.016218, 0.013449,
          -0.149641, 0.005394, 0.043077, -0.007068, 0.256479, 0.080029, -0.055483, 0.091594,
          -0.019887, -0.095513, -0.054972, -0.001912, 0.083679, 0.016074, 0.12903
        ],
        [
          -0.035484, -0.189732, 0.19314, -0.106202, -0.12423, -0.049048, -0.107719, -0.266068,
          0.08992, 0.13261, -0.025945, 0.079933, 0.14107, 0.284175, -0.200565, -0.003384, 0.256349,
          0.121875, 0.095173, -0.067329, -0.166484, -0.082701, -0.150167, 0.230353, -0.126835,
          0.162315, 0.198851, -0.178647, -0.21115, 0.243838, 0.147163, -0.013069, -0.069586,
          0.002167, 0.085271, -0.0928, 0.052199, -0.225121, -0.270096, -0.001259, -0.123123,
          -0.085091, -0.118445, -0.127741, -0.171087, -0.094229, 0.077273, -0.139069
        ],
        [
          -0.016651, 0.04242, 0.258101, -0.14653, 0.040787, 0.176802, 0.071769, -0.19797, -0.001218,
          -0.141476, 0.048123, 0.111514, -0.148925, 0.131657, -0.2495, 0.136725, 0.03922, -0.202269,
          -0.16269, 0.188959, -0.136681, -0.164521, -0.067457, 0.02957, 0.004085, -0.177841,
          -0.055136, -0.096933, -0.099071, -0.065095, 0.088279, -0.115057, -0.035304, -0.056278,
          0.177109, 0.227412, 0.167912, -0.09497, -0.129367, -0.006275, -0.179388, 0.108737,
          0.099164, 0.164905, 0.16404, -0.065613, 0.08406, -0.091695
        ],
        [
          -0.155142, 0.106163, -0.122052, -0.029367, -0.077975, 0.110286, 0.106519, -0.331545,
          0.167252, -0.089961, -0.044484, 0.082794, 0.032633, 0.197851, -0.21277, 0.082163,
          0.016404, 0.150735, -0.157551, 0.106431, 0.054056, -0.147754, -0.024518, -0.094633,
          0.022685, 0.146409, 0.060281, 0.10025, 0.011129, -0.255911, -0.129792, 0.00651, 0.029761,
          -0.190449, -0.030269, -0.133605, -0.057693, -0.050859, -0.148805, 0.147136, 0.060121,
          0.156179, -0.116539, 0.107839, 0.087888, 0.075175, -0.127833, 0.082989
        ],
        [
          0.053295, -0.032113, 0.090349, 0.05079, -0.036234, -0.224906, -0.009532, -0.061035,
          -0.058826, -0.046852, 0.063187, -0.174812, 0.159513, 0.144783, -0.101988, -0.109241,
          -0.093821, 0.221048, 0.000213, -0.10875, -0.186623, 0.052859, 0.098478, 0.197186,
          0.108386, -0.262602, -0.12809, -0.251078, -0.209457, -0.066924, -0.107901, -0.056703,
          0.157279, 0.095604, 0.123939, 0.110546, -0.20904, 0.119694, -0.066198, 0.051939, -0.16105,
          0.163083, -0.163043, -0.080075, 0.176431, -0.137949, 0.050386, 0.032932
        ],
        [
          0.087868, 0.200778, 0.248898, -0.156413, 0.109845, 0.093063, 0.031519, -0.189129,
          0.031999, 0.201586, 0.232487, -0.005107, -0.235875, -0.101586, 0.126813, 0.170309,
          -0.069636, -0.147638, -0.03075, -0.085988, 0.225708, 0.091272, -0.064944, 0.029399,
          0.020782, 0.24311, -0.07764, -0.014422, -0.066991, 0.014686, 0.085398, 0.022647,
          -0.114784, 0.045817, -0.161384, -0.014011, -0.149267, 0.013799, 0.186312, 0.218702,
          -0.020531, -0.011333, -0.215777, 0.107895, 0.151148, -0.127667, -0.032278, 0.177851
        ],
        [
          0.175639, 0.014003, 0.063164, -0.184248, -0.185306, 0.206203, 0.209116, 0.108524,
          -0.216224, 0.129731, -0.063886, 0.036233, -0.068543, -0.222126, 0.0788, 0.131153,
          -0.168203, -0.168521, -0.081612, -0.133245, 0.00106, 0.189774, -0.116581, -0.173132,
          0.048293, 0.194817, -0.058615, -0.013315, 0.128213, -0.127096, -0.19996, 0.130669,
          0.12554, 0.152908, 0.097051, 0.054028, -0.036625, -0.141719, -0.154222, -0.11182,
          0.160669, 0.13308, 0.287002, 0.032607, 0.009113, -0.195844, 0.162944, 0.118893
        ],
        [
          0.057735, 0.121014, 0.07547, 0.184701, -0.204593, 0.065923, 0.165158, -0.016642, 0.146356,
          -0.140623, 0.173942, -0.182593, 0.093205, -0.115383, 0.153469, -0.156442, -0.129856,
          0.030257, 0.202726, -0.035017, -0.147521, 0.134461, -0.010342, 0.180333, -0.166632,
          0.096197, -0.072722, -0.114541, 0.086579, 0.088416, 0.107561, -0.037551, -0.05638,
          0.01131, 0.202627, -0.148416, -0.044866, -0.067488, -0.001353, 0.00086, 0.231339,
          -0.147269, 0.18685, -0.168374, 0.128528, 0.162016, -0.185491, 0.207899
        ],
        [
          0.033609, 0.179709, 0.041995, -0.073241, -0.148597, -0.124327, -0.122318, -0.161521,
          -0.225341, -0.061172, 0.092274, -0.108319, -0.064633, 0.097044, -0.127919, -0.145237,
          -0.081726, 0.185799, 0.165487, -0.031326, 0.094158, -0.03644, 0.096644, 0.057325, 0.11929,
          -0.049362, -0.187592, 0.004172, 0.157825, 0.046272, 0.122498, 0.273876, -0.049949,
          0.023921, 0.055149, 0.204124, 0.250186, 0.055865, -0.144146, 0.139351, -0.155244,
          0.168154, 0.108898, -0.087083, 0.106034, -0.074018, 0.003144, -0.080435
        ],
        [
          0.131288, 0.255457, 0.178711, -0.142627, 0.108841, 0.064767, -0.072339, -0.149821,
          -0.144982, 0.156671, 0.074982, 0.165398, -0.067686, 0.068794, -0.208752, -0.021099,
          0.072891, -0.142039, 0.167684, -0.087108, 0.138667, 0.007899, 0.092919, -0.170225,
          -0.184963, 0.126714, -0.117998, 0.156384, 0.244794, -0.131017, -0.162931, 0.111738,
          0.204952, 0.196223, 0.029601, 0.121593, -0.15039, 0.185508, 0.236812, -0.159541,
          -0.042953, -0.207436, -0.069895, 0.132589, 0.033052, -0.193251, -0.041957, 0.243149
        ],
        [
          0.152585, -0.019627, -0.287334, 0.188668, 0.110698, -0.098992, -0.095715, -0.096661,
          -0.171474, -0.049604, 0.07888, 0.029971, 0.173618, 0.017499, -0.005234, 0.19667,
          -0.081418, -0.052373, 0.155364, -0.106708, -0.059917, -0.07526, 0.227418, -0.036633,
          -0.016386, -0.091638, 0.101102, 0.118704, 0.166302, 0.012093, -0.021818, 0.197815,
          -0.02778, -0.207335, -0.172242, -0.241705, 0.153852, -0.147783, -0.199332, 0.077949,
          -0.118531, -0.019388, -0.200043, 0.088027, 0.196382, 0.153154, 0.023714, 0.165507
        ],
        [
          -0.275963, -0.350302, -0.284081, 0.177837, -0.038689, 0.001777, -0.299044, 0.267158,
          0.175879, -0.058672, 0.022366, -0.322882, 0.314219, 0.145263, -0.11571, -0.236904,
          0.182408, 0.365106, -0.178785, -0.041919, 0.086586, 0.003985, -0.208486, 0.109121,
          -0.228758, -0.053571, -0.035656, 0.074594, -0.191054, 0.253925, -0.047871, 0.312055,
          0.01878, -0.054676, 0.092191, 0.192424, -0.125337, -0.104341, 0.012882, -0.105345,
          0.135109, -0.079938, 0.052709, 0.023967, -0.053049, -0.038246, -0.289651, -0.327501
        ],
        [
          -0.227952, -0.073501, 0.044674, 0.217789, -0.132166, -0.165311, -0.115602, 0.268212,
          0.104177, -0.063508, 0.001357, -0.378077, 0.354473, 0.153424, -0.031126, -0.034898,
          -0.027814, 0.304793, -0.216964, 0.00656, -0.127527, 0.023988, 0.015489, 0.137298,
          0.090096, 0.127958, -0.066332, -0.13966, -0.197449, 0.302051, -0.082987, 0.110682,
          0.056533, -0.069532, -0.097956, -0.072852, -0.096137, -0.121176, -0.145952, 0.240957,
          0.11332, -0.144166, -0.221966, -0.211224, 0.053836, 0.089641, -0.265484, -0.246834
        ],
        [
          0.075544, 0.039579, -0.168749, 0.084052, -0.085033, -0.054848, 0.114025, 0.191842,
          -0.116194, 0.204928, -0.05472, 0.062489, 0.013473, 0.162522, 0.18225, -0.139021, 0.248133,
          0.154965, 0.084216, -0.202486, 0.060611, 0.102364, -0.095704, 0.211709, -0.44909,
          -0.13079, 0.027385, -0.012323, 0.048282, -0.173708, 0.190566, -0.236918, -0.189299,
          -0.213436, 0.014648, 0.203767, 0.045468, 0.116657, -0.275828, -0.043927, -0.047567,
          -0.03242, -0.188713, 0.063563, -0.03486, 0.123972, 0.006694, -0.165046
        ],
        [
          0.017332, -0.084962, 0.234775, -0.064091, -0.146206, 0.181711, 0.022789, 0.043602,
          0.079679, -0.102394, 0.124896, 0.133071, 0.21905, -0.053129, 0.020786, 0.217054,
          -0.157283, -0.0057, 0.031804, -0.232364, -0.044667, 0.124149, 0.131209, -0.1431,
          -0.242514, -0.134041, 0.198986, -0.153566, 0.119169, -0.16554, 0.020418, -0.093545,
          0.145689, -0.093055, 0.044314, -0.071245, 0.084066, 0.170024, -0.167797, 0.137959,
          0.026099, -0.322728, 0.031747, -0.207786, 0.05175, 0.089818, -0.147998, 0.041892
        ],
        [
          0.158896, 0.199407, 0.07214, 0.186618, -0.004559, -0.073515, 0.205216, -0.066139,
          -0.004731, 0.005424, 0.118095, 0.163642, -0.080592, -0.091546, -0.01028, 0.040796,
          -0.081863, 0.069116, 0.035098, -0.041845, -0.140332, -0.116768, 0.209098, -0.095655,
          -0.173166, 0.041885, -0.057762, -0.152341, -0.033878, 0.012259, 0.013408, -0.052332,
          0.008276, 0.286127, -0.05754, -0.105904, -0.076897, -0.023715, 0.088151, -0.068721,
          0.079049, -0.151647, -0.030907, 0.090387, -0.039179, 0.034201, -0.115682, 0.12785
        ],
        [
          -0.121413, 0.115232, -0.199963, 0.165886, -0.067324, 0.122636, -0.002145, 0.123885,
          -0.111035, -0.245086, -0.073126, -0.109506, -0.095327, 0.193544, 0.198475, -0.124578,
          0.227399, -0.027597, -0.080866, 0.14488, 0.021253, 0.171341, -0.109098, 0.010289,
          0.002452, -0.171931, -0.157756, 0.257928, 0.122329, 0.106397, -0.020131, 0.01375,
          -0.187501, -0.280591, -0.07596, 0.043123, 0.086197, -0.226965, -0.073091, -0.149756,
          -0.052198, 0.265735, 0.002425, 0.105596, 0.061503, -0.078805, -0.146995, 0.171151
        ],
        [
          0.124541, -0.145778, -0.035778, 0.030402, 0.043207, 0.209583, 0.036672, 0.075273,
          -0.165824, -0.184083, -0.192344, -0.175427, 0.176864, 0.13045, -0.249763, 0.030064,
          -0.058821, 0.008502, -0.136368, -0.035637, -0.143787, -0.053717, -0.089415, 0.204163,
          -0.37011, -0.171306, -0.160342, 0.046929, -0.211558, 0.21133, -0.062681, 0.047614,
          -0.036173, -0.197507, -0.124735, -0.067233, 0.062304, -0.153051, -0.166714, 0.190355,
          -0.243615, 0.188084, 0.06196, -0.120877, -0.143418, -0.226207, 0.072104, 0.002357
        ],
        [
          0.127926, 0.258649, 0.137295, -0.158766, -0.121053, 0.120104, -0.0972, -0.069233, 0.12228,
          -0.026535, 0.195742, 0.102499, -0.164633, 0.113738, -0.166943, 0.074553, -0.037104,
          -0.267607, 0.04782, -0.197457, -0.007887, -0.075396, 0.170994, 0.131066, -0.184032,
          0.00259, -0.027739, -0.135753, 0.203195, 0.012856, -0.187201, -0.080221, -0.128896,
          0.120692, -0.159443, 0.215147, 0.159738, -0.085029, 0.099992, 0.210268, -0.052327,
          -0.12292, 0.069075, 0.224721, 0.143915, 0.050422, 0.221218, 0.222289
        ],
        [
          0.172667, -0.164627, -0.10506, 0.136132, 0.092474, 0.025265, -0.098152, 0.268714, 0.13984,
          -0.294373, -0.075317, -0.19187, -0.0582, -0.226981, -0.043787, 0.048715, 0.063324,
          0.076733, 0.1317, -0.158691, -0.189767, 0.124085, -0.166631, 0.16329, 0.191461, -0.029781,
          0.23766, -0.13402, -0.104544, 0.043065, -0.070613, 0.184572, -0.130201, 0.00305, 0.031627,
          0.065191, -0.096109, -0.036059, 0.112584, -0.265531, 0.089893, 0.047176, 0.127672,
          0.057952, -0.20871, -0.028327, 0.192023, -0.046328
        ],
        [
          0.256655, 0.042802, -0.381433, -0.083374, 0.139538, -0.158649, 0.217698, 0.193072,
          -0.079611, -0.166392, 0.047678, -0.057967, 0.136416, -0.056954, -0.116382, 0.08636,
          -0.03319, -0.041362, 0.041652, 0.073296, 0.059349, 0.143616, 0.020918, -0.051337, 0.10334,
          -0.047631, -0.047058, 0.239427, 0.128299, 0.038413, 0.014293, -0.1188, 0.084231, 0.012164,
          0.006205, -0.00892, -0.110994, -0.200316, 0.187342, -0.124158, 0.034744, -0.229765,
          -0.176674, 0.063215, 0.060756, -0.061148, -0.143007, 0.148471
        ],
        [
          -0.052186, -0.033395, -0.038132, -0.119342, -0.130222, 0.091961, 0.118372, 0.120103,
          -0.081742, -0.211571, -0.132781, 0.251111, 0.033538, 0.104777, -0.19294, 0.124349,
          -0.239367, 0.002324, 0.232946, 0.292649, 0.045001, 0.005401, 0.258108, 0.036684,
          -0.158316, 0.078731, -0.036354, 0.069502, 0.080078, 0.000753, -0.096268, -0.091444,
          0.01229, 0.135507, 0.089091, -0.128561, 0.279281, 0.173956, -0.213394, -0.155244, 0.12914,
          0.198057, 0.256661, 0.139762, 0.164262, -0.017066, -0.1353, -0.010812
        ],
        [
          -0.043544, -0.006556, 0.001904, 0.14981, -0.102628, 0.031641, -0.176715, -0.002993,
          -0.002175, 0.070065, 0.184749, -0.144409, 0.084451, -0.041894, -0.081195, 0.095885,
          0.158763, 0.258169, -0.176612, 0.159676, -0.261624, 0.108659, -0.129557, -0.055226,
          0.024317, 0.147872, -0.194881, -0.077904, 0.091993, -0.001155, -0.190405, 0.02851,
          -0.039402, 0.21148, 0.114936, -0.040351, 0.179362, -0.049456, -0.169586, -0.185873,
          -0.080156, -0.140364, 0.102029, 0.107078, -0.185694, -0.018543, 0.080758, 0.139399
        ],
        [
          0.228342, 0.088747, 0.011661, -0.029668, 0.000492, -0.166184, -0.068463, -0.032112,
          -0.158222, -0.257519, 0.055865, -0.080318, 0.017962, -0.024426, 0.185196, 0.023631,
          -0.22709, -0.047332, 0.229415, 0.307529, -0.090727, -0.035498, 0.237577, -0.174276,
          0.026638, -0.013417, -0.127735, -0.000213, -0.032582, 0.028116, 0.170414, -0.067445,
          0.119251, -0.210706, 0.004332, -0.179051, 0.236042, 0.114603, 0.107013, 0.115605,
          0.125405, 0.192808, 0.139283, 0.159227, 0.2128, -0.170957, 0.073485, -0.078155
        ],
        [
          0.012091, -0.060655, 0.078306, -0.163179, -0.149409, -0.006797, 0.155283, -0.075709,
          -0.051706, 0.127253, 0.039795, -0.16039, 0.036624, -0.079001, 0.185565, -0.210582,
          0.023333, -0.269457, -0.105943, 0.143331, -0.091941, -0.251334, -0.045029, -0.190994,
          -0.411921, 0.127971, 0.170281, 0.138546, 0.062378, 0.098856, -0.206639, 0.129913,
          0.050041, 0.135174, -0.016863, -0.078893, 0.074094, 0.070621, 0.1386, -0.205603,
          -0.130508, 0.006245, 0.041745, -0.202845, -0.174238, 0.242201, -0.265305, 0.064361
        ],
        [
          0.047184, 0.183265, -0.015633, 0.139731, 0.138293, -0.171445, -0.082648, -0.246748,
          0.164766, 0.123049, -0.110685, 0.025409, -0.144252, 0.101064, 0.156251, -0.090717,
          0.002843, -0.259508, 0.113232, 0.044073, -0.079562, -0.084358, 0.003848, -0.026216,
          -0.07114, -0.116798, 0.149576, 0.168948, -0.01534, -0.242803, 0.097737, 0.293698,
          -0.019183, -0.264283, -0.131131, -0.022272, -0.091137, -0.104759, 0.006804, 0.109414,
          -0.040204, 0.017467, -0.00709, -0.272947, -0.093404, 0.182085, -0.11942, 0.137981
        ],
        [
          0.207506, -0.080638, -0.092146, 0.020939, 0.141508, 0.126806, 0.122383, -0.26424,
          0.160261, -0.076101, -0.08263, -0.262177, -0.104197, 0.10684, -0.043964, -0.08875,
          -0.019265, 0.105641, 0.137611, -0.089218, -0.038256, -0.140833, 0.177047, 0.00343,
          -0.02766, 0.092967, -0.045882, 0.168931, 0.014496, -0.190117, -0.19302, 0.078185,
          0.173655, -0.071292, 0.136302, 0.130408, -0.122023, -0.234117, -0.228954, 0.257346,
          -0.128021, -0.018934, -0.071677, 0.064993, -0.086337, -0.03187, 0.029952, 0.059031
        ],
        [
          0.092836, -0.168071, 0.193767, 0.086432, 0.009848, 0.095844, -0.105602, -0.257172,
          0.067755, 0.10789, 0.086862, -0.195714, 0.17217, 0.024883, -0.226282, -0.225059, 0.130668,
          0.176899, -0.116276, 0.0976, -0.07122, -0.045256, 0.116184, 0.199114, 0.176039, 0.203185,
          -0.208387, 0.119764, -0.095707, -0.152829, -0.168965, -0.074786, -0.191726, -0.005506,
          -0.154961, -0.084806, 0.046045, -0.040846, -0.049372, 0.16643, 0.142025, 0.120392,
          -0.113668, 0.124803, -0.256987, -0.176483, -0.149461, 0.121671
        ],
        [
          -0.133822, -0.219969, -0.139124, 0.173164, 0.01775, -0.115808, 0.025852, 0.02248,
          0.104139, -0.14907, 0.147283, -0.077519, 0.060213, -0.25733, -0.02348, 0.00227, -0.01845,
          -0.20297, 0.123123, -0.143007, 0.057098, 0.144645, 0.019314, 0.105317, 0.078938,
          -0.075332, 0.149309, -0.090239, 0.002263, 0.090115, -0.019093, -0.111029, -0.047719,
          0.194907, 0.164079, 0.004329, 0.064279, 0.153755, -0.082349, -0.106, 0.118514, 0.161249,
          0.152238, -0.018125, -0.161865, -0.067405, -0.149704, -0.117656
        ],
        [
          0.162427, -0.193638, 0.161109, -0.04922, 0.026086, -0.132605, -0.030597, -0.226441,
          0.158962, 0.109675, -0.073539, -0.134428, 0.166738, -0.115282, -0.167895, -0.021347,
          0.197102, -0.222806, -0.127554, 0.243473, -0.179772, -0.219975, 0.038448, 0.097919,
          -0.138984, 0.235772, 0.050726, -0.126764, 0.229821, -0.072586, -0.117454, 0.045199,
          -0.029061, -0.144078, -0.215253, -0.051349, 0.188058, -0.013904, 0.202534, -0.207496,
          -0.086801, -0.070497, -0.158918, -0.155491, 0.046031, 0.125166, 0.174441, -0.11673
        ],
        [
          0.20164, -0.106287, -0.326373, 0.21258, 0.043267, -0.205508, 0.020192, -0.036265,
          0.092959, -0.060349, 0.127161, -0.182804, 0.009409, 0.094432, -0.021974, -0.06809,
          0.208958, 0.178752, 0.211442, 0.206259, 0.11664, -0.040201, 0.129382, -0.087488,
          -0.096052, -0.085814, -0.008454, -0.048524, 0.187078, 0.017495, -0.228089, 0.144947,
          -0.209285, -0.151333, -0.117348, 0.047563, -0.012342, 0.059647, 0.130457, 0.009592,
          -0.110657, -0.035354, 0.047283, -0.215553, -0.005897, 0.132582, 0.031959, -0.116424
        ],
        [
          -0.125699, 0.18505, 0.132677, 0.159713, -0.026372, 0.006781, 0.23527, 0.227022, -0.10883,
          0.08138, -0.13344, -0.049373, 0.122785, 0.010004, 0.171612, -0.123844, 0.0841, 0.294693,
          0.166224, -0.122666, -0.037756, 0.023961, -0.171141, 0.231871, 0.085323, -0.201449,
          -0.233169, -0.180311, 0.175277, -0.036859, -0.119779, 0.045961, 0.038622, -0.078144,
          -0.07694, 0.109582, 0.190488, 0.095157, -0.294095, -0.064766, 0.060334, -0.127135,
          0.172566, 0.042178, -0.109421, 0.164575, 0.194037, -0.132261
        ],
        [
          -0.012925, -0.029092, 0.010886, -0.140623, 0.014775, 0.21292, 0.003293, -0.200203,
          0.017246, -0.088962, 0.146359, 0.010411, -0.138987, -0.169158, 0.084668, 0.020687,
          0.09115, -0.117985, -0.041541, -0.028832, 0.183014, 0.149614, -0.088229, -0.045185,
          -0.029472, 0.037713, -0.022055, 0.152056, 0.236357, -0.074876, 0.002069, 0.128666,
          0.094974, -0.168537, -0.085681, -0.036841, -0.064307, -0.121158, -0.204588, 0.103954,
          -0.121275, -0.179071, -0.10187, 0.115201, 0.234144, -0.058031, 0.007165, 0.204798
        ],
        [
          -0.140968, -0.13026, -0.069086, -0.05977, -0.070718, 0.158747, 0.019531, 0.01043, 0.09121,
          -0.207235, -0.12295, 0.053488, 0.123941, -0.143717, -0.120843, 0.097455, 0.134239,
          0.148854, -0.108709, -0.17349, -0.006963, -0.198998, 0.152452, 0.00694, -0.164328,
          0.037524, -0.022823, -0.104989, 0.129944, 0.208209, -0.01164, -0.221033, 0.009164,
          0.165659, -0.086652, -0.199687, 0.13726, -0.189381, 0.099318, 0.007466, -0.0516,
          -0.218217, 0.119977, -0.083062, 0.085115, 0.094442, 0.093988, 0.157737
        ],
        [
          -0.05777, -0.06769, 0.217289, 0.068074, -0.087284, -0.219228, 0.099823, -0.053563,
          0.084569, -0.012689, -0.087033, 0.041186, -0.15429, 0.047806, -0.021838, -0.092638,
          0.134089, 0.162799, 0.04611, -0.236574, -0.160644, 0.052712, 0.126725, 0.162743, 0.202904,
          -0.159269, 0.002558, -0.061899, -0.184082, -0.163344, 0.128221, -0.041606, -0.104314,
          -0.166033, 0.156006, 0.036844, -0.011447, 0.179388, 0.013218, -0.159385, -0.082068,
          -0.170858, 0.141598, 0.127184, -0.195169, -0.077409, -0.087702, -0.25611
        ],
        [
          -0.139891, -0.227041, -0.065506, 0.202394, -0.104799, -0.132653, -0.039857, 0.198588,
          -0.038927, -0.145838, -0.037055, 0.072366, 0.128064, 0.161059, 0.226575, 0.120011,
          0.113612, 0.024267, -0.208448, 0.24946, -0.084822, -0.186684, 0.016218, -0.075794,
          -0.037911, -0.008811, -0.000158, 0.113906, -0.204147, 0.066682, 0.045524, 0.113066,
          0.064337, -0.161554, 0.013708, -0.135478, 0.128005, -0.023598, 0.114206, -0.109487,
          -0.188431, 0.072172, 0.104756, -0.053363, 0.084419, 0.024903, -0.093515, -0.249534
        ],
        [
          0.15852, -0.125898, 0.041927, 0.185817, 0.151817, -0.063522, 0.10501, 0.143104, -0.166961,
          -0.010879, -0.226033, -0.020774, -0.103834, -0.187797, -0.01977, 0.002879, 0.077225,
          -0.205461, 0.095831, -0.0782, -0.046459, 0.047125, 0.027651, 0.075054, -0.093282,
          0.129819, 0.008514, 0.026284, 0.014745, -0.184363, 0.086803, 0.112667, -0.061295,
          -0.171535, -0.172655, 0.166417, 0.08912, -0.155768, -0.065316, -0.024945, 0.110933,
          -0.161217, -0.199708, 0.141855, -0.102257, -0.070813, 0.198371, 0.037982
        ],
        [
          -0.111795, -0.177512, -0.221461, -0.147629, 0.128561, -0.065534, 0.118652, 0.134446,
          -0.053479, -0.118988, -0.010068, 0.136966, 0.168027, -0.170718, 0.054536, 0.015129,
          0.219813, -0.15578, 0.05193, 0.187283, -0.031594, -0.019306, -0.181479, -0.077724,
          -0.147197, 0.160803, -0.035687, -0.02071, 0.105341, -0.187306, -0.034998, 0.119802,
          0.165975, 0.139697, 0.112595, -0.226015, 0.17577, -0.142594, 0.039979, -0.077698,
          0.158527, 0.044623, 0.069145, -0.155041, 0.035036, 0.042353, 0.125792, -0.134033
        ],
        [
          0.201438, 0.16632, -0.082454, 0.198532, -0.024427, -0.030646, -0.058562, 0.059336,
          0.164262, -0.077378, 0.059724, 0.097942, 0.152397, -0.192909, 0.206251, -0.080746,
          -0.090969, -0.081438, 0.033901, 0.186572, -0.073936, 0.062226, -0.183911, 0.011516,
          0.25058, 0.103338, -0.010798, 0.03065, -0.112079, 0.014053, 0.080789, 0.140946, -0.103447,
          0.127105, 0.023521, -0.058496, -0.034836, 0.090606, 0.069698, -0.025619, -0.079714,
          -0.019182, 0.077761, 0.002388, -0.2002, 0.017195, 0.188559, 0.17789
        ],
        [
          0.002423, -0.054306, 0.099154, -0.145254, 0.145042, -0.171551, -0.061787, -0.133579,
          -0.018963, 0.10789, -0.019202, -0.108911, -0.107733, -0.053966, -0.173839, 0.019867,
          -0.021869, 0.025786, 0.246451, 0.17508, 0.226794, -0.066511, -0.074174, -0.056268,
          0.16268, 0.303274, 0.213159, -0.106776, 0.283046, -0.091348, -0.222508, -0.032398,
          -0.206917, 0.026124, -0.054734, -0.041947, 0.109147, 0.148479, -0.003719, 0.066756,
          0.20073, 0.156726, -0.014918, 0.0566, -0.014343, -0.234215, 0.095739, 0.239046
        ],
        [
          -0.221569, 0.112175, 0.147191, 0.05547, -0.113821, 0.140585, -0.107393, 0.027052, -0.2647,
          -0.095652, 0.164073, -0.097568, -0.115598, -0.097003, 0.16646, -0.206859, 0.182582,
          -0.145075, -0.283926, -0.12338, -0.018584, -0.046796, -0.123797, 0.303015, -0.012654,
          -0.225629, -0.043344, 0.072206, -0.117843, -0.173721, 0.026823, 0.044346, 0.078276,
          -0.189182, -0.171526, 0.090375, -0.186783, 0.030101, 0.009454, -0.134671, 0.225226,
          0.136927, 0.110739, -0.143524, -0.273874, 0.068552, -0.259633, 0.13012
        ],
        [
          -0.124858, 0.038895, -0.012152, 0.038294, -0.178391, 0.048648, -0.049578, 0.21263,
          -0.276438, 0.207353, 0.146848, -0.040047, 0.162843, -0.244946, 0.156691, 0.019556,
          -0.03948, -0.097055, -0.163324, 0.221671, -0.14423, 0.015678, 0.007538, 0.166011,
          -0.120385, 0.00415, -0.006494, 0.086233, -0.155956, -0.167974, -0.135185, 0.099609,
          -0.131022, 0.033603, -0.113554, 0.151319, 0.213731, -0.000233, -0.044511, -0.082734,
          -0.280914, -0.073226, 0.059627, 0.005953, 0.233467, -0.080472, 0.114884, 0.021078
        ],
        [
          -0.046926, -0.154245, 0.024648, 0.008086, 0.059004, 0.109591, -0.115762, -0.042512,
          -0.011038, -0.008572, -0.105658, 0.067473, 0.267747, 0.25633, -0.07476, 0.119998,
          0.181326, 0.04906, -0.057292, 0.150096, 0.009165, -0.073381, -0.088223, 0.067235,
          -0.079667, 0.025089, 0.088248, 0.000701, -0.217301, 0.155205, -0.200049, -0.202781,
          -0.009712, -0.055954, 0.03052, -0.091393, -0.101509, -0.07634, 0.24194, -0.061922,
          0.002426, -0.059662, -0.193362, 0.164638, -0.189683, -0.039622, 0.022049, -0.27207
        ],
        [
          0.124152, -0.001194, -0.010845, -0.19185, -0.14419, 0.154604, 0.074423, -0.144509,
          -0.173971, 0.065481, 0.035461, -0.033926, -0.006352, -0.109839, 0.087963, 0.239338,
          -0.115476, 0.10851, -0.039456, -0.026322, -0.117053, 0.082651, -0.00677, 0.039121,
          -0.046788, -0.148742, -0.208574, 0.085806, -0.093591, 0.107783, -0.076715, -0.06762,
          -0.004433, -0.000351, -0.199632, -0.059439, 0.102697, 0.060943, -0.020702, 0.04738,
          -0.147504, -0.11116, -0.218713, 0.157222, -0.053545, -0.125305, -0.105883, -0.148549
        ],
        [
          0.042287, -0.167267, -0.155301, 0.112936, -0.088094, 0.045537, 0.030289, -0.125115,
          0.031169, -0.202624, 0.006965, -0.008685, -0.164105, -0.005686, 0.148026, 0.266983,
          0.087287, -0.072583, -0.08326, -0.070566, -0.006589, -0.070591, 0.195467, -0.067128,
          -0.03161, -0.021899, 0.180445, 0.075601, 5.8e-5, -0.073806, 0.178597, -0.164739, 0.181851,
          -0.093631, -0.074397, 0.02104, 0.107067, -0.222648, 0.186828, -0.082234, -0.118291,
          -0.051643, -0.025998, 0.031084, -0.039176, 0.058509, -0.087093, 0.142435
        ],
        [
          0.061093, 0.155708, -0.206638, 0.008217, -0.07344, 0.045849, 0.163227, -0.11042,
          -0.146112, 0.132912, -0.147676, 0.053065, 0.070413, 0.170836, -0.216331, -0.097379,
          0.061833, 0.217471, -0.016145, -0.021904, 0.051121, 0.127875, 0.138944, 0.152336,
          -0.189235, -0.140102, 0.083563, 0.157972, -0.072923, -0.064293, 0.072028, -0.179523,
          -0.011241, -0.030439, 0.022251, 0.094373, -0.019467, 0.058099, 0.02455, -0.002315,
          0.029372, -0.099411, -0.171193, -0.199197, -0.077013, -0.06346, 0.184931, 0.092315
        ],
        [
          0.151532, -0.116991, -0.017514, 0.015744, -0.135371, -0.189724, 0.022918, 0.119152,
          -0.15468, -0.138463, 0.11244, -0.122788, 0.143, 0.075076, 0.176339, -0.106939, 0.139,
          0.026763, -0.024666, 0.025119, -0.110255, -0.058188, -0.044478, 0.111122, 0.163262,
          0.028086, -0.211396, 0.104726, -0.042953, 0.156428, 0.134591, -0.187263, 0.119252,
          -0.22502, -0.073633, 0.030398, -0.157196, 0.078451, -0.216153, -0.248693, -0.035463,
          0.222579, 0.170779, 0.080163, -0.026848, -0.031721, -0.292732, -0.195434
        ],
        [
          -0.010001, 0.127778, 0.021118, 0.001401, -0.018643, -0.19322, -0.130643, 0.100618,
          0.054772, 0.201735, -0.111662, 0.249621, -0.187593, -0.223834, 0.158694, 0.035494,
          0.092447, -0.209982, 0.015012, 0.136024, -0.126497, 0.082761, -0.063765, 0.09447,
          -0.275851, -0.089182, -0.100974, -0.159363, 0.214987, -0.063269, -0.208351, -0.06029,
          -0.015071, 0.264527, 0.182675, 0.060836, 0.144101, 0.035304, -0.028884, 0.05319,
          -0.001092, 0.092417, 0.279431, 0.010992, 0.199987, 0.137579, 0.011211, 0.071575
        ],
        [
          -0.088288, 0.15505, 0.088766, -0.216072, -0.102621, 0.069757, -0.202313, -0.246026,
          -0.010794, 0.012522, -0.014995, -0.209436, -0.085339, 0.077776, 0.002411, -0.176603,
          -0.015302, 0.025783, -0.215325, -0.168201, -0.178065, 0.048376, 0.063412, 0.122448,
          0.093357, 0.086929, 0.017695, 0.040282, -0.257716, 0.020432, 0.070955, 0.039185,
          -0.040569, -0.126904, 0.043332, 0.086154, 0.116111, -0.072835, 0.112612, -0.009707,
          0.080404, 0.127625, -0.078471, 0.018065, -0.043699, 0.190282, -0.212403, -0.199187
        ],
        [
          0.119098, -0.003441, 0.093541, 0.031269, -0.181262, 0.12649, 0.052737, 0.052432,
          -0.096417, 0.126617, -0.144859, 0.133238, -0.077195, 0.078244, 0.139694, 0.067496,
          0.037284, 0.201081, -0.131473, -0.113846, 0.173813, 0.079311, 0.013709, 0.012412,
          -0.30671, -0.231429, 0.061479, 0.055707, -0.004306, 0.224382, -0.222034, -0.112477,
          -0.178353, -0.027512, -0.164703, 0.215067, -0.118711, 0.219094, -0.06912, 0.229226,
          0.000124, 0.17654, -0.221497, 0.106786, 0.179193, -0.209889, -0.165225, -0.076522
        ],
        [
          0.126071, 0.00722, 0.028192, -0.048501, -0.223892, 0.111353, -0.223824, 0.260929,
          0.249337, -0.146853, 0.031052, -0.185821, 0.114129, -0.129252, 0.109972, -0.007374,
          0.077679, 0.13131, -0.191459, 0.125804, -0.078953, 0.02098, -0.20591, 0.111142, -0.176605,
          -0.035079, -0.091273, 0.072086, -0.149926, 0.3117, 0.149022, -0.057471, 0.057048,
          -0.120045, -0.053265, 0.12538, 0.00081, 0.059949, -0.10134, -0.039423, -0.205153,
          0.134426, -0.021427, 0.052838, -0.1668, -0.050334, -0.09863, -0.25403
        ],
        [
          -0.015774, 0.203009, 0.218944, 0.001578, -0.050267, -0.14896, 0.236753, -0.251138,
          0.172446, -0.036684, -0.060416, 0.266349, -0.219225, -0.044083, -0.007766, -0.026333,
          -0.031184, 0.042372, 0.132609, -0.134653, 0.198804, -0.062334, -0.044421, -0.113874,
          -0.079844, -0.171406, 0.184978, -0.019549, -0.087425, -0.195895, 0.133543, 0.183847,
          0.001846, -0.14318, -0.112727, -0.25224, -0.113262, 0.017186, -0.109822, -0.107031,
          -0.105025, 0.143333, 0.223507, 0.025976, 0.030975, -0.089964, 0.048682, 0.165618
        ],
        [
          0.011159, 0.191955, 0.209066, -0.070442, -0.010363, -0.1772, -0.074233, 0.050628,
          -0.123099, 0.092564, -0.163188, 0.032479, 0.018151, 0.05867, -0.069498, 0.149719,
          0.072792, -0.023604, -0.139763, 0.03416, 0.161956, 0.086289, 0.189938, 0.016507, -0.1529,
          -0.158807, -0.033832, 0.136508, 0.146115, -0.103262, -0.028514, -0.017613, 0.016569,
          -0.078933, -0.152097, -0.163256, -0.138829, -0.133371, -0.261197, 0.059249, -0.034095,
          0.16329, -0.082652, -0.093343, -0.025109, -0.245889, 0.186441, -0.128946
        ],
        [
          0.247195, 0.250456, 0.163203, 0.047003, 0.041852, 0.038797, 0.144865, -0.256296,
          -0.182656, 0.02522, 0.04897, 0.242872, -0.186445, 0.079783, -0.110067, -0.087044,
          -0.141934, -0.061513, -0.067061, 0.07958, 0.107489, -0.038779, 0.057694, 0.111144,
          0.148097, 0.06949, -0.039652, 0.229545, 0.117112, -0.189854, -0.115996, 0.137904,
          -0.179761, 0.216155, -0.1371, 0.112479, 0.069691, -0.061827, 0.161337, 0.008218,
          -0.001141, -0.016994, -0.200827, -0.123615, 0.117669, -0.219376, -0.079376, 0.029523
        ],
        [
          0.060685, 0.073615, -0.119728, -0.251084, 0.142518, -0.064001, 0.187078, 0.154334,
          0.113044, -0.194378, 0.047495, 0.10557, 0.050514, -0.062816, -0.104242, -0.157134,
          0.051747, -0.001228, -0.077737, 0.029677, 0.010572, 0.049906, 0.160852, -0.185366,
          0.015781, -0.144189, 0.079297, 0.121157, 0.178505, -0.128607, 0.152775, -0.156833,
          0.059864, -0.154252, 0.142814, 0.023115, 0.120666, 0.094606, -0.152341, -0.259744,
          0.143236, -0.035713, -0.14103, -0.032422, 0.043743, -0.182965, -0.134044, -0.216792
        ],
        [
          -0.075942, 0.181454, 0.306203, 0.009516, -0.155687, 0.175861, 0.00632, -0.207729,
          0.205481, 0.167359, 0.117334, 0.06745, -0.140818, -0.18142, -0.041121, -0.04877,
          -0.059314, 0.05363, 0.080759, -0.096733, 0.131415, 0.10582, 0.07289, -0.077251, -0.211929,
          -0.11204, -0.11499, -0.101905, -0.065602, -0.077619, 0.155348, -0.282841, 0.152923,
          0.087213, -0.142437, 0.165077, 0.030098, -0.015183, 0.095269, -0.006699, 0.011572,
          -0.244091, 0.157184, 0.022893, -0.033024, -0.133063, 0.067309, 0.113805
        ],
        [
          -0.011317, 0.0891, 0.000882, 0.155989, -0.029231, 0.129591, 0.159757, -0.087726,
          -0.081695, -0.073397, 0.131325, -0.097366, -0.03285, 0.04965, -0.046269, 0.155494,
          -0.11206, -0.297903, 0.138501, -0.168019, -0.078282, 0.138518, -0.032015, 0.176144,
          0.15255, -0.097091, -0.197377, 0.113, 0.003257, -0.177632, 0.125742, -0.201532, 0.209917,
          -0.185016, -0.163184, -0.153014, 0.205356, 0.125191, 0.162797, 0.027361, -0.114292,
          -0.132552, 0.01108, 0.017699, 0.032231, -0.086595, 0.181919, -0.127969
        ],
        [
          0.187345, -0.230827, 0.063853, 0.058818, -0.032421, 0.032437, -0.077031, 0.000645,
          0.086651, 0.088838, 0.13193, -0.146775, 0.097933, -0.00095, 0.015116, -0.078348,
          -0.073457, -0.132795, -0.153853, -0.148622, 0.065056, -0.007345, 0.162192, 0.115929,
          -0.230883, 0.114747, 0.223121, -0.030956, 0.047651, 0.264119, -0.061051, 0.179869,
          -0.242521, -0.12291, -0.037014, -0.032951, 0.108064, 0.225352, 0.002639, -0.124829,
          0.044865, 0.183649, -0.180004, -0.033736, 0.051609, 0.069828, -0.079759, -0.108107
        ],
        [
          0.223613, 0.092528, -0.11866, -0.127005, 0.085795, -0.065362, -0.137981, 0.168222,
          -0.026451, -0.013672, -0.30059, 0.044, -0.093278, -0.208153, -0.263434, 0.166784,
          0.213927, -0.126058, 0.110155, 0.118473, 0.134175, -0.117323, 0.078429, -0.231392,
          -0.014696, 0.204401, 0.136867, -0.070802, -0.14504, 0.10347, 0.028922, 0.046773, 0.225397,
          -0.245968, -0.077365, 0.182323, -0.069352, -0.124684, 0.003987, 0.136451, -0.155788,
          0.260071, 0.074971, -0.172421, 0.110927, -0.17298, 0.036322, 0.088709
        ],
        [
          0.158357, -0.184863, -0.001189, 0.011373, -0.0636, -0.074326, -0.233833, 0.179116,
          -0.014213, -0.124817, 0.127443, 0.086698, 0.089149, -0.037586, 0.031814, -0.067804,
          -0.04849, 0.170843, -0.194611, -0.16567, -0.219539, -0.186684, -0.233938, 0.224048,
          -0.032062, -0.177448, -0.06103, 0.155787, 0.020377, -0.003434, 0.084425, -0.022335,
          -0.082766, 0.000366, -0.046813, -0.118544, 0.053971, -0.096922, 0.030232, -0.176575,
          -0.15363, -0.044539, 0.158175, -0.123271, 0.087475, -0.131733, -0.154425, -0.187357
        ],
        [
          -0.072441, -0.088153, -0.162254, 0.087342, -0.220055, 0.097733, -0.01525, 0.008872,
          -0.003332, -0.103436, -0.071059, 0.162156, 0.104371, -0.157261, -0.187483, 0.15198,
          -0.045867, -0.029177, -0.036417, -0.15526, 0.046666, 0.053102, -0.078908, -0.062233,
          0.24361, 0.044507, -0.140781, 0.035029, 0.118351, 0.082825, 0.033109, -0.161847, 0.120548,
