{
  "kind": "classifier",
  "target": "transparency",
  "feature_names": [
    "SiO2_umf",
    "Al2O3_umf",
    "B2O3_umf",
    "Li2O_umf",
    "K2O_umf",
    "Na2O_umf",
    "KNaO_umf",
    "MgO_umf",
    "CaO_umf",
    "SrO_umf",
    "BaO_umf",
    "ZnO_umf",
    "PbO_umf",
    "P2O5_umf",
    "F_umf",
    "V2O5_umf",
    "Cr2O3_umf",
    "MnO_umf",
    "MnO2_umf",
    "FeO_umf",
    "Fe2O3_umf",
    "CoO_umf",
    "NiO_umf",
    "CuO_umf",
    "Cu2O_umf",
    "CdO_umf",
    "TiO2_umf",
    "ZrO2_umf",
    "SnO2_umf",
    "MoO3_umf",
    "Bi2O3_umf",
    "CeO2_umf",
    "PrO2_umf",
    "Pr2O3_umf",
    "Nd2O3_umf",
    "U3O8_umf",
    "Ho2O3_umf",
    "Er2O3_umf",
    "SiO2_Al2O3_ratio_umf",
    "R2O_umf",
    "RO_umf",
    "cone_num",
    "atm_oxidation",
    "atm_reduction",
    "atm_neutral",
    "atm_salt_soda",
    "atm_wood",
    "atm_raku",
    "atm_luster",
    "atm_known"
  ],
  "scaler": {
    "mean": [
      3.006446, 0.428084, 0.144126, 0.034726, 0.099975, 0.167043, 0.267018, 0.116636, 0.49059,
      0.021873, 0.017258, 0.048935, 0.001214, 0.005584, 0.006429, 2.9e-5, 0.001003, 0.00175,
      0.179872, 0.000796, 0.036801, 0.023197, 0.001133, 0.045912, 3.4e-5, 0.0, 0.047046, 0.013135,
      0.010988, 0.0, 4e-6, 1.2e-5, 2e-6, 0.000119, 7.4e-5, 2.9e-5, 7.6e-5, 0.000107, 8.709159,
      0.301744, 0.698256, 28.398182, 0.729818, 0.318727, 0.098364, 0.054909, 0.045091, 0.008364,
      0.0, 0.902727
    ],
    "std": [
      1.998538, 1.289886, 0.19712, 0.103307, 0.087518, 0.136823, 0.149904, 0.142137, 0.227172,
      0.089145, 0.078379, 0.120759, 0.027195, 0.020315, 0.122283, 0.001223, 0.00832, 0.030571,
      4.696943, 0.009379, 0.077182, 0.653195, 0.011976, 0.865839, 0.001498, 2e-6, 0.103481,
      0.049844, 0.047864, 1.0, 0.00033, 0.000886, 0.000183, 0.003498, 0.002306, 0.001309, 0.002243,
      0.002794, 6.377717, 0.177873, 0.177873, 4.111182, 0.444054, 0.465983, 0.297806, 0.227803,
      0.207504, 0.09107, 1.0, 0.296329
    ]
  },
  "layers": [
    {
      "w": [
        [
          -0.021005, 0.321273, 0.142313, 0.044517, -0.231166, -0.301687, -0.136376, 0.235555,
          -0.019597, -0.003954, -0.251027, 0.328881, 0.112022, -0.173758, -0.032789, -0.256786,
          -0.10072, 0.134503, 0.037692, -0.043205, -0.117634, -0.0726, -0.181196, -0.062947,
          -0.042292, 0.082025, -0.215258, -0.051818, 0.109683, -0.328337, 0.189941, 0.044774,
          -0.16699, -0.005769, 0.320966, 0.223401, -0.070351, -0.346209, 0.183019, -0.039614,
          -0.074171, -0.146531, -0.357044, 0.084917, -0.187043, -0.130289, -0.203658, 0.098843,
          0.171821, -0.238118, 0.228173, 0.106455, 0.228698, 0.247457, -0.202684, 0.351748,
          -0.171023, -0.142461, -0.357453, -0.308718, -0.131399, -0.241477, -0.02331, -0.079659,
          -0.178055, -0.100868, -0.134037, 0.15608, -0.320863, 0.083863, 0.071394, -0.164012,
          -0.291028, 0.245555, 0.251797, 0.138572, 0.215349, -0.130895, -0.081739, -0.122239,
          0.347881, -0.103119, 0.030355, -0.279121, -0.001386, 0.01143, 0.418019, 0.24263, 0.199313,
          -0.124517, 0.030968, 0.064184, 0.250358, -0.103449, 0.120557, -0.096222
        ],
        [
          0.009058, -0.064198, -0.160662, 0.066634, -0.203049, 0.261228, -0.299484, 0.020703,
          0.175066, -0.138911, 0.099454, 0.090546, -0.165995, 0.058792, 0.259985, 0.23824, 0.530518,
          0.270482, 0.081727, -0.034575, 0.47644, -0.168795, 0.166252, 0.246301, 0.16152, 0.05011,
          -0.12346, -0.391362, 0.074352, 0.296415, 0.001196, 0.312256, -0.36333, 0.163166,
          -0.222353, 0.059241, -0.115738, -0.044479, 0.155617, 0.307471, -0.049961, 0.589378,
          -0.213206, 0.346254, 0.154321, -0.01737, -0.15852, 0.144265, -0.176046, -0.304734,
          0.188856, 0.037997, -0.176268, -0.198441, 0.159523, 0.046701, -0.188032, -0.133489,
          0.268069, 0.021082, 0.02355, -0.024832, 0.354896, 0.230771, -0.031939, 0.022898,
          -0.069986, -0.239732, -0.349755, 0.011545, -0.063885, -0.219522, -0.283428, 0.185084,
          0.047119, -0.344237, 0.113214, -0.091215, 0.007347, 0.137714, 0.035408, 0.109004, 0.44694,
          -0.341473, -0.012073, 0.034698, 0.215873, 0.19068, -0.244199, 0.113098, 0.082302,
          0.145032, 0.019849, -0.370955, -0.02567, 0.47427
        ],
        [
          0.242282, 0.156185, -0.151355, -0.154625, 0.157964, 0.091516, 0.053303, 0.07146, 0.037636,
          -0.209922, -0.214956, 0.188495, 0.103456, -0.293297, -0.229892, 0.020234, -0.280308,
          -0.004584, 0.031817, 0.035421, 0.064537, -0.196222, -0.029177, -0.168906, -0.054858,
          0.127865, 0.049283, 0.197321, 0.135665, 0.090299, -0.239678, -0.070336, -0.162578,
          -0.195944, 0.325913, -0.033123, 0.069974, -0.070675, 0.218462, 0.007546, -0.06851,
          -0.228272, -0.124801, -0.008875, -0.095943, -0.187102, -0.035033, -0.129823, 0.261548,
          0.174408, 0.162546, -0.175486, -0.23843, 0.208566, -0.083272, 0.205079, 0.234597,
          0.144154, -0.21474, -0.138807, 0.1513, -0.105452, -0.202004, -0.060424, 0.220565,
          0.029657, 0.107003, -0.153492, 0.077602, 0.292493, -0.083176, 0.023939, 0.07818, 0.16278,
          0.107136, 0.002439, -0.06105, -0.177934, 0.27614, 0.139926, 0.176861, 0.100993, -0.039996,
          -0.193661, 0.207129, -0.092899, 0.191666, 0.209121, 0.257551, -0.086591, -0.248666,
          -0.34454, 0.068013, -0.111318, -0.076031, -0.177285
        ],
        [
          -0.144924, 0.002555, -0.212493, -0.334337, 0.107884, -0.024312, -0.323786, 0.038979,
          0.007678, -0.103927, 0.027592, -0.021685, -0.157075, -0.087403, -0.05725, -0.015261,
          0.130198, 0.088226, -0.012208, -0.049532, 0.252361, -0.269588, 0.079069, -0.282343,
          -0.019071, 0.132591, 0.057762, 0.070174, 0.059182, -0.061376, -0.305704, -0.15471,
          -0.001012, 0.072852, 0.020955, -0.17495, 0.281823, 0.076335, -0.056363, 0.073827,
          0.045335, -0.118545, 0.033431, 0.146772, -0.203128, -0.251344, -0.158818, -0.147718,
          0.186913, 0.089154, -0.067828, -0.170822, -0.162744, -0.059697, -0.173399, -0.144482,
          -0.087724, -0.02533, 0.024585, -0.123045, -0.018933, -0.008076, -0.063094, 0.148194,
          0.199587, -0.200544, -0.287529, 0.036666, -0.183609, 0.055647, 0.132125, 0.034018,
          -0.008064, 0.079145, 0.020979, 0.032374, 0.207668, 0.02452, 0.049776, 0.180672, -0.193348,
          -0.007682, -0.279198, -0.285581, -0.173617, 0.122732, -0.179477, -0.051951, 0.183273,
          -0.234419, 0.152006, -0.134738, -0.211339, 0.115806, 0.103807, 0.180051
        ],
        [
          0.12704, 0.124556, -0.062437, -0.175435, 0.020478, 0.109949, 0.268328, -0.082331,
          -0.085839, 0.176621, -0.072174, 0.274412, 0.067433, -0.091277, 0.076356, 0.046238,
          -0.261164, 0.290662, -0.053636, 0.078718, -0.020109, 0.185591, -0.090129, -0.33746,
          0.204046, -0.179609, 0.038221, 0.170405, 0.10924, -0.057825, 0.104851, 0.04542, -0.034304,
          -0.226171, 0.021221, 0.087047, 0.096898, 0.087754, -0.147946, -0.027991, -0.152818,
          -0.037406, -0.168074, 0.108304, -0.018728, -0.186512, -0.1477, 0.151126, 0.032822,
          -0.201031, -0.187864, 0.183985, -0.215422, 0.048401, 0.043791, -0.134523, -0.220975,
          0.175507, -0.094025, 0.034252, 0.160526, 0.164027, 0.293435, 0.070214, 0.036695,
          -0.247242, 0.071413, -0.039466, 0.106336, 0.178412, -0.12305, 0.044426, -0.070269,
          0.007556, -0.209636, -0.18017, -0.169171, 0.175774, 0.208641, 0.103287, 0.185302,
          -0.035827, -0.039115, 0.15854, -0.075657, 0.211333, -0.201477, 0.181117, -0.228371,
          0.233621, 0.048939, 0.228816, -0.108964, -0.001426, 0.141323, -0.077521
        ],
        [
          -0.02901, 0.103728, 0.01592, 0.115321, 0.112675, 0.096006, -0.231892, -0.087872, 0.244252,
          0.20042, -0.04011, -0.016356, -0.179837, -0.044001, 0.011467, 0.034218, 0.050694,
          -0.262371, 0.223408, 0.247936, 0.046738, -0.02993, -0.146294, 0.231477, 0.03959,
          -0.179711, 0.161727, 0.101338, 0.172632, 0.114831, 0.063775, -0.051563, 0.212871,
          0.200631, -0.108485, -0.242216, -0.08405, 0.160232, 0.208884, -0.12176, 0.022166,
          0.046599, 0.168015, 0.160661, 0.121884, -0.049353, -0.03394, -0.133273, -0.244863,
          0.107861, 0.147763, 0.184107, 0.314836, 0.070406, 0.154738, 0.272103, 0.209348, -0.081026,
          0.016784, -0.202643, 0.206559, 0.058528, -0.156666, 0.079908, -0.002544, -0.024397,
          -0.11188, 0.11091, -0.065883, 0.102165, 0.028973, 0.17369, 0.048246, -0.085359, 0.11041,
          -0.068141, -0.183782, -0.221837, 0.159054, -0.021248, 0.128035, -0.169681, -0.165165,
          -0.227985, -0.090507, 0.014982, -0.139666, -0.088124, 0.173066, 4.2e-5, -0.027322,
          0.121146, -0.003494, 0.035085, 0.188274, 0.149587
        ],
        [
          -0.194801, 0.195939, 0.038995, -0.051162, 0.014852, 0.121746, 0.015443, -0.088018,
          0.098776, -0.023269, -0.198761, -0.150136, -0.289734, -0.100684, -0.137823, 0.113527,
          -0.155303, -0.055846, 0.162597, 0.009033, 0.058063, -0.158496, -0.208833, -0.167347,
          -0.137107, -0.129794, -0.087339, -0.210106, -0.214842, -0.040074, -0.065431, -0.031835,
          0.061382, 0.063459, -0.155868, 0.062847, 0.003395, -0.160078, 0.170896, 0.171681,
          -0.178695, -0.033836, 0.021094, 0.098962, -0.119931, -0.172774, -0.054834, -0.00089,
          -0.027645, -0.109536, -0.004887, 0.139688, -0.09727, -0.120396, 0.120303, 0.261492,
          0.050486, 0.014184, -0.151789, -0.012024, 0.056416, -0.09259, -0.064716, -0.057427,
          -0.194019, -0.090373, -0.106866, -0.058682, -0.121039, 0.158933, 0.073075, 0.119747,
          0.198159, -0.089978, -0.221362, -0.027507, -0.004082, 0.129817, 0.086389, -0.162336,
          -0.045755, -0.102095, 0.073584, 0.003817, -0.062092, 0.188678, -0.041987, -0.164897,
          -0.173293, -0.031874, -0.112247, -0.110777, -0.045525, -0.11594, -0.118659, 0.090261
        ],
        [
          -0.166135, -0.014719, -0.147906, 0.208746, -0.07174, -0.051155, 0.25149, 0.178244,
          0.140563, -0.120356, -0.136945, -0.040184, 0.141111, 0.00126, 0.009269, -0.088913,
          0.049239, -0.182125, -0.039418, 0.066651, -0.083592, -0.024222, -0.091204, 0.106349,
          -0.042708, 0.057523, -0.210958, 0.086722, -0.066184, -0.395776, -0.149554, -0.343506,
          -0.218097, 0.204523, 0.093052, 0.180108, -0.205237, 0.17546, 0.127683, 0.019808,
          -0.012255, -0.026052, -0.124159, 0.318315, 0.188857, 0.120671, -0.266182, 0.085535,
          0.173992, -0.056175, -0.180579, 0.204461, 0.030814, 0.267117, -0.175898, 0.092655,
          -0.129592, -0.104071, -0.121272, 0.039899, -0.023139, 0.021211, -0.106651, 0.270033,
          -0.056349, 0.201039, 0.052585, -0.053648, 0.036069, -0.100549, 0.010714, 0.093903,
          -0.051553, 0.112306, -0.023978, -0.031718, 0.238578, 0.061707, -0.070835, 0.210863,
          0.127412, -0.136277, -0.189953, 0.269704, 0.017444, -0.063607, 0.240694, 0.171689,
          -0.12099, -0.045201, -0.051698, 0.180842, -0.302685, -0.003098, 0.145812, 0.217685
        ],
        [
          -0.100349, 0.22399, -0.116152, 0.181823, -0.223547, -0.069441, 0.089075, -0.16525,
          -0.133333, 0.000284, 0.183824, 0.090908, 0.107476, 0.072301, -0.019732, -0.061175,
          -0.126954, 0.229377, 0.05158, -0.20176, -0.027142, 0.127653, -0.21095, 0.024525,
          -0.048342, 0.045944, -0.148508, 0.164638, 0.259968, 0.0792, 0.093951, 0.242086, 0.081926,
          -0.172241, -0.03146, 0.060557, -0.009342, 0.075587, 0.146469, 0.133762, -0.071531,
          -0.207896, 0.291315, 0.087437, -0.339765, 0.221791, 0.219563, 0.036344, 0.0367, -0.020339,
          -0.195438, -0.17095, 0.148317, -0.233006, -0.128463, -0.080219, 0.024761, 0.162244,
          -0.115075, -0.057357, 0.131942, -0.052182, -0.095431, -0.09379, -0.279325, -0.190182,
          -0.043618, -0.027193, 0.162188, -0.057595, 0.110939, -0.02587, -0.272699, 0.151593,
          -0.119604, 0.215934, -0.145451, -0.073049, -0.163134, 0.228153, 0.010032, 0.098076,
          -0.168895, 0.006252, -0.166053, 0.143899, -0.083682, -0.172222, -0.235564, -0.09117,
          -0.019965, -0.265964, 0.11653, -0.014575, -0.025479, -0.116219
        ],
        [
          -0.024654, -0.080512, -0.080453, -0.29065, 0.165913, 0.143761, -0.029443, -0.0691,
          0.102482, 0.057772, -0.401739, -0.107023, 0.175982, 0.112735, -0.382013, -0.178581,
          -0.135953, 0.117647, -0.249602, -0.139117, 0.103085, -0.384229, 0.058004, -0.10409,
          -0.125181, -0.03841, 0.101269, 0.074693, 0.141705, 0.02403, 0.122097, -0.097916,
          -0.154917, 0.248151, -0.114487, -0.049274, -0.123062, -0.354921, -0.093441, 0.0957,
          0.028234, 0.149683, 0.14153, -0.047659, -0.016256, -0.019722, -0.053025, -0.057745,
          0.065172, -0.082273, 0.06294, -0.001101, -0.042948, 0.27026, 0.227993, -0.065278,
          0.128832, -0.038394, 0.163272, 0.133977, 0.038541, -0.176039, -0.033922, 0.006405,
          0.106826, -0.044632, -0.148173, 0.146692, 0.272491, 0.07674, -0.191248, -0.11448,
          -0.173758, 0.151783, -0.28066, 0.072363, -0.147888, -0.016432, 0.054743, 0.149816,
          -0.177833, -0.425429, -0.116162, 0.15517, 0.175572, 0.00507, 0.093527, 0.020257, -0.19885,
          0.23099, 0.044532, 0.012293, 0.086151, -0.042887, -0.136757, 0.092716
        ],
        [
          -0.220127, -0.016748, -0.083497, -0.041686, -0.084035, 0.078036, 0.051252, -0.070716,
          0.05026, 0.025527, 0.042901, 0.145241, 0.074001, -0.161515, -0.159539, -0.034244,
          -0.052824, -0.387763, 0.067432, -0.01032, -0.009452, 0.023882, -0.025579, -0.228566,
          0.084139, 0.115871, 0.052206, -0.056081, -0.176115, 0.122734, 0.106727, 0.095944,
          -0.057409, 0.037835, -0.174896, -0.275768, 0.136889, -0.148753, 0.177302, 0.050679,
          -0.071258, 0.012787, 0.213278, 0.093353, 0.235739, 0.094702, 0.19382, 0.124113, -0.029226,
          -0.020117, -0.216132, 0.170768, 0.248968, -0.361737, 0.095088, 0.224788, -0.168977,
          0.11557, 0.247455, -0.200339, 0.104281, -0.073311, 0.149713, 0.115419, 0.176385,
          -0.020681, 0.186091, 0.091146, -0.277768, 0.092024, -0.371775, 0.113251, -0.090216,
          -0.246804, -0.290565, 0.206444, -0.063932, 0.127758, -0.293685, -0.146503, 0.051531,
          0.116505, 0.009542, 0.059808, 0.177146, 0.10472, -0.116832, -0.08435, 0.211904, -0.11909,
          0.107069, 0.081163, 0.192287, 0.172175, 0.139495, 0.027739
        ],
        [
          0.218861, -0.18793, -0.029126, -0.004944, 0.163502, 0.28443, 0.145029, -0.021311,
          -0.073068, 0.131243, -0.16337, -0.191612, 0.010876, -0.172426, -0.122982, -0.091541,
          -0.026158, -0.166364, 0.148646, 0.110707, 0.030204, 0.234373, -0.073922, 0.138665,
          0.061884, -0.245666, -0.046772, 0.141048, 0.128879, 0.067209, 0.101107, -0.0446, 0.198054,
          -0.088217, 0.173798, 0.054955, 0.122386, -0.084603, -0.042091, -0.172483, -0.131212,
          -0.09708, -0.002858, -0.295995, -0.066468, 0.228423, 0.110027, 0.141173, 0.19387,
          -0.183022, 0.016326, 0.131498, 0.003573, -0.327923, 0.151266, -0.167629, -0.127247,
          0.010157, 0.050399, 0.064152, -0.319576, 0.198667, -0.071414, -0.096145, 0.233396,
          0.200883, 0.133418, 0.147245, -0.05323, 0.03513, -0.142427, -0.188241, -0.17404,
          -0.055217, 0.127972, -0.084273, -0.253463, -0.098378, 0.024201, -0.370637, 0.032339,
          -0.003653, 0.000271, 0.053297, 0.204809, 0.035664, -0.122444, 0.030551, -0.058414,
          0.123907, 0.156052, 0.038207, 0.125367, 0.111119, 0.08686, 0.268387
        ],
        [
          0.063795, 0.043358, 0.067162, 0.074124, -0.136516, 0.151209, 0.129318, -0.225857,
          0.162125, -0.100317, -0.056619, 0.085601, -0.13796, 0.106337, 0.123867, 0.00536, -0.20733,
          -0.125427, 0.025133, 0.190337, 0.078541, -0.156625, 0.06796, 0.035479, 0.167787,
          -0.150338, 0.109111, 0.052019, 0.172135, -0.142488, 0.108623, 0.11386, -0.165678, 0.18602,
          0.029252, -0.216913, -0.127185, 0.090791, -0.334961, 0.03552, -0.146557, 0.051257,
          -0.212189, 0.088219, 0.163852, 0.16592, 0.076717, -0.080518, 0.064983, -0.242056,
          -0.027977, -0.220893, 0.009842, 0.143994, 0.067548, -0.011046, -0.148236, 0.206202,
          0.016621, 0.014302, -0.124886, 0.063416, 0.071044, -0.025451, -0.191534, 0.015303,
          0.020229, -0.186723, 0.214384, -0.23127, -0.097528, 0.167699, 0.052619, 0.070085, 0.00883,
          -0.110999, 0.141342, -0.118549, 0.167968, 0.011215, -0.187265, -0.242594, 0.022758,
          0.015902, 0.142668, 0.021777, 0.179149, -0.000568, 0.142278, 0.14992, 0.133163, 0.157683,
          0.053049, 0.026678, -0.198669, -0.242205
        ],
        [
          0.117017, -0.096598, 0.077827, -0.051929, -0.160639, -0.111848, 0.058698, -0.103899,
          0.027686, -0.072615, -0.233645, 0.000103, -0.14997, 0.107816, -0.053112, -0.108552,
          -0.316851, -0.27612, -0.17894, -0.018521, -0.016793, -0.156653, 0.150217, 0.146209,
          0.161308, -0.138885, -0.017358, -0.068562, 0.039188, 0.211386, -0.41212, -0.095327,
          0.074354, 0.14361, 0.047508, -0.208368, -0.140204, -0.034125, -0.234691, -0.131814,
          -0.091578, -0.229447, 0.093245, -0.26736, 0.006585, 0.161939, 0.084775, -0.053693,
          -0.149578, 0.101004, 0.021431, 0.064973, -0.170949, 0.145146, -0.206414, 0.077, 0.020314,
          0.265905, 0.163002, 0.0848, 0.034239, 0.136557, -0.277026, 0.113358, 0.055287, 0.089117,
          -0.010563, 0.051516, 0.116337, 0.27792, -0.020704, -0.363427, -0.07836, -0.167502,
          0.175797, -0.180053, 0.14913, -0.02115, -0.263409, 0.040985, -0.07735, 0.097558,
          -0.036039, -0.044137, -0.115212, 0.215337, 0.158631, 0.051508, -0.187003, 0.086446,
          -0.347031, -0.301571, -0.262184, -0.036624, 0.090234, -0.103276
        ],
        [
          0.076506, 0.080335, -0.045993, -0.189896, 0.113267, -0.283236, 0.055568, -0.011887,
          -0.001837, 0.103707, -0.126992, 0.214516, 0.16693, -0.098351, -0.099443, 0.037111,
          0.147826, -0.059545, 0.108151, 0.000876, 0.021964, -0.21477, 0.109429, 0.19487, -0.245492,
          -0.012238, 0.308219, 0.01337, 0.165769, 0.024403, -0.033039, 0.187037, 0.043204, 0.030988,
          -0.311314, 0.000502, -0.119295, -0.20567, 0.134057, -0.196977, -0.099253, 0.002941,
          0.100831, -0.326655, 0.152636, -0.088228, -0.342065, -0.212588, -0.166357, 0.038512,
          0.005733, 0.146602, -0.095721, -0.328197, 0.034434, 0.108571, -0.05834, -0.173194,
          -0.043868, 0.12181, 0.164834, -0.043204, 0.179948, 0.087159, 0.022531, 0.21577, -0.229695,
          -0.164771, -0.087918, -0.006834, 0.094149, 0.203277, -0.207222, -0.244731, -0.033626,
          0.203199, -0.206085, 0.065106, 0.005886, -0.272692, 0.122209, 0.241886, -0.495632,
          0.179886, 0.126816, 0.098077, -0.00029, -0.05017, -0.007013, 0.061695, -0.181338,
          -0.152251, -0.228914, -0.037228, -0.254614, 0.068169
        ],
        [
          0.183552, -0.263003, 0.042969, -0.072425, 0.142868, -0.182405, 0.07741, 0.104538,
          0.133506, 0.05302, -0.001416, 0.054454, 0.140465, 0.021092, -0.133321, 0.16939, 0.079015,
          0.082158, -0.232519, 0.065838, -0.042969, 0.038103, -0.232621, 0.061517, 0.192905,
          -0.257313, 0.180877, -0.027074, 0.182054, 0.110227, 0.014604, 0.141523, 0.134703,
          -0.042754, 0.008211, 0.079813, 0.12432, 0.091696, 0.096587, 0.003293, 0.081531, -0.059492,
          0.014417, -0.237359, -0.006967, -0.049729, -0.130774, 0.114729, -0.108118, -0.000795,
          -0.091695, -0.156315, -0.08884, -0.21361, 0.067521, 0.061322, 0.040095, 0.030159,
          -0.036234, 0.099394, 0.003922, -0.084967, -0.303244, -0.099336, -0.019795, -0.051587,
          0.027182, 0.040057, 0.007554, 0.137364, 0.106663, 0.038442, 0.209007, -0.193606,
          -0.193012, -0.194235, 0.058339, 0.13381, -0.113238, 0.15243, -0.230571, 0.175559,
          -0.019834, -0.194765, -0.018442, -0.052878, -0.114225, -0.020675, 0.093911, 0.035871,
          -0.115342, 0.056202, 0.087004, -0.17411, -0.034445, -0.222927
        ],
        [
          -0.172824, 0.093319, -0.07391, 0.146389, 0.096177, -0.174438, 0.098766, -0.121461,
          0.256109, -0.102554, 0.099826, 0.126661, -0.14336, 0.165425, 0.280825, 0.051539, 0.155478,
          0.002613, -0.117923, -0.151726, 0.028148, -0.003566, 0.055778, 0.174181, -0.20421,
          -0.156128, 0.238603, -0.190208, 0.125308, -0.037812, 0.056482, -0.17659, -0.011193,
          0.065663, 0.035743, -0.093514, 0.257509, 0.287896, -0.158766, -0.121273, -0.465485,
          0.125495, -0.004076, -0.097508, -0.047276, -0.042553, 0.119177, 0.011146, 0.222158,
          -0.196702, 0.052911, -0.083257, -0.06779, 0.223588, 0.148549, 0.282919, -0.034248,
          -0.123448, 0.075409, -0.116032, -0.223372, -0.211423, -0.096649, 0.245722, 0.000731,
          0.098761, -0.125947, 0.036337, -0.344219, -0.041241, -0.147081, 0.107154, -0.203918,
          0.104053, 0.18963, 0.052748, 0.027697, -0.116588, -0.052727, 0.04104, 0.082676, 0.036957,
          0.045198, 0.101469, -0.078742, -0.136439, -0.012054, 0.238981, -0.133473, 0.106316,
          -0.296733, 0.000241, -0.077359, -0.139368, 0.132951, -0.1005
        ],
        [
          -0.0264, 0.113193, 0.1317, -0.088793, -0.097948, -0.133787, 0.191356, 0.180191, -0.074812,
          0.189846, -0.087333, 0.07636, -0.000695, 0.096778, -0.12879, 0.046994, 0.156959, 0.047959,
          -0.238763, -0.165329, -0.131489, -0.025045, -0.345225, 0.352675, -0.010697, 0.04859,
          -0.169993, -0.101176, 0.098234, -0.003578, 0.163184, -0.174794, 0.137158, 0.143977,
          -0.002111, 0.278037, -0.027554, 0.145437, -0.044287, 0.108957, 0.016895, 0.242526,
          0.155582, -0.204038, -0.076293, 0.223292, -0.195891, -0.004099, -0.264581, 0.245235,
          0.073201, 0.229264, -0.223499, 0.234468, 0.169009, -0.116745, 0.062897, 0.30555,
          -0.120851, -0.146808, -0.173021, -0.152448, -0.008497, -0.2967, -0.241643, -0.0234,
          0.300104, -0.044423, 0.09074, -0.308583, -0.113928, -0.079885, -0.027832, -0.295648,
          0.253533, -0.233031, 0.120322, 0.037551, -0.317891, -0.148665, 0.160566, -0.126172,
          -0.245944, 0.223373, -0.263021, 0.115369, 0.194082, -0.017248, -0.192066, -0.132615,
          -0.181424, -0.04673, 0.014136, -0.412093, -0.175952, 0.400782
        ],
        [
          0.196557, 0.216262, -0.018476, 0.146892, 0.119306, -0.01793, -0.211983, 0.189314,
          -0.029406, -0.357955, -0.019095, 0.069945, 0.051733, 0.111709, 0.344739, 0.053364,
          -0.029031, 0.133281, -0.240002, -0.266708, 0.30405, -0.18807, -0.096869, -0.021434,
          -0.231794, -0.287101, 0.129521, 0.035021, 0.319952, 0.054508, -0.396719, 0.171386,
          -0.159572, 0.201338, -0.133621, 0.035224, -0.034416, -0.073524, 0.079352, 0.189085,
          -0.172198, 0.224226, -0.046802, 0.385947, 0.199639, 0.192869, 0.035735, 0.191857,
          0.046147, -0.085183, -0.175181, -0.047854, -0.185931, 0.223891, -0.029468, 0.107465,
          -0.113889, 0.141707, 0.086989, 0.063539, -0.0859, 0.023278, -0.072015, 0.169572, 0.104855,
          0.127049, -0.15117, -0.246386, 0.088291, 0.015314, -0.200912, -0.404844, 0.06977,
          0.079901, 0.067466, -0.175648, 0.085751, 0.018794, -0.037465, -0.154523, -0.396219,
          -0.264219, 0.2309, 0.106778, -0.170074, -0.099586, -0.098426, 0.302771, -0.239867,
          0.066264, 0.001902, 0.131584, -0.209906, -0.169339, 0.074882, 0.204188
        ],
        [
          0.061639, 0.012442, -0.280627, 0.161778, 0.110903, -0.101743, 0.253261, 0.000814,
          0.056707, 0.146412, 0.175729, 0.061285, -0.203966, -0.049488, 0.152708, -0.023054,
          0.059883, -0.045427, -0.027971, 0.054157, 0.152022, -0.0555, -0.197124, 0.047591,
          0.231127, 0.077298, -0.158136, 0.102693, 0.144548, 0.109419, 0.201891, -0.216177,
          0.140934, -0.066663, 0.066138, 0.050734, 0.152203, 0.067229, -0.052712, -0.026152,
          0.234471, 0.182615, -0.262948, -0.214478, -0.245714, 0.140444, 0.061606, 0.02811,
          0.092678, 0.172849, 0.049555, 0.123421, 0.096213, -0.052221, -0.04573, 0.126377, 0.074507,
          0.140622, 0.104154, 0.10132, -0.034015, -0.061437, -0.248098, -0.124996, 0.093412,
          0.126977, -0.285843, -0.081928, 0.14452, -0.212152, -0.00756, 0.130538, 0.025333,
          -0.035144, -0.008077, 0.161466, -0.02344, -0.253794, 0.175703, -0.037211, 0.07818,
          -0.045792, 0.132395, 0.029111, -0.049171, -0.18026, -0.038977, 0.10478, 0.159411,
          -0.117325, 0.083302, 0.099167, 0.178359, 0.039538, -0.021275, 0.034837
        ],
        [
          0.06897, -0.282039, 0.112711, -0.04975, 0.200991, -0.207214, -0.03325, -0.005318,
          0.137512, -0.140417, -0.104796, -0.032948, 0.026376, 0.011455, 0.193781, 0.205849,
          -0.121937, 0.060514, 0.032614, -0.208073, -0.100053, -0.161361, 0.160233, 0.152853,
          0.11335, -0.057601, 0.034749, -0.18714, 0.015997, -0.126061, -0.36119, -0.119879,
          -0.020945, 0.022509, 0.15664, 0.343406, 0.095661, -0.023123, -0.084097, 0.123104,
          -0.312875, -0.01369, 0.051009, -0.063068, -0.102674, 0.035643, -0.225715, -0.020199,
          -0.149932, -0.277166, -0.288786, 0.20949, -0.001706, 0.087513, -0.206435, 0.31839,
          -0.140979, -0.08636, 0.215067, 0.183587, -0.1538, 0.015007, -0.025933, 0.036317,
          -0.055828, -0.021804, 0.203063, -0.019344, -0.015855, 0.076698, 0.207258, -0.0638,
          -0.012642, -0.223511, 0.070567, 0.122175, 0.214031, -0.377962, -0.16918, 0.018574,
          -0.248539, -0.027358, 0.262429, -0.039135, -0.199627, 0.253358, -0.04118, 0.163301,
          -0.304983, 0.050632, -0.260706, -0.052753, 0.18757, -0.157278, 0.086057, -0.042771
        ],
        [
          0.228893, 0.655261, 0.350103, 0.631096, 0.749627, 0.182192, 0.352485, -0.018996,
          -0.445356, -0.467633, 0.491207, 0.171134, -0.66723, 0.594388, 0.479324, 0.582486,
          0.315348, 0.410018, 0.29531, -0.531847, 0.322769, -0.412715, -0.568077, 0.556096,
          -0.32875, -0.522122, -0.363475, -0.728654, 0.563312, 0.521071, -0.767294, 0.464426,
          -0.511854, 0.222587, 0.541147, 0.201361, -0.048619, 0.31546, 0.093357, 0.553157,
          -0.427857, 0.590981, 0.017897, 0.608127, 0.204751, 0.339754, 0.390557, 0.284309,
          -0.530503, -0.08053, -0.462168, -0.449167, -0.136793, 0.257015, -0.056103, 0.125542,
          -0.607131, 0.194188, 0.540811, 0.311461, 0.132561, 0.404994, 0.670556, 0.530054, 0.123822,
          0.320313, 0.461255, -0.184903, -0.446956, 0.337033, -0.30079, -0.213653, -0.159203,
          -0.326387, 0.717588, -0.170642, 0.433548, -0.257675, -0.3965, 0.499888, -0.582264,
          -0.153154, 0.70357, 0.44428, -0.329285, 0.331312, 0.054141, 0.709865, -0.308411,
          -0.112087, -0.41742, 0.814674, -0.416783, 0.810275, 0.17016, 0.424483
        ],
        [
          -0.060599, 0.154689, -0.046252, -0.231625, -0.169578, 0.021861, -0.187838, 0.168687,
          0.08116, 0.031706, 0.202836, -0.104408, 0.159273, 0.137262, 0.097014, 0.033612, 0.203196,
          -0.094848, -0.03782, -0.302146, 0.047719, 0.04751, 0.115141, 0.167013, -0.200664,
          -0.034428, -0.02423, 0.077739, 0.189271, -0.063422, 0.066725, 0.025187, -0.010931,
          0.075619, -0.023763, 0.154605, -0.055217, 0.166343, -0.039093, -0.13801, 0.068668,
          0.140703, -0.072154, -0.168393, 0.019526, -0.060246, -0.07222, 0.225012, -0.009713,
          0.08245, -0.017246, 0.059764, 0.008123, 0.061873, 0.083415, -0.053596, -0.008669,
          -0.130182, 0.013824, -0.133627, -0.141862, 0.156989, -0.022902, 0.124196, -0.049042,
          0.041833, 0.022328, 0.027245, -0.082616, -0.034167, -0.164329, -0.221473, 0.155866,
          0.15433, 0.099696, 0.11129, 0.140339, 0.056114, -0.300058, 0.177847, -0.04496, -0.010075,
          -0.192005, 0.036326, 0.077656, 0.224221, 0.018666, -0.085736, 0.115391, -0.177035,
          -0.053585, -0.083403, 0.083494, 0.192106, -0.109077, 0.145234
        ],
        [
          0.053373, 0.182406, 0.206541, 0.170576, 0.078402, 0.288596, 0.086393, -0.084003, 0.093258,
          -0.205276, 0.221986, -0.171044, -0.126235, 0.164227, 0.158729, 0.109052, -0.216009,
          -0.078867, -0.018157, -0.140222, 0.157791, -0.265738, 0.017763, 0.080051, -0.069176,
          0.020272, -0.008909, -0.086854, 0.270546, 0.029178, -0.529997, 0.072154, 0.002356,
          -0.121103, 0.255813, 0.304235, 0.100322, 0.008383, -0.221141, 0.331092, -0.040609,
          0.265466, -0.1671, 0.31934, 0.166691, 0.293137, 0.1467, 0.218215, -0.254884, 0.023337,
          -0.294405, -0.165551, 0.148279, 0.222644, 0.194963, -0.095749, -0.057985, 0.133105,
          0.152681, 0.218376, -0.111421, 0.085102, -0.038508, -0.002983, 0.247032, 0.199099,
          0.343408, -0.094337, -0.061466, 0.146964, -0.076852, -0.367164, -0.063365, -0.035129,
          0.079913, -0.06393, -0.055975, -0.04923, 0.046964, -0.113712, -0.201552, -0.33176,
          0.220988, 0.019904, -0.463204, 0.290295, -0.440382, -0.15848, -0.404613, -0.167766,
          -0.571539, 0.304667, -0.196944, 0.15414, 0.137394, 0.088147
        ],
        [
          0.196363, -0.144347, -0.224324, -0.015483, -0.210412, -0.115838, 0.021456, 0.1576,
          0.019626, 0.090115, 0.18281, -0.091995, -0.155133, -0.10202, 0.010391, 0.022423, 0.18798,
          0.05842, 0.027548, -0.076821, 0.13551, 0.179241, 0.149453, -0.219401, 0.051047, -0.256018,
          -0.058827, -0.164702, 0.037996, 0.090748, -0.130805, -0.082747, -0.030943, -0.056427,
          -0.286044, -0.088616, 0.118147, -0.17032, -0.169679, -0.023738, 0.151066, 0.069348,
          0.10203, -0.09615, 0.056842, -0.189941, 0.063475, 0.161135, 0.017525, 0.124117, 0.082815,
          -0.18413, 0.145343, -0.215873, -0.012522, 0.016318, -0.18642, -0.030501, -0.091802,
          0.038937, 0.032976, -0.298234, -0.265134, 0.035538, -0.03438, 0.090554, 0.060798,
          0.074655, 0.066437, 0.021561, 0.054634, -0.12607, -0.059779, 0.106391, -0.094965,
          0.089842, 0.107348, 0.133306, 0.166597, -0.093742, -0.12829, -0.002878, -0.086188,
          0.011235, 0.07379, 0.052647, -0.078992, -0.17024, -0.08739, -0.108062, 0.154195,
          -0.088935, -0.212369, -0.271549, 0.075842, 0.058103
        ],
        [
          -0.041595, -0.269794, -0.097841, -0.124635, 0.070192, 0.104403, -0.087621, -0.137646,
          0.200854, -0.001761, 0.086798, -0.08776, -0.008348, -0.245487, -0.006632, 0.185462,
          -0.063666, -0.191895, -0.303259, -0.045566, -0.132424, -0.219892, 0.102536, -0.037967,
          -0.066757, 0.155262, -0.072662, 0.166026, -0.024888, 0.158259, 0.033922, 0.138116,
          0.132652, -0.087296, 0.167071, -0.099728, -0.008339, -0.064041, 0.011768, -0.100741,
          0.005042, 0.026945, 0.149151, 0.129802, -0.025024, -0.074328, -0.184655, -0.045092,
          -0.247598, -0.040283, -0.078217, 0.180112, 0.003439, -0.106703, 0.037041, 0.030038,
          -0.015593, 0.040099, -0.002255, -0.072087, 0.208666, 0.147631, 0.060986, 0.035977,
          0.049975, -0.075187, -0.180305, -0.232119, 0.028389, 0.048371, -0.100672, 0.167695,
          0.137258, 0.100818, -0.00375, 0.111546, -0.177118, 0.116193, -0.157442, 0.116712,
          -0.144757, 0.13152, 0.17888, -0.174834, -0.020366, 0.202172, 0.008135, 0.149153,
          -0.001551, -0.018818, -0.124522, -0.144923, 0.103541, -0.128535, -0.10505, -0.074944
        ],
        [
          0.024968, 0.062391, 0.135346, -0.009749, 0.149847, 0.183059, 0.1886, 0.266034, -0.254188,
          -0.287562, 0.162771, -0.218437, 0.116396, 0.207383, -0.068871, 0.21744, -0.025096,
          -0.004212, 0.068834, 0.281337, -0.161997, -0.081354, 0.051866, 0.161399, 0.008488,
          -0.380186, -0.077323, -0.112801, 0.122963, 0.029727, -0.140197, 0.196842, -0.346124,
          0.233953, 0.196671, 0.117391, -0.161768, -0.190378, 0.043159, 0.076745, 0.067942,
          -0.116855, 0.027266, 0.164687, 0.0919, 0.109675, 0.120338, -0.088802, -0.392587,
          -0.056943, -0.147069, -0.140514, 0.038853, -0.14781, -0.076376, -0.133786, 0.056331,
          0.022447, -0.246794, 0.217947, 0.024804, 0.002357, -0.285188, 0.1527, 0.048666, 0.130776,
          -0.149218, -0.258308, 0.077366, -0.182238, -0.276405, -0.10885, 0.13632, 0.306787,
          -0.105854, 0.140845, -0.088898, -0.171723, -0.127608, 0.146782, 0.136035, 0.074953,
          0.00935, 0.191106, -0.21206, 0.185665, 0.011728, -0.123789, -0.000728, 0.216308,
          -0.350531, 0.114497, -0.267144, 0.131764, 0.299807, 0.068485
        ],
        [
          0.001261, -0.000809, -0.106259, 0.201557, -0.089907, 0.027565, -0.151197, -0.19826,
          0.010018, -0.128627, 0.087515, -0.144064, -0.321211, 0.081486, -0.143172, -0.09444,
          0.099302, -0.329274, 0.245411, -0.182994, -0.168405, 0.016429, -0.100347, -0.26618,
          -0.154071, -0.118339, 0.108667, -0.123442, -0.016545, 0.224769, -0.07058, 0.106766,
          -0.22723, 0.194659, -0.259028, 0.11418, -0.105196, -0.008265, 0.019213, 0.141083,
          -0.219191, -0.12189, 0.012012, 0.180481, 0.218959, 0.050981, 0.305819, 0.062173, -0.05015,
          -0.115429, 0.013299, 0.128542, -0.218651, -0.080861, 0.35061, 0.109387, -0.033635,
          -0.068794, -0.055167, -0.194509, -0.207099, -0.096442, 0.183873, -0.063615, 0.143797,
          0.146635, -0.087297, -0.073456, -0.058124, 0.076845, -0.069635, 0.173602, 0.139134,
          -0.104366, -0.228164, 0.071788, 0.092638, -0.144562, 0.01468, 0.00073, 0.085177,
          -0.105491, 0.184989, -0.259883, -0.204736, -0.10923, -0.120178, -0.006073, -0.185452,
          0.169468, -0.234513, -0.107576, -0.126074, -0.239872, -0.246654, -0.183432
        ],
        [
          -0.250555, -0.094229, -0.033513, 0.124783, -0.167129, 0.07142, 0.175481, 0.021944,
          0.15638, -0.197339, 0.154377, 0.134275, 0.099206, 0.223177, -0.246743, -0.269694,
          0.085747, -0.058039, -0.030888, -0.054439, -0.341089, -0.111907, -0.043765, 0.056517,
          -0.088756, -0.090837, -0.467691, -0.249896, 0.05089, 0.258744, 0.070191, -0.36435,
          -0.020211, 0.102741, 0.168274, -0.110484, -0.170231, 0.006542, -0.190663, 0.031926,
          -0.007817, -0.010553, 0.117495, 0.04142, -0.245369, 0.286465, 0.307943, 0.088834,
          0.183042, 0.004783, 0.176711, -0.15934, 0.036524, -0.155205, -0.227449, -0.160831,
          -0.097185, 0.085856, 0.050325, -0.291194, 0.121292, 0.069536, -0.087283, 0.087027,
          -0.302754, -0.129613, 0.335946, -0.395395, -0.081194, -0.020693, 0.156827, -0.371165,
          -0.28927, -0.237465, 0.145448, 0.014139, -0.089693, 0.138284, -0.028119, -0.083645,
          -0.005994, 0.100377, -0.161923, -0.012194, 0.006663, 0.077039, -0.031804, 0.04668,
          -0.387775, -0.191592, -0.078741, -0.079042, -0.477634, 0.197263, 0.16923, 0.113414
        ],
        [
          0.0, -0.0, 2e-6, -0.0, 1e-6, 7e-6, -0.0, 4e-6, 0.0, 0.0, 0.0, -0.0, -0.0, -0.0, 4e-6, 0.0,
          0.0, 0.0, 1e-6, 2e-6, -0.0, 4e-6, 0.0, -0.0, 0.0, 0.0, -0.0, -0.0, 0.0, -0.0, -0.0, -0.0,
          -0.0, -5e-6, -6e-6, 0.0, 0.0, 0.0, 0.0, 0.0, 0.0, 0.0, 0.0, -0.0, -0.0, -3e-6, -0.0, -0.0,
          -0.0, 0.0, 0.0, 0.0, 7e-6, -1e-6, 0.0, -0.0, 0.0, 0.0, 0.0, 1e-6, -0.0, 0.0, 0.0, -0.0,
          -0.0, 0.0, -0.0, -0.0, 0.0, 0.0, -0.0, 0.0, 0.0, -2e-6, -2e-6, 0.0, 0.0, -0.0, 1e-6, 0.0,
          0.0, -0.0, 0.0, 0.0, -0.0, -0.0, 0.0, 1e-6, 0.0, 0.0, -0.0, -0.0, 0.0, -0.0, -0.0, 0.0
        ],
        [
          -0.043448, 0.157427, -0.173322, -0.217719, -0.224682, 0.16887, -0.006074, -0.0625,
          0.119774, 0.16042, -0.106533, 0.092917, 0.116939, 0.048736, -0.083023, 0.133469,
          -0.003372, -0.094766, -0.148112, -0.180276, -0.141715, 0.105452, -0.269492, -0.053928,
          0.007989, -0.251939, 0.205851, -0.097075, -0.028012, -0.099024, -0.0833, -0.22622,
          0.112236, 0.177326, -0.242485, 0.044757, 0.108319, 0.121654, -0.034536, -0.041245,
          -0.169217, 0.085336, 0.143773, -0.164715, -0.000337, 0.148769, 0.106583, 0.204406,
          0.120819, -0.019915, 0.050285, 0.067224, -0.143415, 0.030743, 0.072512, 0.026948,
          0.134481, 0.030187, 0.171335, -0.207325, -0.088241, 0.02039, -0.193643, 0.064717,
          0.107327, -0.112094, -0.132369, -0.047429, -0.025749, 0.187862, 0.134858, 0.078266,
          0.100151, -0.01186, 0.17216, 0.067947, 0.073821, 0.137262, -0.09767, 0.109423, -0.174622,
          -0.106794, -0.0995, 0.174194, 0.169549, 0.07061, 0.09909, 0.013755, 0.194398, 0.014116,
          -0.086038, -0.159114, 0.119907, 0.082752, -0.154441, -0.25782
        ],
        [
          0.142639, -0.288777, 0.039244, 0.162727, -0.081031, -0.156935, 0.03721, 0.099367, 0.02356,
          0.259337, -0.211799, 0.05535, 0.009369, 0.10471, -0.072298, 0.194836, 0.002139, -0.050336,
          -0.260734, 0.125759, -0.130665, -0.10735, -0.157966, 0.137279, 0.062266, 0.03233,
          -0.019222, 0.042431, 0.076679, 0.117714, 0.161021, -0.22215, 0.089589, -0.175966,
          -0.108174, -0.138064, -0.037041, -0.058131, 0.025293, -0.029092, -0.015962, 0.05372,
          -0.171141, 0.086034, -0.031914, -0.022615, -0.007333, 0.008521, -0.245196, -0.027337,
          0.175689, 0.000642, 0.083358, 0.026508, -0.140091, 0.131051, 0.094623, -0.145998,
          -0.09647, -0.118646, -0.02356, 0.078356, -0.279712, -0.028196, -0.09683, 0.234769,
          -0.287561, -0.08819, 0.094101, 0.167378, -0.023806, -0.096001, -0.023732, -0.095533,
          -0.184624, -0.00969, -0.121377, -0.164435, 0.048928, 0.113138, -0.024287, -0.209949,
          -0.202522, 0.142347, -0.084144, -0.127007, 0.014551, 0.029772, -0.000842, -0.057949,
          -0.227256, 0.156812, -0.171811, -0.000896, -0.025174, -0.021903
        ],
        [
          -0.050239, -0.189981, 0.017261, 0.12168, 0.150369, -0.207041, -0.166346, 0.144792,
          0.119319, 0.151886, -0.155152, 0.063197, 0.07542, 0.045059, 0.01645, -0.123914, 0.020957,
          -0.106204, -0.138508, 0.211758, -0.039824, 0.117665, -0.196999, 0.043612, 0.200356,
          -0.233352, -0.112622, -0.016179, -0.110104, 0.072878, 0.154893, -0.061376, -0.064492,
          -0.02979, 0.077671, -0.246708, 0.037491, 0.020484, 0.029243, -0.065032, 0.111849,
          -0.06849, -0.120495, 0.125551, 0.122396, -0.184209, -0.187637, -0.035882, -0.161879,
          -0.075997, -0.156597, -0.051535, 0.122701, 0.033882, 0.047619, -0.004826, 0.203833,
          0.16711, 0.120986, 0.103949, 0.172329, -0.099311, -0.229823, 0.014317, 0.082271, 0.110271,
          -0.011596, -0.217922, -0.025052, 0.178131, 0.017454, -0.023323, -0.072151, -0.056535,
          0.128564, 0.093929, 0.089815, -0.099711, 0.027139, -0.16091, 0.077365, -0.075176,
          -0.057132, 0.032662, 0.204391, -0.137867, 0.156721, -0.118674, -0.080501, -0.150182,
          -0.116754, -0.026375, -0.248292, -0.016272, 0.130804, -0.226287
        ],
        [
          0.106689, -0.140427, 0.043267, -0.146278, -0.193705, -0.190284, -0.205588, -0.15344,
          0.104711, 0.169836, 0.171722, 0.080853, -0.221661, -0.144798, -0.050648, -0.034768,
          -0.073694, 0.036653, -0.178125, -0.05989, 0.135389, 0.125245, -0.154408, 0.068427,
          0.203282, -0.146885, -0.025306, 0.044559, 0.153598, 0.113776, -0.134444, -0.06684,
          0.068673, -0.004119, -0.258474, 0.110175, 0.089393, 0.107602, 0.173538, 0.046854,
          0.022818, -0.003308, -0.139629, 0.049476, -0.076447, 0.08871, -0.197986, -0.077359,
          -0.207693, -0.176427, 0.09147, 0.127677, -0.025637, -0.182077, -0.19109, -0.032377,
          -0.126866, 0.199588, -0.113896, -0.091939, -0.154315, -0.229003, -0.034886, 0.051648,
          -0.07384, -0.133599, -0.117858, -0.157792, -0.08623, 0.177844, 0.084838, 0.00268,
          -0.017522, -0.056386, 0.016192, 0.081949, 0.03811, -0.214093, 0.003634, -0.060098,
          0.182252, 0.023919, -0.005775, -0.190997, 0.054113, -0.121467, -0.094454, -0.181149,
          0.109316, -0.084566, -0.17694, 0.136459, -0.193671, -0.036784, -0.142569, -0.265756
        ],
        [
          0.129133, -0.274759, -0.073813, -0.023756, 0.029703, 0.050959, -0.133015, -0.222275,
          0.076432, 0.008572, 0.142843, 0.154809, 0.133836, -0.066753, -0.013809, 0.155327,
          -0.019548, -0.136591, 0.16182, 0.163751, 0.032785, -0.20405, -0.122534, 0.112144,
          0.147862, -0.196144, -0.093796, 0.129681, 0.023498, -0.012986, 0.218141, -0.209006,
          0.084759, -0.173748, -0.185819, 0.099031, -0.012026, 0.182543, 0.015767, -0.035455,
          -0.214211, -0.010788, -0.055113, -0.213704, -0.001921, 0.01111, 0.045368, 0.071558,
          0.081503, -0.173645, -0.100348, 0.093334, 0.047802, -0.242708, 0.112999, 0.137242,
          0.022525, -0.164714, 0.082229, 0.047122, 0.076443, 0.113212, 0.096281, -0.029241,
          -0.115513, 0.076654, 0.033475, 0.116334, -0.105685, -0.032668, 0.152259, 0.101261,
          0.209146, 0.127769, 0.046481, 0.108345, 0.158323, 0.010406, 0.025888, -0.202864,
          -0.042838, 0.095638, -0.126751, -0.156279, -0.079947, -0.071869, -0.142712, -0.068669,
          0.15009, 0.030942, -0.165256, -0.196821, 0.09241, -0.131203, 0.095267, 0.051793
        ],
        [
          0.113997, -0.192989, 0.080509, -0.143752, 0.176923, 0.03018, -0.096507, -0.118537,
          -0.110961, 0.131078, -0.153168, 0.047837, -0.158947, 0.072291, 0.163118, 0.136409,
          0.107633, -0.133812, -0.282002, 0.046974, -0.052712, -0.063014, -0.261809, -0.11695,
          -0.165953, 0.129156, -0.02362, 0.012634, -0.133633, 0.077907, -0.047869, 0.160712,
          0.150485, -0.070911, 0.147922, 0.217468, 0.123778, 0.147601, -0.103363, 0.045627,
          -0.272673, -0.069276, 0.194169, -0.075607, 0.098217, 0.121772, 0.106214, 0.215068,
          -0.175842, -0.159229, -0.023824, -0.180164, -0.168613, -0.064379, 0.122848, 0.02551,
          -0.067486, 0.05555, -0.116326, -0.223161, 0.115143, 0.04434, 0.106772, -0.21921, 0.179253,
          0.063174, -0.01526, 0.030442, 0.146247, 0.046029, 0.028312, 0.197798, 0.103164, -0.017992,
          0.086875, -0.043556, -0.11701, -0.015656, 0.167781, 0.155458, -0.119107, -0.036597,
          -0.149918, 0.209649, 0.186382, 0.07822, 0.102589, 0.090692, 0.030917, -0.1424, -0.024038,
          0.08275, 0.054606, -0.134213, 0.174232, -0.204513
        ],
        [
          0.033076, 0.102368, 0.048911, 0.026621, -0.147477, -0.191967, 0.043687, 0.037472,
          -0.116703, 0.114283, 0.033695, 0.10911, 0.179816, -0.192331, -0.13913, 0.102927, 0.042066,
          0.081796, 0.123601, 0.05849, 0.16582, 0.017547, -0.035961, -0.061051, -0.121812, 0.018974,
          0.046171, 0.202465, -0.006803, -0.000406, -0.059698, -0.215093, -0.15695, -0.035717,
          -0.302122, 0.001246, 0.201603, 0.129636, 0.060427, -0.079424, 0.115092, 0.125731,
          -0.125175, 0.089596, -0.034462, 0.113723, 0.16548, -0.111787, 0.15683, 0.068628, 0.206431,
          -0.050214, 0.151431, -0.220823, -0.091391, -0.013668, 0.198792, 0.162297, 0.137915,
          0.143535, -0.162368, -0.163888, -0.288545, -0.15216, -0.080199, 0.046813, -0.232779,
          -0.210813, -0.106802, -0.051639, 0.225203, 0.098934, 0.208273, -0.069651, -0.1623,
          0.13148, -0.101385, -0.163212, -0.119218, -0.213748, -0.15389, 0.032281, 0.020728,
          -0.211963, -0.121196, 0.122362, -0.169816, -0.101496, 0.169269, -0.104743, -0.207301,
          -0.034131, -0.154382, 0.015425, 0.081601, -0.218066
        ],
        [
          0.03567, 0.034213, -0.204899, 0.00716, -0.148372, -0.023733, -0.201416, -0.045595,
          -0.066159, 0.132284, -0.219761, -0.016975, 0.001865, 0.078865, 0.020957, 0.049985,
          0.112588, 0.159533, -0.195499, 0.013145, 0.112962, 0.200213, 0.163491, -0.073328,
          -0.105921, -0.032572, 0.096756, 0.014769, -0.009459, 0.084639, -0.149667, 0.115653,
          0.022028, -0.073603, 0.001439, 0.081519, -0.111199, -0.122649, 0.144351, -0.093901,
          0.045664, -0.001311, 0.031664, 0.081674, -0.056948, -0.002273, -0.147977, 0.06339,
          -0.217647, 0.047837, -0.113625, -0.124074, -0.093353, -0.174252, 0.139673, 0.070214,
          0.19485, 0.231908, 0.024517, -0.175801, -0.047132, 0.085942, -0.174419, -0.201991,
          0.024883, 0.115146, 0.082831, -0.181646, 0.076873, -0.022842, -0.106359, 0.164668,
          -0.083147, -0.100081, -0.272765, 0.165704, 0.118525, 0.039051, 0.075402, -0.205472,
          -0.053972, -0.106728, -0.198194, -0.043827, 0.216924, -0.152535, -0.112806, -0.155625,
          -0.165228, 0.148917, -0.059102, -0.041482, 0.098632, -0.222582, -0.115415, -0.100927
        ],
        [
          0.003072, 0.126113, 0.201357, -0.021363, 0.125848, -0.367462, -0.034826, -0.110418,
          0.034925, -0.13426, 0.016293, -0.029341, -0.007431, -0.025712, -0.307264, -0.570682,
          -0.265563, -0.219685, 0.183064, -0.116656, -0.610911, -0.178483, -0.205047, -0.38817,
          0.139853, -0.359705, 0.153939, -0.315663, -0.050137, -0.212563, 0.067156, -0.030645,
          0.114959, -0.278249, 0.195012, -0.136277, 0.118432, -0.043144, 0.078498, -0.31822,
          -0.132622, -0.657924, 0.179069, -0.139617, 0.070661, -0.1098, 0.003777, -0.140131,
          0.200091, 0.20382, 0.127568, -0.079267, 0.044546, 0.244728, -0.301623, 0.061348, 0.102932,
          0.247834, -0.011367, -0.377068, -0.167828, 0.212936, -0.705741, 0.023169, 0.137863,
          0.07952, 0.319673, -0.077194, -0.066792, -0.19829, -0.200399, -0.18563, -0.062257,
          0.068235, 0.266869, 0.106282, -0.063256, 0.155477, -0.391633, -0.294853, -0.336921,
          -0.210724, -0.137499, 0.36581, 0.109949, -0.034958, 0.028715, 0.034593, 0.022091, 0.02224,
          0.096243, 0.017256, 0.168204, 0.240724, 0.07005, -0.548949
        ],
        [
          -0.274137, -0.109887, 0.098217, -0.052839, -0.031345, 0.094683, 0.118897, 0.16574,
          -0.078761, 0.148888, -0.125519, -0.059975, -0.234494, -0.083341, -0.064037, 0.128718,
          -0.148048, 0.04072, 0.006078, -0.063176, 0.073136, -0.185473, 0.0211, -0.05753, -0.071463,
          -0.227222, 0.015004, 0.123995, -0.0723, 0.10084, 0.042574, 0.162493, 0.169014, 0.002844,
          0.066142, 0.081195, -0.035567, -0.071983, -0.207046, 0.146626, 0.16023, -0.123088,
          -0.016008, 0.001833, -0.15033, 0.116341, -0.101853, -0.159312, 0.00857, 0.067842,
          -0.215017, 0.094534, 0.023709, -0.193561, -0.113053, 0.072045, -0.0695, 0.132944,
          0.113069, 0.234711, -0.046491, 0.179039, -0.031214, -0.074912, -0.083322, -0.229295,
          0.022002, -0.019375, -0.082072, 0.058164, -0.09465, 0.076241, 0.035325, 0.06198, 0.100925,
          -0.039275, -0.069654, -0.003422, 0.135048, -0.063089, -0.102467, -0.133719, -0.040034,
          -0.070608, 0.123538, -0.099264, -0.127264, 0.079195, 0.149001, 0.033092, -0.016711,
          -0.089351, 0.225163, -0.156017, 0.214648, 0.025577
        ],
        [
          0.087402, -0.195935, -0.041859, -0.020517, -0.145488, 0.124544, 0.232076, 0.025215,
          0.090362, -0.246324, -0.000279, -0.220749, 0.152451, 0.196973, 0.1012, -0.166094,
          -0.064799, 0.07499, -0.032545, 0.112431, 0.051399, 0.149759, -0.03344, -0.068401,
          -0.22407, 0.013057, -0.031265, 0.110263, 0.073157, -0.180628, -0.020724, -0.116583,
          -0.178013, 0.156755, -0.18812, 0.047463, -0.139469, 0.155461, 0.031971, -0.123149,
          -0.037315, 0.056616, 0.232719, -0.129718, 0.152309, 0.25422, 0.154974, 0.038956, 0.082435,
          -0.010276, 0.127879, -0.017556, 0.061248, 0.003915, 0.074174, 0.086867, -0.156238,
          0.17943, 0.032339, 0.100712, -0.078715, -0.03775, 0.171415, -0.087716, 0.040603, 0.041693,
          0.061472, -0.075274, 0.000929, -0.0828, -0.192151, -0.13717, -0.292319, 0.262681,
          0.217567, -0.01238, 0.10174, -0.114753, 0.058076, 0.117193, 0.165571, -0.074859, 0.141344,
          -0.031424, 0.213154, -0.205853, 0.120996, 0.110371, 0.058286, -0.233539, 0.17776,
          -0.119529, -0.000177, -0.110841, -0.116993, 0.067769
        ],
        [
          -0.176736, -0.218615, -0.260944, -0.045503, 0.220863, 0.317399, -0.211788, -0.026649,
          -0.144575, -0.129768, -0.01863, 0.075655, -0.143051, -0.205009, -0.136995, 0.234309,
          0.383086, -0.134294, -0.104674, 0.116179, 0.294449, 0.020013, -0.140972, -0.044224,
          0.098835, 0.057095, -0.291372, 0.080494, -0.305013, 0.084351, 0.049418, -0.115193,
          0.060997, -0.124678, 0.10765, 0.018996, -0.032804, -0.06792, -0.047663, 0.12222, 0.017399,
          -0.017557, -0.211371, 0.017338, 0.213901, -0.016144, -0.139267, -0.128948, 0.180765,
          0.112085, -0.116861, -0.080571, -0.072521, 0.104039, -0.401765, -0.145709, 0.092603,
          -0.12056, 0.088384, 0.001409, -0.002234, -0.086575, -0.030937, -0.09231, 0.070527,
          0.140341, 0.029993, -0.204361, -0.195825, -0.272282, -0.057758, -0.0853, -0.06835,
          -0.190276, -0.175949, -0.145805, 0.15572, 0.022928, 0.112703, -0.166034, 0.259409,
          0.308589, -0.111327, -0.170632, -0.102721, -0.102415, 0.142176, 0.252333, 0.105253,
          0.127357, 0.089935, -0.184121, 0.265896, -0.102096, 0.096822, 0.013939
        ],
        [
          -0.24279, 0.249978, -0.076713, 0.212739, 0.142185, -0.031093, -0.014955, 0.066642,
          0.184081, -0.153038, -0.097463, 0.000144, -0.051874, -0.019843, -0.077551, 0.048518,
          -0.040182, -0.105708, 0.212488, 0.246449, 0.151898, 0.049709, 0.140273, -0.138383,
          0.256976, -0.18335, 0.18769, 0.183584, -0.07856, -0.127487, 0.116419, -0.071573, 0.211012,
          -0.23318, -0.137138, 0.271073, 0.007923, 0.173075, -0.109414, 0.023723, 0.016884,
          0.065317, 0.097243, -0.055224, 0.089083, -0.069733, 0.160387, -0.185492, 0.066337,
          -0.211876, 0.126492, 0.286984, -0.053215, -0.174363, -0.063667, 0.113956, 0.17193,
          -0.319875, 0.127013, -0.013485, 0.084539, 0.142321, 0.043498, -0.074691, -0.113867,
          -0.260168, -0.021755, -0.223506, 0.0696, -0.020465, 0.084754, -0.169337, -0.011359,
          0.097214, 0.202053, -0.292869, 0.134704, -0.068947, 0.093314, 0.045412, -0.142813,
          -0.137448, 0.014264, -0.057045, 0.141875, -0.056045, -0.093913, 0.034378, -0.122448,
          0.011147, -0.015855, 0.105557, 0.228658, 0.017427, -0.065435, 0.070277
        ],
        [
          -0.121051, -0.389473, -0.121591, -0.073173, -0.013711, 0.054691, 0.132475, -0.186728,
          0.1055, -0.054481, 0.109422, 0.116322, -0.056201, -0.179396, -0.12981, 0.010747, 0.31271,
          -0.081177, -0.125253, -0.107589, 0.162311, 0.179477, -0.196179, -0.222546, 0.111144,
          -0.089952, -0.128435, -0.164608, 0.011245, 0.120336, 0.178081, -0.002881, -0.016998,
          -0.184244, -0.030479, -0.160222, 0.207379, -0.095171, -0.16185, -0.143221, 0.042793,
          -0.151209, -0.185605, 0.21377, -0.039934, 0.069236, 0.156045, 0.240032, 0.094715, 0.27461,
          -0.0645, -0.076549, -0.04876, 0.120379, 0.067666, -0.092727, -0.162077, 0.053596,
          -0.190313, 0.148487, 0.025517, 0.100694, -0.023254, 0.189847, 0.100405, 0.133594,
          -0.038942, -0.048327, -0.241209, -0.221575, 0.005542, 0.060727, 0.248692, -0.095998,
          -0.233894, 0.271688, 0.00264, 0.06673, 0.145824, -0.019976, -0.161507, -0.245763,
          -0.163351, 0.044801, 0.092665, 0.000983, 0.096274, 0.068882, -0.326795, -0.002756,
          0.158115, -0.193511, -0.038242, 0.0872, 0.221718, 0.104169
        ],
        [
          0.069014, 0.235637, -0.040464, -0.080785, -0.081798, -0.141191, 0.091485, 0.042694,
          -0.020205, 0.134635, -0.358087, -0.128192, -0.297955, 0.097471, 0.113557, -0.068748,
          0.115476, -0.124158, 0.073508, -0.120217, 0.023854, 0.256994, -0.06823, -0.143606,
          0.139517, 0.202881, -0.013761, -0.253903, -0.020585, 0.092992, -0.200236, 0.122188,
          0.1589, 0.079854, -0.067694, -0.0641, -0.151521, 0.125493, -0.183455, -0.014056, 0.100941,
          0.004421, -0.051394, -0.219108, 0.142171, 0.181445, -0.004778, 0.183568, -0.183447,
          0.098541, 0.054772, 0.093088, -0.047553, -0.140968, -0.142936, -0.051484, -0.255621,
          0.127201, -0.106306, -0.132366, 0.094698, 0.067822, 0.098715, -0.003223, -0.235604,
          0.091887, 0.017743, -0.273025, -0.080703, 0.325898, 0.028765, -0.124217, -0.161236,
          -0.112082, -0.157869, 0.10683, -0.128355, 0.194668, 0.134056, 0.07927, -0.012692,
          -0.189071, 0.031301, 0.028044, 0.234804, 0.143399, -0.168899, 0.24864, -0.303115,
          0.178239, 0.172153, -0.131659, 0.024108, -0.29263, 0.031325, 0.000346
        ],
        [
          0.085289, 0.303595, 0.001598, -0.073728, 0.092086, 0.200003, -0.099901, 0.16661,
          -0.184396, 0.180127, -0.189223, -0.189008, -0.133409, 0.011495, -0.087248, -0.134602,
          0.143827, 0.143762, -0.057982, -0.090289, -0.115209, -0.300626, 0.167932, 0.177654,
          0.070014, -0.025548, 0.056761, 0.09705, 0.181676, 0.085612, 0.080103, 0.014744, -0.203259,
          0.206437, -0.089239, -0.006442, -0.083023, -0.009559, 0.075845, -0.172679, -0.11596,
          0.029098, 0.136087, -0.062708, -0.121943, 0.055692, -0.213581, -0.024684, -0.133654,
          -0.134697, -0.094176, 0.028376, -0.254223, -0.130964, -0.009667, -0.02982, -0.085763,
          0.168216, -0.116695, 0.092173, -0.154264, -0.273324, 0.025898, 0.056818, 0.147017,
          0.061834, 0.190145, -0.23741, -0.223328, -0.135863, -0.017411, -0.007899, 0.122,
          -0.131366, 0.118404, 0.14692, -0.126713, -0.098005, -0.133017, -0.161704, -0.245408,
          0.151832, -0.194461, -0.040421, 0.169345, 0.07571, 0.194525, -0.073766, 0.15128,
          -0.037055, -0.206995, -0.228511, 0.019266, 0.064048, -0.056794, 0.073237
        ],
        [
          0.036007, -0.223677, -0.046509, -0.164493, -0.316555, 0.192951, 0.009246, 0.092376,
          -0.063266, -0.045148, -0.170266, -0.166616, -0.257837, 0.204155, 0.044012, 0.079869,
          -0.076307, 0.176387, -0.282034, -0.003352, -0.231252, 0.022772, 0.211263, -0.050219,
          0.195637, 0.162168, -0.087589, -0.121981, 0.022111, 0.163535, -0.017638, 0.141905,
          -0.087433, 0.093284, -0.036425, -0.015213, 0.13144, 0.053058, 0.201167, -0.221812,
          0.062914, -0.032534, -0.109604, -0.035277, -0.051352, -0.003048, 0.094725, -0.21622,
          0.16141, -0.043547, -0.238614, -0.161931, 0.19663, 0.109466, 0.150121, 0.239859,
          -0.160106, -0.03136, 0.078115, -0.098381, 0.025222, -0.167949, 0.008547, 0.034332,
          -0.233549, -0.052137, -0.040204, -0.008209, -0.15062, 0.089917, -0.244795, -0.084347,
          0.109236, 0.128336, -0.209278, 0.064052, 0.012204, 0.069529, 0.165649, 0.139187, 0.005689,
          -0.152221, -0.144133, -0.029932, 0.126331, 0.048435, -0.057325, -0.146725, 0.067038,
          -0.133683, 0.1246, -0.306003, 0.085795, 0.097189, -0.166771, -0.049545
        ],
        [
          -0.123807, 0.055533, -0.018166, 0.010881, 0.002275, 0.19397, -0.062343, -0.221608,
          0.167674, 0.068843, 0.219775, 0.018293, 0.086925, -0.042965, 0.109285, 0.20075, 0.016205,
          -0.062411, -0.045859, -0.140906, -0.091608, -0.044031, 0.044805, 0.019953, -0.003381,
          0.040509, -0.163876, -0.156213, -0.070782, 0.01289, -0.097121, -0.121358, -0.058562,
          0.111538, -0.332764, 0.051118, 0.114265, 0.102446, 0.20159, -0.157477, -0.044567, 0.13514,
          -0.027813, 0.040705, 0.094182, 0.133122, 0.106917, 0.23926, 0.087829, -0.105523, 0.169655,
          -0.217547, -0.094986, 0.120967, -0.071233, -0.140678, -0.117779, 0.084063, 0.081862,
          0.037611, -0.065408, 0.156643, 0.003249, -0.078995, -0.000302, -0.074333, 0.1998,
          -0.01495, 0.136009, 0.024105, 0.102394, 0.095018, 0.057444, 0.186677, -0.053859,
          -0.202633, 0.131959, 0.136807, 0.010694, -0.133647, -0.070307, -0.127924, -0.005791,
          0.006807, 0.084264, -0.059955, 0.019053, -0.132093, -0.195705, 0.144559, 0.221325,
          -0.048652, 0.102408, 0.191385, 0.106386, -0.201785
        ],
        [
          1e-6, 0.0, 0.0, -1e-6, 0.0, -0.0, -0.0, 0.0, -0.0, 0.0, -0.0, 0.0, 0.0, -0.0, -0.0, 0.0,
          1e-6, -0.0, -0.0, 0.0, 0.0, 0.0, -0.0, 0.0, 0.0, 0.0, -0.0, 1e-6, -0.0, -0.0, 0.0, -0.0,
          1e-6, 0.0, 0.0, -0.0, -0.0, -0.0, -0.0, -0.0, 0.0, 0.0, -1e-6, 0.0, -0.0, 0.0, -0.0, 0.0,
          0.0, 0.0, 0.0, 0.0, 0.0, -0.0, -0.0, -0.0, -0.0, -0.0, -0.0, 0.0, 0.0, 0.0, 0.0, 0.0, 0.0,
          -0.0, 0.0, 0.0, -1e-6, 2e-6, -0.0, 0.0, -0.0, -0.0, 1e-6, 0.0, -0.0, 0.0, -0.0, -6e-6,
          -0.0, 3e-6, -0.0, 0.0, 0.0, -0.0, -0.0, 0.0, 0.0, -0.0, -0.0, 4e-6, -0.0, -0.0, -0.0, 0.0
        ],
        [
          -0.074215, 0.052412, 0.294075, -0.140093, 0.149737, 0.017771, -0.085117, 0.028449,
          -0.133951, 0.058485, 0.017281, 0.052091, 0.088953, 0.203682, -0.020496, 0.106794,
          -0.057179, -0.179753, -0.153764, -0.025566, -0.06606, -0.17712, 0.097898, 0.133546,
          -0.00282, -0.039739, -0.072415, -0.188302, 0.079023, 0.166717, 0.012524, -0.160116,
          0.028168, -0.047271, -0.01758, 0.023558, -0.13022, -0.142455, -0.188254, 0.1538,
          -0.123744, -0.18901, -0.161752, -0.240995, -0.075936, 0.127014, -0.011137, -0.019104,
          0.048234, -0.042937, 0.226658, 0.036207, -0.216304, 0.264627, 0.082011, 0.290268,
          -0.005863, 0.16034, 0.183674, -0.135507, 0.055348, 0.280414, 0.016261, -0.160488, 0.18836,
          -0.068433, -0.219278, 0.020304, -0.187621, 0.084265, -0.007588, 0.277997, -0.091288,
          0.064937, -0.083136, -0.203378, -0.268915, -0.261125, 0.087575, -0.047342, 0.01665,
          -0.053235, 0.128802, 0.151922, -0.099302, -0.134638, -0.093891, 0.264954, -0.180142,
          -0.137963, -0.061839, -0.089393, -0.018006, 0.173906, -0.172968, -0.059445
        ]
      ],
      "b": [
        -0.171885, -0.068188, 0.23088, -0.074723, 0.188747, 0.073665, -0.134982, 0.215017, -0.11371,
        0.057073, -0.088523, 0.089451, -0.129783, 0.066608, 0.056621, 0.110952, 0.187077, 0.140252,
        0.28002, -0.120147, -0.085927, -0.047056, 0.028818, -0.021048, 0.003596, -0.059957,
        -0.001384, -0.144787, -0.125795, 0.024611, 0.097625, 0.136044, 0.028648, -0.133791,
        0.156152, -0.108935, -0.086248, -0.033063, -0.181094, -0.127698, 0.288864, 0.092457,
        -0.055216, -0.142681, -0.180241, -0.046025, 0.271869, -0.219732, 0.182003, -0.180205,
        0.183452, -0.011313, 0.092828, -0.013215, 0.078648, -0.284177, -0.149575, 0.170646,
        0.180825, 0.191875, 0.047833, 0.244408, -0.053209, -0.029869, -0.103203, 0.012119, 0.084142,
        -0.089795, 0.014011, 0.038326, -0.05371, -0.109499, -0.139183, -0.099985, -0.005008,
        0.057637, 0.073519, 0.163655, -0.040909, 0.200255, -0.062809, 0.035077, 0.157094, -0.090607,
        -0.152067, 0.124632, -0.033496, 0.113823, -0.130769, 0.044999, -0.03228, -0.151802,
        0.120674, -0.019613, 0.06519, -0.096254
      ]
    },
    {
      "w": [
        [
          -0.100587, -0.066125, -0.17036, 0.181272, -0.215473, 0.067588, -0.222945, 0.042745,
          0.21922, -0.189941, 0.230525, -0.121838, 0.090326, -0.0427, 0.132533, 0.101023, -0.002349,
          -0.136493, -0.170919, 0.15811, -0.334154, -0.009924, 0.096565, -0.082128, 0.248891,
          0.114343, 0.058963, 0.182821, -0.239837, -0.063658, 0.007387, -0.134275, 0.17399,
          0.136154, 0.024411, -0.232092, 0.207886, 0.042377, 0.085771, -0.065328, 0.187968,
          -0.005079, 0.135528, 0.089354, 0.064701, -0.109357, 0.18677, -0.053964
        ],
        [
          0.122183, 0.177803, 0.074075, 0.08379, 0.239233, 0.225934, 0.062927, -0.271353, 0.016434,
          0.067731, 0.057714, 0.289269, -0.16771, 0.140418, -0.258714, 0.21015, 0.032313, -0.230631,
          -0.171479, 0.104637, 0.028027, -0.015388, 0.270157, 0.074039, 0.29035, -0.085903,
          0.047919, 0.22367, 0.008527, 0.06467, -0.10797, 0.022044, -0.066243, 0.036161, -0.350136,
          -0.243195, 0.2096, -0.028546, -0.006317, 0.174774, 0.069139, -0.054433, 0.174774,
          0.021573, 0.150428, 0.128949, 0.253982, 0.023356
        ],
        [
          -0.039968, 0.000186, -0.136343, 0.139344, -0.028391, -0.010141, 0.206228, -0.02596,
          0.033386, 0.013395, 0.17803, 0.039976, 0.13455, -0.229996, 0.129564, 0.198413, -0.184975,
          -0.116809, -0.199327, 0.008996, 0.097895, 0.09928, -0.074738, -0.204069, -0.069101,
          -0.109342, 0.087519, 0.181536, 0.052456, 0.024558, 0.121076, 0.124264, 0.212815, 0.088263,
          -0.275697, -0.064955, 0.10401, -0.19729, -0.034726, 0.054931, 0.075594, 0.166845,
          -0.103583, -0.095836, -0.019463, 0.134257, 0.110788, 0.139393
        ],
        [
          0.081601, -0.052726, -0.043907, -0.015664, 0.180176, -0.073696, 0.040097, -0.022915,
          -0.066967, -0.004312, -0.067287, 0.157646, -0.18519, -0.124331, -0.017551, 0.136518,
          0.090982, -0.242661, -0.032821, -0.098635, 0.07753, 0.215299, 0.125372, -0.203526,
          0.204558, -0.313204, 0.061191, 0.01655, 0.279727, -0.120572, -0.098237, 0.118142,
          0.081045, -0.165746, 0.322267, -0.085493, -0.001927, -0.139478, -0.017109, -0.038792,
          -0.315451, -0.313756, 0.069419, -0.188273, -0.170218, 0.062152, 0.095378, -0.215285
        ],
        [
          0.033458, -0.274869, -0.162778, -0.267936, 0.244778, -0.098045, -0.162307, 0.150487,
          0.196924, -0.074172, 0.004667, -0.184949, 0.041432, 0.02204, 0.072728, -0.02327, -0.07922,
          -0.117253, -0.106232, -0.270143, 0.075455, 0.220962, 0.206859, 0.102164, 0.129154,
          0.085712, -0.043617, 0.079209, 0.023917, 0.020067, 0.16281, -0.046125, -0.018824,
          0.205759, -0.285142, -0.125185, 0.092541, 0.101727, 0.184043, -0.152719, -0.056634,
          0.168542, 0.07072, -0.016429, -0.207083, -0.270611, 0.201235, -0.042825
        ],
        [
          0.025071, -0.248716, 0.075897, 0.184254, 0.085164, -0.231866, 0.091741, 0.169219,
          0.077918, 0.20942, 0.080959, 0.112276, 0.078897, -0.198509, -0.061697, -0.14589, 0.267606,
          0.113405, 0.047748, -0.094909, -0.149003, 0.111788, 0.036579, -0.166539, 0.046643,
          -0.301898, -0.143764, 0.023398, -0.128164, 0.242989, -0.139142, -0.220791, -0.114833,
          0.0761, -0.007941, -0.026686, -0.153553, -0.29082, 0.029824, 0.085667, 0.090597,
          -0.265641, 0.001035, 0.16219, -0.011578, 0.144369, -0.218927, 0.151915
        ],
        [
          0.087056, 0.15696, 0.06439, -0.139858, 0.242551, -0.034371, -0.099646, 0.218616, 0.125416,
          0.213934, -0.114987, 0.069709, 0.147245, -0.222217, -0.026463, -0.184134, -0.01787,
          0.205873, -0.084694, 0.078471, 0.212971, -0.070185, 0.115818, -0.104863, 0.200261,
          -0.089661, 0.243961, -0.11579, -0.005741, 0.176397, -0.050692, 0.033224, -0.063495,
          0.086004, -0.086757, -0.107281, -0.072367, -0.056352, -0.108867, -0.020244, -0.107999,
          -0.324234, -0.023124, 0.166082, -0.231499, 0.047223, -0.008507, -0.094005
        ],
        [
          0.052623, -0.06104, 0.051262, -0.196743, 0.134372, 0.069115, -0.258784, 0.048347,
          0.173315, 0.018788, -0.018328, 0.129138, 0.108894, 0.035962, 0.146382, 0.203633, -0.00559,
          -0.023599, 0.071047, 0.165112, 0.099574, -0.161439, 0.168756, -0.005989, -0.134008,
          -0.119057, 0.028115, 0.141174, -0.164037, 0.138573, -0.047549, -0.167811, 0.210858,
          -0.010548, -0.049702, -0.052565, 0.169432, -0.001849, -0.109049, -0.201559, -0.082506,
          0.090117, 0.008447, -0.110812, -0.002433, -0.079444, 0.184943, -0.028112
        ],
        [
          0.173286, -0.02234, -0.123684, 0.109391, 0.001131, 0.072544, 0.204013, -0.105498,
          -0.21119, 0.128826, -0.114666, -0.132296, -0.113818, -0.312816, 0.084475, -0.223481,
          0.020003, -0.012158, -0.118698, -0.221252, 0.049599, -0.202047, 0.153231, 0.166649,
          -0.081955, 0.014129, 0.023429, -0.080492, 0.153691, 0.178123, -0.108523, -0.027777,
          0.26825, 0.175046, 0.080456, -0.127868, -0.090807, 0.135337, -0.260563, 0.071289,
          -0.05504, -0.009908, -0.072336, 0.266525, -0.246143, 0.106667, -0.17048, -0.165456
        ],
        [
          -0.075424, 0.138531, -0.198998, -0.037723, -0.248761, 0.033266, 0.113862, 0.173683,
          -0.055993, 0.052533, 0.069702, -0.227142, 0.152393, 0.158804, -0.194596, -0.082952,
          0.191386, -0.03993, -0.200297, -0.01989, 0.023803, 0.014904, 0.033341, 0.309888,
          -0.138902, 0.108956, -0.130069, -0.102413, -0.164507, 0.130274, 0.182176, -0.021926,
          0.084898, -0.204331, 0.019725, 0.088435, 0.094449, 0.213923, -0.013076, -0.001368,
          0.280249, -0.069, -0.051953, -0.004377, 0.098496, 0.150013, -0.042975, 0.189596
        ],
        [
          0.076203, -0.133199, 0.197846, -0.072976, -0.002785, -0.093815, 0.005272, -0.218266,
          0.12023, -0.076588, 0.033851, 0.301593, 0.056847, 0.188101, -0.197192, 0.053279, 0.24202,
          0.010917, 0.054835, -0.028969, -0.241899, 0.02037, -0.004326, 0.094784, -0.067268,
          0.169299, 0.188599, -0.0001, -0.007372, 0.23255, 0.200295, 0.002967, 0.002155, 0.1456,
          0.109227, 0.024934, 0.059454, -0.229573, -0.182228, -0.125129, -0.120811, -0.109663,
          0.057534, -0.188357, -0.159856, -0.105548, 0.243988, -0.146977
        ],
        [
          -0.004537, 0.030217, 0.239726, -0.134867, 0.148323, 0.090457, 0.063553, -0.288679,
          0.091209, -0.255157, 0.056832, 0.153853, -0.157511, 0.067801, -0.271484, 0.128392,
          -0.031418, -0.086839, -0.008488, 0.233718, -0.159004, -0.150484, -0.084747, 0.065567,
          0.079258, -0.087616, -0.06488, -0.080784, -0.139764, 0.003069, 0.121912, -0.052039,
          -0.16538, 0.067041, 0.207881, 0.261049, 0.202852, -0.089821, -0.132139, -0.016108,
          -0.062659, 0.038799, 0.118426, 0.141108, 0.196079, -0.035198, 0.117022, -0.123072
        ],
        [
          -0.202265, 0.150172, -0.284809, -0.130627, -0.079502, 0.166605, -0.04311, -0.148788,
          0.045928, -0.108864, -0.119619, 0.066672, 0.080988, 0.260486, -0.035293, 0.094389,
          -0.017836, 0.243999, -0.092601, 0.103959, -0.107371, -0.145999, -0.090627, -0.00558,
          0.100285, 0.165553, -0.024243, -0.033492, -0.151886, -0.180673, -0.034746, -0.020491,
          -0.010558, -0.121155, 0.099116, -0.037559, -0.031162, 0.005794, -0.222566, 0.208729,
          0.182243, 0.090239, -0.152608, 0.085759, 0.154044, 0.175619, -0.191567, 0.145098
        ],
        [
          0.180277, -0.059145, 0.102894, -0.093855, 0.083445, -0.199905, 0.117725, -0.210507,
          0.069698, -0.125534, 0.094902, -0.06158, 0.016669, 0.162575, -0.122637, -0.0908,
          -0.130238, 0.194189, -0.050261, -0.026732, -0.386489, 0.140989, 0.186933, 0.078998,
          0.14215, -0.161645, -0.099523, -0.100443, -0.096332, -0.095163, -0.095292, -0.0007,
          0.192891, 0.109312, 0.220356, 0.110598, -0.175343, 0.142754, 0.043953, 0.087489,
          -0.180106, 0.062743, -0.116256, -0.228721, 0.065037, -0.302495, 0.113982, 0.044803
        ],
        [
          0.222981, 0.114977, 0.222182, -0.170565, 0.169787, 0.139837, 0.16091, -0.148461, 0.176393,
          0.168768, 0.21985, -0.049973, -0.175806, -0.018244, 0.098558, 0.097707, -0.062349,
          -0.209987, -0.115353, -0.011524, 0.258863, 0.114635, -0.010456, 0.021893, -0.119263,
          0.171713, -0.104656, 0.024314, 0.049067, 0.169769, 0.059426, 0.107201, -0.016062,
          0.035306, -0.285625, 0.010607, -0.159656, -0.000826, 0.245751, 0.118769, -0.03646,
          -0.01633, -0.138892, 0.065449, 0.139504, -0.152512, -0.055333, 0.158109
        ],
        [
          0.161702, -0.204032, 0.117468, -0.153768, -0.167549, 0.274071, 0.208406, 0.149037,
          -0.140386, 0.151825, -0.004413, -0.120155, 0.0495, -0.201647, 0.171718, 0.099508,
          -0.050871, -0.052492, -0.171659, -0.174052, 0.018498, 0.188053, -0.161117, -0.278371,
          0.065866, 0.15675, -0.180745, -0.01145, 0.038361, -0.07932, -0.147968, 0.15208, 0.083677,
          0.119087, 0.057335, 0.062774, -0.161332, -0.052283, -0.018163, -0.11272, 0.091388,
          0.236996, 0.248452, 0.039702, -0.124865, -0.240334, 0.131176, 0.011122
        ],
        [
          0.078425, 0.119468, 0.117781, 0.126839, -0.082112, 0.051484, 0.250553, -0.018185,
          0.198407, -0.079321, 0.243369, -0.208597, 0.083459, -0.104664, 0.0129, -0.163777,
          -0.054514, -0.074403, 0.192934, -0.087216, -0.120814, 0.125652, 0.048867, 0.165342,
          -0.146799, 0.059936, -0.118332, -0.101191, 0.179038, 0.154173, 0.063537, -0.129368,
          -0.004378, -0.031746, 0.224149, -0.06504, -0.103404, -0.057284, 0.236255, -0.112457,
          0.120231, -0.065997, 0.163819, -0.22769, 0.105992, 0.171891, -0.168461, 0.131673
        ],
        [
          0.063871, 0.17292, 0.152705, -0.079682, -0.136576, -0.173992, -0.093777, -0.151948,
          -0.055588, -0.139678, 0.152971, -0.067548, -0.156867, -0.069348, -0.184659, -0.038132,
          -0.176575, 0.225912, 0.244105, -0.016934, -0.020469, 0.069549, 0.044868, 0.097128,
          0.100469, -0.070493, -0.225366, 0.058884, 0.170866, 0.041655, 0.184397, 0.299638,
          -0.149737, 0.063979, 0.119214, 0.246183, 0.255124, 0.05599, -0.016693, 0.080191,
          -0.118465, -0.023754, 0.128061, -0.049126, 0.142109, -0.033963, 0.033954, -0.071893
        ],
        [
          0.033993, 0.205017, 0.201198, -0.14122, 0.200716, 0.138533, -0.141185, -0.171023,
          -0.164367, 0.255308, 0.004633, 0.129713, -0.07568, 0.104634, -0.150501, -0.029403,
          0.111647, -0.242554, 0.083223, -0.083519, 0.011203, -0.062107, 0.054432, -0.198049,
          -0.198823, 0.160436, -0.046151, 0.087594, 0.204055, -0.12974, -0.090636, 0.089953,
          0.204212, 0.189647, 0.109167, 0.127417, -0.185722, 0.251317, 0.09729, -0.074277, -0.00693,
          -0.050384, -0.097529, 0.173552, -0.019659, -0.145201, -0.03576, 0.225312
        ],
        [
          -0.076689, -0.075536, -0.14161, 0.143956, 0.164412, -0.143155, -0.28679, 0.111654,
          -0.276429, 0.127006, 0.068625, -0.068345, 0.171936, 0.035119, 0.178343, 0.07731, -0.02335,
          -0.088448, 0.137106, -0.217323, -0.113134, -0.013822, 0.223953, -0.010503, 0.042735,
          -0.190798, 0.046859, -0.027687, 0.06714, -0.104784, -0.045722, 0.050571, -0.056985,
          -0.166295, -0.22807, -0.250864, 0.207031, -0.124159, -0.209324, 0.068311, -0.105648,
          -0.006643, -0.125081, 0.24084, 0.138659, 0.179611, -0.096279, 0.208875
        ],
        [
          -0.118819, -0.286519, -0.108779, 0.096733, -0.073038, -0.017206, -0.08165, -0.09908,
          0.206151, -0.081545, 0.173433, -0.151255, 0.071684, 0.025277, -0.09952, -0.143142,
          0.11509, 0.216259, -0.105926, -0.14394, 0.151228, 0.163453, 0.031749, -0.006171,
          -0.022695, 0.110966, -0.168078, 0.324705, -0.005696, -0.013928, 0.067288, 0.334787,
          0.076988, 0.044491, 0.097734, -0.034982, -0.102995, -0.064009, 0.192881, -0.166295,
          0.174405, -0.105326, 0.241113, -0.005916, -0.006597, -0.065638, -0.156528, -0.152281
        ],
        [
          -0.169392, 0.132152, 0.018524, 0.130144, -0.054197, -0.133556, -0.067309, 0.217852,
          0.110571, -0.021272, 0.003705, -0.186176, 0.270551, 0.035433, -0.153661, 0.026038,
          -0.093716, 0.198995, -0.089512, 0.135256, 0.007333, 0.100239, 0.121808, 0.157672,
          0.035648, 0.209404, -0.265186, -0.06334, -0.110892, 0.165588, -0.034012, 0.088483,
          0.125785, -0.11412, -0.090295, -0.109639, -0.044994, -0.155086, -0.242682, 0.187925,
          0.214456, -0.05851, -0.087419, -0.225156, 0.094649, 0.132826, -0.221303, -0.174747
        ],
        [
          0.143979, 0.036404, -0.267151, -0.022857, -0.045276, 0.009683, 0.151085, 0.088556,
          0.003023, 0.193907, -0.043557, 0.136487, 0.007599, 0.209166, 0.218321, -0.20545, 0.16546,
          0.162621, 0.086942, -0.078667, -0.013676, 0.159476, -0.067128, 0.146988, -0.181693,
          -0.216921, 0.043754, 0.054271, 0.078714, -0.159265, 0.191366, -0.223128, -0.094115,
          -0.270707, 0.088003, 0.141185, 0.054273, 0.121007, -0.208812, 0.062198, -0.026337,
          0.043669, -0.203824, 0.063097, -0.002831, 0.060779, -0.04729, -0.144745
        ],
        [
          0.063221, -0.190115, 0.265273, 0.044898, -0.015228, 0.260733, 0.015628, -0.289627,
          0.126295, -0.082821, 0.181883, 0.10511, 0.136142, 0.1319, -0.036561, 0.228604, -0.087741,
          -0.039237, 0.060489, -0.275042, -0.087013, 0.265291, 0.268961, -0.216091, -0.030275,
          -0.106039, 0.161903, -0.030735, 0.100661, -0.162856, -0.028548, -0.059703, 0.224404,
          -0.204876, 0.110327, -0.129719, -0.008768, 0.139855, -0.053111, 0.158767, 0.004696,
          -0.233289, -0.016262, -0.26462, 0.065732, 0.061707, -0.147872, 0.063176
        ],
        [
          0.115604, 0.201219, -0.01982, 0.166524, -0.019676, -0.082614, 0.121539, 0.003327,
          -0.031004, 0.000552, 0.121075, 0.10189, -0.041395, -0.087357, -0.01393, -1.9e-5,
          -0.108914, 0.223874, -0.004927, -0.028222, -0.186069, -0.132861, 0.1385, -0.10536,
          -0.236123, 0.043176, -0.129792, -0.2098, -0.096436, 0.024256, 0.056533, -0.080067,
          -0.108046, 0.187317, -0.042707, -0.16384, -0.071673, -0.036321, 0.127702, -0.079297,
          0.123409, -0.209126, -0.11851, 0.136604, -0.127979, 0.011147, -0.1807, 0.092536
        ],
        [
          -0.117487, 0.228492, -0.142961, 0.267779, -0.103187, 0.1844, -0.181064, 0.197707,
          -0.192683, -0.186742, -0.103239, -0.319036, -0.153079, 0.20151, 0.190071, -0.067123,
          0.103924, 0.029358, 0.04101, 0.1404, 0.096012, 0.120527, -0.204794, 0.164666, -0.286042,
          -0.046405, -0.282163, 0.073408, 0.093669, 0.063476, 0.085214, -0.097281, -0.142451,
          -0.216318, -0.040501, 0.019413, 0.123746, -0.101222, -0.160386, 0.018864, 0.10926,
          0.26417, 0.148833, 0.160087, 0.129826, -0.141644, -0.131692, 0.291306
        ],
        [
          0.112954, -0.072816, -0.10968, -0.057895, 0.017183, 0.232545, 0.038303, -0.013296,
          -0.249591, -0.170037, -0.168015, -0.154919, 0.051931, 0.075093, -0.093136, 0.189312,
          -0.134323, -0.09542, -0.178809, -0.033302, -0.159431, 0.032839, -0.052524, 0.211045,
          -0.238192, -0.083135, -0.131708, 0.02724, -0.213697, 0.104956, 0.049619, -0.035255,
          0.143969, -0.184626, -0.088942, -0.141602, 0.032785, -0.062807, -0.233566, 0.256085,
          -0.103963, 0.199698, 0.140229, -0.05398, -0.07719, -0.190979, 0.100185, 0.137179
        ],
        [
          0.189095, 0.221574, 0.053554, -0.042058, -0.183105, 0.138362, -0.152005, -0.331057,
          0.065336, -0.130623, 0.10731, 0.037064, -0.145443, 0.155804, -0.153736, -0.124846,
          -0.118463, -0.136106, 0.116669, -0.00504, -0.04854, -0.096062, 0.012367, 0.153487,
          -0.13966, 0.000545, -0.208756, -0.233733, 0.124376, 0.173567, -0.034572, -0.095094,
          -0.204705, 0.001687, -0.165779, 0.077776, 0.211619, 0.003818, -0.006104, 0.25824,
          0.057439, -0.091829, 0.012086, 0.105742, 0.196754, 0.053589, 0.167601, 0.212587
        ],
        [
          0.196901, -0.260935, 0.018533, 0.070205, 0.208681, 0.078821, -0.115185, 0.07693, 0.097547,
          -0.147358, 0.03028, -0.065743, -0.07505, -0.128408, -0.026617, 0.054343, 0.091765,
          0.071027, -0.055122, -0.256991, -0.141478, 0.177834, -0.094554, 0.165483, 0.229507,
          -0.099005, 0.220912, -0.091277, -0.070965, 0.068459, -0.103536, 0.225252, -0.137596,
          0.110788, 0.125121, -0.086045, -0.141526, -0.09393, 0.214774, -0.119073, 0.065508,
          -0.026642, 0.118007, 0.093103, -0.270342, -0.000114, 0.176404, -0.082854
        ],
        [
          0.194749, -0.055709, -0.109502, -0.033152, 0.250416, -0.132263, 0.259863, 0.143987,
          0.054937, -0.173246, 0.164834, -0.065719, 0.08562, -0.073579, 0.014458, 0.094295,
          0.102628, -0.067393, -0.214376, -0.178486, -0.019974, 0.176519, 0.039445, -0.039919,
          0.110816, -0.286954, -0.00985, 0.295746, 0.097913, 0.025374, -0.00321, -0.180489,
          0.074645, 0.133765, 0.024546, 0.01524, -0.265671, -0.189561, 0.276111, -0.087544,
          -0.158192, -0.244063, -0.248115, 0.047597, -0.129756, 0.007016, -0.124951, 0.004974
        ],
        [
          -0.188703, -0.03494, -0.050122, -0.298153, -0.063406, 0.005888, 0.056057, 0.121418,
          -0.060398, -0.197189, -0.176238, 0.24699, 0.114652, -0.017353, -0.222898, -0.040384,
          -0.154849, 0.034465, 0.271832, 0.293405, 0.127406, -0.090251, 0.116653, 0.160348,
          -0.317827, 0.082079, -0.192872, -0.055936, -0.02101, 0.028919, -0.018918, -0.196052,
          -0.029267, 0.070782, 0.072379, 0.06137, 0.321472, 0.164334, -0.20188, -0.227215, 0.155046,
          0.110712, 0.099212, 0.249839, 0.146501, 0.057717, -0.285005, -0.060066
        ],
        [
          0.060775, 0.064724, 0.048604, 0.045542, -0.119245, 0.038978, -0.03689, -0.070383,
          0.198688, 0.069612, 0.255926, 0.004631, -0.047256, -0.190618, -0.024107, 0.159928,
          0.108536, 0.149091, -0.163617, 0.164436, -0.184938, 0.219159, -0.021805, -0.109525,
          -0.033029, 0.074621, -0.140535, 0.003386, 0.196416, -0.016611, -0.115702, -0.018033,
          0.02163, 0.303618, 0.032044, 0.073242, 0.190797, 0.0167, -0.078304, -0.058047, -0.084175,
          -0.177262, 0.170637, 0.120099, -0.036325, -0.015492, 0.13239, 0.186189
        ],
        [
          0.102993, 0.054346, 0.095359, 0.030524, -0.011924, -0.080556, -0.242418, -0.034204,
          -0.090802, -0.246353, 0.035855, -0.120009, 0.033812, 0.040812, 0.156549, 0.038527,
          -0.201884, 0.042596, 0.117994, 0.238489, -0.127413, -0.106457, 0.112902, -0.072708,
          0.054064, 0.138371, -0.106531, -0.142886, -0.128913, 0.045627, 0.250135, -0.022462,
          0.171885, -0.201613, -0.033078, -0.212929, 0.153317, 0.162246, -0.049072, 0.25803,
          0.191077, 0.268, 0.091887, 0.226365, 0.023573, -0.226452, 0.023898, -0.133451
        ],
        [
          0.138606, -0.073569, 0.124886, -0.209596, -0.173899, -0.094229, 0.26936, 0.002364,
          0.046257, 0.065347, 0.091059, -0.074615, -0.049141, -0.142213, 0.101665, -0.062026,
          -0.07982, -0.186706, -0.05834, 0.031908, -0.284289, -0.130449, -0.006439, -0.26763,
          -0.200145, 0.10718, 0.257827, 0.197309, 0.15677, 0.265217, -0.210619, 0.059029, 0.179361,
          -0.048019, 0.079046, -0.015463, 0.166772, 0.103791, 0.300976, -0.272183, -0.117741,
          -0.320257, 0.106084, -0.211219, -0.108917, 0.170531, -0.139516, 0.125424
        ],
        [
          -0.050445, 0.017131, 0.061127, 0.226524, 0.368568, -0.217964, -0.080275, 0.117379,
          0.134649, 0.207826, 0.059968, 0.073113, 0.001188, 0.024103, 0.203534, -0.125746, 0.103557,
          -0.135872, 0.02097, -0.16196, -0.346086, -0.02488, 0.024625, -0.055945, 0.11819,
          -0.268918, 0.102897, 0.157892, 0.038116, -0.057125, 0.049022, 0.177655, -0.32201,
          0.039866, -0.081575, 0.021464, -0.187001, -0.060943, 0.210958, -0.28865, -0.164861,
          -0.213932, 0.040872, -0.207523, -0.316724, 0.156969, -0.170397, -0.018232
        ],
        [
          0.080449, -0.205213, -0.032184, -0.010786, 0.292492, 0.143779, 0.140162, -0.094733,
          0.086123, 0.08496, -0.01609, -0.274336, -0.06181, 0.275164, 0.08815, -0.06285, 0.030101,
          0.08065, 0.065938, -0.177917, -0.084245, -0.085094, 0.260408, 0.033361, 0.083319,
          -0.055341, -0.090954, 0.15776, 0.052364, -0.120068, -0.24184, 0.01798, 0.151298,
          -0.083973, 0.249217, 0.095904, -0.119107, -0.220246, -0.159388, 0.090445, -0.180531,
          -0.1175, -0.005031, 0.106222, -0.305585, 0.019017, -0.033124, 0.013471
        ],
        [
          0.175869, -0.187467, 0.191044, 0.078317, -0.100471, 0.168766, -0.098739, -0.096406,
          0.059352, -0.090103, 0.067023, -0.01532, 0.1286, 0.018859, -0.156507, 0.032703, 0.047311,
          0.242568, 0.180331, 0.233888, -0.080433, -0.033483, 0.074996, 0.176433, 0.140792,
          0.242809, -0.253179, 0.164506, -0.115946, -0.07531, -0.012987, -0.006591, -0.029742,
          -0.028351, -0.05026, -0.088396, 0.056908, 0.039332, -0.070951, 0.156874, 0.242373,
          0.06522, -0.042677, 0.078273, -0.02202, -0.237323, -0.005588, 0.128119
        ],
        [
          -0.063358, -0.244694, -0.165387, 0.166771, 0.11056, -0.119399, 0.02328, -0.020436,
          0.095786, -0.129167, 0.160147, -0.095531, 0.079616, -0.155146, -0.08842, -0.145793,
          -0.022534, -0.190145, -0.032529, -0.087592, 0.147127, 0.06615, 0.022573, 0.069009,
          0.092502, 0.013045, 0.152521, -0.126219, 0.091195, 0.20615, -0.085644, -0.134878,
          -0.059887, 0.105469, 0.20682, -0.039671, 0.092372, 0.137752, -0.121118, -0.065911,
          0.070317, 0.083152, 0.101634, -0.015402, -0.157395, -0.102804, -0.168045, -0.159127
        ],
        [
          0.128689, -0.09857, 0.135957, -0.022758, 0.043455, -0.168244, -0.122593, -0.136949,
          0.175787, 0.156745, -0.033178, -0.112432, 0.180698, -0.128152, -0.161461, 0.00464,
          0.191243, -0.194614, -0.033384, 0.176285, -0.160517, -0.209315, 0.043122, 0.146895,
          0.071095, 0.215436, 0.081066, -0.212295, 0.243512, -0.005964, -0.102674, 0.003062,
          -0.046475, -0.095509, -0.263558, -0.1666, 0.184839, 0.049526, 0.242413, -0.029579,
          -0.044406, -0.094181, -0.130992, -0.071938, 0.152845, 0.174691, 0.222882, -0.101817
        ],
        [
          0.07351, -0.133674, -0.096173, 0.11567, 0.167035, -0.138542, 0.005258, -0.118846,
          0.150781, 0.042988, 0.192835, -0.22152, -0.014904, 0.155409, 0.138, -0.022168, 0.223362,
          0.150817, 0.199047, 0.097519, -0.018459, 0.072319, 0.218923, -0.06674, 0.006122,
          -0.104548, 0.007951, -0.047334, 0.191912, -0.108611, -0.215062, 0.107432, -0.198889,
          -0.109795, 0.031651, 0.022605, -0.01073, 0.149972, 0.110225, -0.117449, -0.092892,
          -0.090347, 0.135986, -0.193028, -0.234892, 0.115089, -0.024436, -0.115482
        ],
        [
          -0.120256, 0.170297, 0.142547, 0.163159, 0.0101, -0.024565, 0.211026, 0.178091, -0.081422,
          0.11496, -0.134124, -0.138708, 0.076996, 0.004892, 0.235477, -0.228655, 0.040127,
          0.136924, 0.152321, -0.108301, -0.061595, 0.06183, -0.100693, 0.226312, 0.195812,
          -0.158764, -0.195421, -0.181852, 0.221903, -0.113559, -0.0547, -0.033319, 0.012191,
          -0.172038, -0.150428, 0.156353, 0.153443, 0.153494, -0.187943, -0.050167, 0.030014,
          -0.208797, 0.190979, 0.063761, -0.130299, 0.166907, 0.175775, -0.187021
        ],
        [
          -0.012923, -0.225609, 0.0082, -0.212958, 0.093954, 0.104375, 0.17228, -0.185019, 0.170668,
          -0.087804, 0.206982, -0.039624, -0.16958, -0.130356, 0.111089, -0.082621, 0.223924,
          -0.168617, -0.24629, -0.121463, 0.197019, 0.282941, 0.023582, -0.037263, -0.126974,
          -0.04763, -0.005456, 0.262836, 0.233956, -0.062658, -0.086485, 0.208602, 0.124028,
          -0.243395, -0.026848, -0.135238, -0.149884, -0.11655, -0.144534, -0.041475, -0.205338,
          -0.332009, -0.10737, 0.127524, 0.030391, 0.008021, -0.081964, 0.142731
        ],
        [
          -0.138106, -0.127789, -0.130559, -0.201078, -0.012971, 0.25563, 0.18313, -0.01295,
          0.219218, -0.166806, -0.123052, 0.088327, 0.058052, -0.187117, 0.048134, 0.108921,
          0.127168, -0.110057, -0.302194, -0.189817, -0.10422, -0.155042, 0.210167, -0.029901,
          -0.136088, 0.116997, -0.024655, -0.084807, 0.251687, 0.216407, 0.040166, -0.259413,
          0.130392, 0.078608, -0.055603, -0.148994, 0.16816, -0.205221, 0.134949, 0.09991, -0.0702,
          -0.103422, 0.111973, 0.008614, -0.054258, 0.049884, 0.092896, 0.148518
        ],
        [
          -0.019434, 0.024718, 0.369261, 0.037349, -0.145289, -0.19704, 0.140982, -0.035392,
          0.091615, -0.01582, -0.079825, 0.015909, -0.192088, -0.128126, -0.093769, 0.0324,
          0.191767, 0.069988, 0.122505, -0.281081, -0.107886, 0.097204, 0.250387, 0.160214,
          0.247365, -0.189538, 0.153331, 0.091017, -0.174583, -0.310151, 0.129057, 0.017967,
          -0.094477, -0.122066, 0.272084, 0.11727, -0.039127, 0.186739, 0.033868, -0.097962,
          -0.204676, -0.210616, 0.118603, 0.090773, -0.07208, -0.044667, 0.094335, -0.243094
        ],
        [
          -0.076811, -0.126484, -0.050303, 0.134357, -0.170009, -0.151251, -0.045373, 0.167946,
          -0.153232, -0.184656, -0.013359, 0.061845, -0.111617, 0.142768, 0.25455, 0.195142,
          0.050689, 0.024951, -0.163637, 0.145829, -0.052562, -0.119994, 0.050283, -0.098621,
          0.074688, 0.065361, 0.01541, 0.147715, -0.179022, 0.030504, 0.052582, 0.116426, 0.213323,
          -0.070428, 0.111519, -0.25033, 0.153356, -0.021382, 0.180072, -0.27366, -0.133587,
          -0.152284, 0.178216, -0.002267, 0.184577, -0.100167, 0.049634, -0.20189
        ],
        [
          0.100491, -0.129198, 0.214931, 0.138264, 0.249689, 0.093515, 0.07027, 0.171509, -0.151285,
          0.058691, -0.190286, 0.070665, -0.139209, 0.04777, 0.009495, -0.003138, 0.151887,
          -0.259702, -0.051505, -0.173667, -0.084703, 0.113201, 0.101537, 0.124477, -0.131711,
          0.184988, 0.02152, 0.037613, 0.025769, -0.286803, 0.035386, 0.034206, -0.124827, -0.21055,
          -0.080763, 0.070821, 0.003544, -0.160344, -0.103239, 0.052165, 0.132746, -0.269931,
          -0.177461, 0.127851, -0.289057, -0.192748, 0.131672, 0.057005
        ],
        [
          -0.117939, -0.278797, -0.138167, -0.258623, 0.257406, -0.076632, 0.174686, 0.173386,
          0.032237, -0.116255, 0.075428, 0.23508, 0.119653, -0.187433, 0.149913, 0.02055, 0.260474,
          -0.277008, -0.047419, 0.154278, -0.268291, 0.054785, -0.061451, -0.190831, -0.030998,
          0.108389, -0.068254, 0.063869, 0.112759, -0.086658, -0.029761, 0.12382, 0.168763,
          0.184906, 0.162653, -0.1011, 0.08716, -0.139666, 0.034246, -0.008254, 0.021337, 0.007291,
          0.072588, -0.196049, -0.059436, -0.00921, 0.108312, -0.246792
        ],
        [
          0.243237, 0.16599, -0.013438, 0.090604, 0.060493, 0.023583, -0.048908, 0.10734, 0.164273,
          -0.000117, 0.097868, 0.052366, 0.138976, -0.20883, 0.128353, 0.064807, -0.1, -0.13243,
          0.035116, 0.182673, 0.036255, 0.129168, -0.100031, -0.005657, 0.270761, 0.099194,
          -0.075243, 0.021428, -0.125248, -0.029342, 0.131528, 0.144789, -0.132047, 0.22589,
          -0.003106, 0.003408, -0.029402, 0.010709, -0.002801, -0.011979, 0.026572, -0.2468,
          0.145863, -0.067504, -0.164645, 0.080557, 0.179354, 0.171722
        ],
        [
          -0.045975, -0.187821, 0.061131, -0.138733, 0.248508, -0.081227, -0.16246, -0.056674,
          -0.092364, 0.044558, -0.021021, -0.0765, -0.127222, -0.014089, -0.195474, 0.063357,
          -0.013299, 0.077283, 0.243397, 0.17581, 0.259295, -0.185055, -0.207362, -0.039185,
          0.240764, 0.295807, 0.188962, -0.159406, 0.17853, 0.028174, -0.141396, -0.007066,
          -0.150705, -0.029921, 0.026469, -0.01572, 0.092754, 0.18308, 0.118216, -0.092587, 0.15194,
          0.016905, -0.165102, -0.07424, -0.02772, -0.103992, 0.111992, 0.176624
        ],
        [
          -0.157822, 0.177436, 0.142776, 0.255626, 0.054343, 0.265161, -0.070374, -0.133505,
          -0.202052, -0.234656, 0.091089, -0.06521, -0.149004, -0.005857, 0.123851, -0.332837,
          0.228169, -0.166442, -0.235365, -0.086766, 0.041777, -0.047201, -0.047425, 0.310736,
          0.126132, -0.192124, -0.090587, 0.144568, -0.136259, -0.267187, 0.093396, -0.063708,
          0.043981, -0.249631, -0.267799, 0.087313, -0.108778, 0.045748, -0.044655, -0.089334,
          0.204282, 0.020909, 0.112853, -0.193759, -0.157269, 0.026386, -0.148842, 0.235737
        ],
        [
          -0.156412, -0.017429, -0.010561, 0.072766, -0.053389, -0.019255, -0.086478, 0.146868,
          -0.287636, 0.201678, 0.100117, -0.018471, 0.083882, -0.205239, 0.214822, -0.001016,
          -0.058129, -0.070059, -0.203441, 0.211581, -0.165029, 0.04884, 0.009279, 0.223591,
          -0.034226, 0.02904, 0.033384, 0.047639, -0.190142, -0.126139, -0.113363, 0.151959,
          -0.140205, 0.150103, -0.050056, 0.105406, 0.214599, 0.052103, -0.178869, -0.086699,
          -0.135608, -0.089111, 0.021323, -0.03461, 0.171151, 0.026821, 0.070872, 0.033382
        ],
        [
          -0.073105, -0.082428, -0.050138, 0.014469, 0.121617, 0.065402, -0.082142, -0.182447,
          -0.000218, 0.096237, -0.197163, 0.106021, 0.193776, 0.20323, -0.126746, 0.178603,
          0.142079, -0.069281, -0.029148, 0.093203, 0.027022, -0.072964, 0.000123, 0.053214,
          -0.211349, 0.181469, 0.084187, 0.035089, -0.159736, 0.031775, -0.206566, -0.224633,
          0.067362, -0.138205, 0.084302, -0.166478, -0.076124, -0.207695, 0.165678, 0.056547,
          0.187657, 0.062318, -0.164378, 0.254095, -0.155742, 0.005898, 0.083027, -0.277956
        ],
        [
          0.114727, 0.058544, -0.050516, -0.215852, -0.190466, 0.125192, -0.018954, -0.243481,
          -0.213645, 0.03884, 0.009241, -0.020811, -0.136958, -0.210675, 0.047622, 0.287191,
          -0.094221, -0.020325, -0.006003, -0.018278, -0.379348, 0.144463, -0.010612, 0.082081,
          -0.026869, -0.058823, -0.121684, 0.082481, -0.198353, -0.017508, -0.064662, -0.040119,
          0.113801, -0.126401, -0.200642, -0.160117, 0.08667, 0.095187, -0.128712, -0.072928,
          -0.072596, -0.142861, -0.192257, 0.190146, -0.106107, -0.058967, -0.05017, -0.150118
        ],
        [
          0.083631, -0.167754, -0.114215, -0.014499, 0.106994, 0.093139, 0.053712, -0.096408,
          0.077752, -0.126192, 0.03152, -0.010369, -0.05916, 0.095422, 0.161192, 0.250513, 0.044724,
          0.063169, -0.127676, -0.217708, 0.099794, -0.071729, 0.210585, 0.005197, 0.033353,
          -0.107811, 0.159542, 0.064223, 0.049551, -0.057092, 0.072903, -0.217107, 0.159462,
          0.00605, -0.105245, -0.004169, 0.146321, -0.302584, 0.184599, -0.145262, -0.158566,
          -0.276804, -0.007422, 0.016456, -0.015983, 0.175559, 0.001953, 0.272387
        ],
        [
          -0.020847, 0.206814, -0.237386, -0.082997, -0.068861, -0.044624, 0.205925, -0.265351,
          -0.209585, 0.195209, -0.181321, -0.019251, 0.036237, 0.098472, -0.177877, -0.130296,
          0.12724, 0.21744, -0.077867, -0.039032, 0.077983, 0.212538, 0.204247, 0.204847, -0.370578,
          -0.234971, -0.057267, 0.165875, -0.08462, -0.154363, 0.054866, -0.322644, -0.018165,
          -0.091092, 0.160599, 0.221113, -0.055812, 0.011105, -0.021038, 0.010712, 0.029548,
          -0.184627, -0.239589, -0.217495, -0.063614, 0.041466, 0.105929, 0.139714
        ],
        [
          0.178925, -0.175241, -0.101537, -0.201294, -0.011074, -0.222109, 0.198291, 0.229347,
          -0.046008, -0.14124, 0.199669, 0.022063, 0.122973, 0.005681, 0.166257, -0.084831,
          0.073107, -0.081851, 0.033286, -0.011196, -0.423176, 0.053027, 0.070214, 0.0113, 0.171021,
          0.110853, -0.098838, 0.113923, 0.085055, 0.330285, 0.140881, -0.221988, 0.261058,
          -0.03762, -0.101951, -0.091728, -0.169606, 0.093047, -0.100601, -0.000574, 0.066222,
          0.258107, 0.198579, 0.112426, 0.089402, -0.09205, -0.197509, -0.327654
        ],
        [
          0.013896, 0.052132, -0.052744, -0.002366, 0.093511, -0.110337, -0.082815, 0.131235,
          0.012073, 0.177471, -0.174873, 0.229675, -0.148067, -0.228228, 0.283178, -0.182298,
          0.05586, -0.041956, -0.024018, 0.20552, -0.115439, 0.063579, -0.140891, 0.030923,
          -0.018357, -0.140435, 0.004412, -0.194082, 0.114375, -0.042989, -0.08289, -0.012279,
          -0.031302, 0.112989, 0.14878, -0.15945, 0.189361, 0.019611, -0.187112, 0.140485, 0.040891,
          0.130862, 0.132981, 0.013204, 0.16633, 0.093376, -0.045605, 0.055075
        ],
        [
          -0.055523, 0.210998, 0.123018, -0.206104, 0.028202, 0.193837, -0.183623, -0.267326,
          -0.014961, -0.096574, -0.024699, -0.024566, -0.144489, 0.082007, 0.018952, -0.15974,
          -0.039334, 0.050613, -0.25541, -0.265444, -0.236717, 0.122194, 0.089601, 0.126568,
          0.102081, 0.060893, 0.044386, 0.079691, -0.237558, 0.005542, 0.136612, 0.022996,
          -0.214494, -0.052825, 0.041407, 0.125443, 0.175435, -0.02934, 0.020066, 0.043665, 0.19541,
          0.004143, -0.040802, 0.018936, 0.081069, 0.162392, -0.168744, -0.163976
        ],
        [
          0.188783, -0.083615, 0.0394, -0.107635, -0.135064, 0.081834, 0.183987, -0.121158,
          -0.005291, 0.108815, -0.119353, 0.291677, -0.162843, 0.017989, 0.28975, 0.08788,
          -0.027401, 0.144211, -0.151401, -0.118935, 0.134625, 0.125275, 0.07924, -0.051669,
          -0.223954, -0.182512, 0.106991, 0.145581, 0.030205, 0.197206, -0.195869, 0.010439,
          -0.069374, 0.02528, -0.140859, 0.131546, -0.159539, 0.193335, 0.034387, 0.231938,
          -0.007385, 0.221962, -0.191539, 0.12821, 0.124588, -0.26826, -0.142156, -0.101396
        ],
        [
          0.190715, 0.055803, 0.048538, -0.197331, -0.208828, 0.180533, -0.160283, 0.136774,
          0.191428, -0.121711, 0.053518, -0.308317, 0.104462, -0.139091, 0.090654, -0.052245,
          0.049571, 0.143228, -0.126027, 0.097466, -0.0761, 0.069462, -0.168342, 0.043566,
          -0.185939, -0.017621, -0.155927, 0.104804, -0.070827, 0.217964, 0.189034, -0.165432,
          -0.002026, -0.275797, -0.080295, 0.056471, 0.077972, 0.077255, 0.015532, -0.153377,
          -0.1738, 0.150695, 0.029857, 0.110727, -0.027726, -0.079752, -0.097047, -0.191591
        ],
        [
          -0.037813, 0.106246, 0.193005, 0.094915, -0.032424, -0.140153, 0.161818, -0.301068,
          0.159292, -0.066241, -0.069244, 0.185906, -0.26375, -0.070136, 0.007524, -0.097566,
          -0.028863, 0.076581, 0.137478, -0.138697, 0.153214, -0.110922, -0.136677, -0.118983,
          -0.181732, -0.18273, 0.325354, -0.121774, -0.231423, -0.170421, 0.149151, 0.191296,
          -0.063147, -0.110756, -0.206436, -0.069505, -0.129441, 0.088529, -0.087318, 0.075396,
          -0.076931, 0.288223, 0.213106, 0.027812, -0.02752, -0.110179, 0.014294, 0.095984
        ],
        [
          -0.02687, 0.125703, 0.193478, -0.06909, 0.04885, -0.100888, -0.151369, 0.039648,
          -0.106546, 0.138646, -0.154682, 0.013623, 0.107901, 0.068795, -0.07088, 0.179909,
          0.014225, 0.03688, -0.288791, -0.078881, 0.190071, 0.016309, 0.132957, -0.004933,
          -0.126208, -0.167273, -0.043275, 0.069099, 0.15286, -0.026067, 0.035509, 0.004496,
          -0.06868, -0.093944, -0.168371, -0.117312, -0.251549, -0.135144, -0.230484, 0.12848,
          -0.016356, 0.252431, -0.143519, -0.07573, -0.215931, -0.187407, 0.162499, -0.22711
        ],
        [
          0.216783, 0.184546, 0.065653, -0.052388, 0.133037, -0.14561, 0.225155, -0.199801, -0.0212,
          0.012324, 0.127977, 0.18374, -0.176242, 0.133361, -0.050834, -0.08227, -0.006185,
          0.003268, -0.161533, 0.046015, 0.14544, 0.078709, 0.116419, 0.135761, 0.09575, -0.011678,
          -0.132456, 0.254238, 0.096183, -0.073855, -0.177968, 0.189575, -0.263006, 0.256921,
          -0.100586, 0.153072, -0.055637, -0.134784, 0.265748, -0.378732, -0.021372, -0.403231,
          -0.261229, -0.095217, -0.006703, -0.205816, -0.185037, -0.158331
        ],
        [
          0.074603, 0.127601, -0.08506, -0.227616, 0.231241, -0.088619, 0.156171, 0.221638,
          0.184825, -0.128602, 0.161557, 0.101104, 0.083047, -0.017932, -0.173332, -0.147935,
          0.04701, -0.00123, -0.003557, -0.027328, -0.014646, 0.059345, 0.192028, -0.107519,
          -0.012382, -0.169297, 0.096911, 0.123837, 0.228694, -0.039648, 0.122931, -0.147471,
          0.034508, -0.260484, 0.225617, 0.079907, 0.064572, 0.122685, -0.139148, -0.115145,
          0.089546, -0.03088, -0.193954, 0.034138, 0.124892, -0.192573, -0.042667, -0.245446
        ],
        [
          0.05299, 0.092131, 0.242357, -0.01113, -0.160393, 0.126997, -0.034667, -0.165377, 0.19385,
          0.05549, 0.138345, 0.074619, -0.190337, -0.240457, 0.066643, -0.100462, -0.075389,
          0.145735, 0.210678, -0.030014, 0.010697, 0.188614, 0.027372, -0.169436, -0.034407,
          -0.134482, -0.125565, -0.068741, -0.18331, 0.09246, 0.255216, -0.221241, 0.107587, 0.1005,
          -0.085892, 0.141869, 0.045089, 0.074798, 0.220382, -0.135447, 0.019897, -0.311871,
          0.184836, -0.15194, 0.207388, -0.240334, 0.160407, 0.148608
        ],
        [
          0.008707, 0.088135, 0.009425, 0.147903, 0.095556, 0.10595, 0.073711, 0.064936, -0.08469,
          -0.034917, 0.173304, -0.140768, 0.093753, 0.200109, -0.071601, 0.089446, -0.019066,
          -0.269986, 0.126031, -0.178793, -0.236565, 0.186208, -0.013203, 0.147612, 0.257529,
          -0.107731, -0.153107, 0.135234, 0.021492, -0.089329, 0.045841, -0.243066, 0.169677,
          -0.1873, -0.077354, -0.273944, 0.168164, 0.083283, 0.159125, -0.076801, -0.113147,
          -0.270992, -0.02939, -0.035478, 0.156537, -0.080966, 0.187102, -0.151427
        ],
        [
          0.159232, -0.244724, 0.049134, -0.177171, 0.071021, 0.109081, -0.031633, -0.002114,
          0.105788, 0.112841, 0.172073, -0.163643, 0.072627, -0.039916, -0.080561, 0.039342,
          -0.019146, -0.267289, -0.29603, -0.240232, -0.065971, 0.078164, 0.226895, 0.090578,
          -0.162591, 0.186756, 0.219508, -0.00408, 0.020478, 0.214102, -0.013914, 0.203668,
          -0.303548, -0.179102, 0.051963, 0.03218, 0.099035, 0.26182, -0.023712, -0.294572,
          0.143778, -0.25734, -0.185101, -0.00157, 0.024705, 0.096485, -0.016976, -0.152724
        ],
        [
          0.217834, 0.090456, -0.104274, -0.061305, 0.046341, -0.171244, -0.117264, -0.011491,
          -0.057731, 0.094645, -0.178966, 0.112848, -0.084016, -0.342541, -0.188526, 0.201085,
          0.188954, -0.160916, 0.253813, 0.127828, 0.175429, -0.047894, 0.096276, -0.125762,
          -0.021786, 0.23715, -0.019809, -0.065894, -0.12506, 0.134292, 0.042507, -0.120406,
          0.201556, -0.156837, -0.094708, 0.295169, -0.040289, -0.073909, -0.03026, 0.145776,
          -0.103002, 0.183017, 0.152526, -0.141849, 0.262565, -0.0334, 0.031026, 0.113643
        ],
        [
          0.277525, -0.168777, -0.096903, -0.020051, -0.081326, -0.093517, -0.129319, -0.023018,
          -0.021664, -0.186048, 0.129529, 0.14416, -0.032675, -0.146761, 0.092548, -0.136312,
          -0.189924, 0.153858, -0.302643, -0.127092, -0.272937, -0.184057, -0.227579, 0.163738,
          -0.043842, -0.20684, -0.098687, 0.10643, 0.040964, 0.083444, 0.240618, -0.038379, -0.0861,
          -0.093389, -0.014882, -0.134078, 0.129338, -0.052353, 0.103231, -0.136967, -0.175941,
          0.043567, 0.143159, -0.106027, 0.126192, -0.125676, -0.159546, -0.197225
        ],
        [
          -0.04593, -0.159748, -0.159678, 0.147968, -0.177295, 0.026037, 0.039229, -0.088229,
          0.118518, -0.071646, -0.005531, 0.19859, 0.135048, -0.250016, -0.244998, 0.180134,
          -0.007529, -0.031747, -0.091955, -0.167318, -0.042202, 0.087714, -0.059833, -0.089856,
          0.21639, 0.005829, -0.156246, 0.080523, 0.119254, 0.160198, 0.06732, -0.064454, 0.163,
          0.239462, -0.184368, 0.039869, -0.161624, 0.103933, -0.02696, 0.102774, 0.179607,
          0.238835, 0.219559, 0.181339, -0.189453, 0.016027, 0.021954, 0.065894
        ],
        [
          -0.080912, 0.167679, 0.071669, 0.163982, -0.151033, -0.079195, 0.105172, -0.289833,
          0.160224, -0.214985, 0.05116, -0.080241, 0.133463, 0.115803, -0.167801, -0.144633,
          -0.20665, -0.057754, 0.033361, 0.148607, -0.151956, -0.049424, -0.044588, -0.175496,
          0.027399, 0.30539, 0.176816, -0.105827, 0.005722, 0.166345, -0.011373, -0.157334,
          -0.205536, -0.003194, 0.215396, 0.087205, -0.110915, -0.08147, 0.160785, 0.200786,
