{
  "kind": "classifier",
  "target": "colour",
  "feature_names": [
    "SiO2_umf",
    "Al2O3_umf",
    "B2O3_umf",
    "Li2O_umf",
    "K2O_umf",
    "Na2O_umf",
    "KNaO_umf",
    "MgO_umf",
    "CaO_umf",
    "SrO_umf",
    "BaO_umf",
    "ZnO_umf",
    "PbO_umf",
    "P2O5_umf",
    "F_umf",
    "V2O5_umf",
    "Cr2O3_umf",
    "MnO_umf",
    "MnO2_umf",
    "FeO_umf",
    "Fe2O3_umf",
    "CoO_umf",
    "NiO_umf",
    "CuO_umf",
    "Cu2O_umf",
    "CdO_umf",
    "TiO2_umf",
    "ZrO2_umf",
    "SnO2_umf",
    "MoO3_umf",
    "Bi2O3_umf",
    "CeO2_umf",
    "PrO2_umf",
    "Pr2O3_umf",
    "Nd2O3_umf",
    "U3O8_umf",
    "Ho2O3_umf",
    "Er2O3_umf",
    "SiO2_Al2O3_ratio_umf",
    "R2O_umf",
    "RO_umf",
    "cone_num",
    "atm_oxidation",
    "atm_reduction",
    "atm_neutral",
    "atm_salt_soda",
    "atm_wood",
    "atm_raku",
    "atm_luster",
    "atm_known"
  ],
  "scaler": {
    "mean": [
      3.051415, 0.470805, 0.152787, 0.040048, 0.10657, 0.169879, 0.276449, 0.119922, 0.470504,
      0.022698, 0.02241, 0.044115, 0.002616, 0.006512, 0.010568, 5.4e-5, 0.001411, 0.001235,
      0.117982, 0.000845, 0.042502, 0.011187, 0.000724, 0.042832, 0.00517, 0.0, 0.04436, 0.016532,
      0.012203, 2e-5, 8e-6, 0.0, 0.0, 9.3e-5, 0.0, 0.0, 0.0, 1.6e-5, 9.173805, 0.316497, 0.683503,
      28.444318, 0.668182, 0.405682, 0.027727, 0.016136, 0.0125, 0.022045, 0.000682, 0.899545
    ],
    "std": [
      3.419771, 3.0462, 0.233828, 0.112907, 0.096455, 0.149182, 0.165765, 0.145029, 0.231185,
      0.090925, 0.088564, 0.109531, 0.042728, 0.022244, 0.151627, 0.001881, 0.01019, 0.01801,
      2.770303, 0.009285, 0.088892, 0.049483, 0.007316, 0.69222, 0.233424, 1.0, 0.102557, 0.076687,
      0.061616, 0.001331, 0.000396, 1.0, 1.0, 0.003657, 1.0, 1.0, 1.0, 0.001051, 13.572697,
      0.196113, 0.196113, 4.626906, 0.470866, 0.491024, 0.16419, 0.126, 0.111102, 0.146831,
      0.026103, 0.300605
    ]
  },
  "layers": [
    {
      "w": [
        [
          -0.063188, 0.13277, 0.064855, 0.136102, 0.187641, -0.209329, -0.373536, 0.114081,
          -0.059936, 0.124236, -0.361644, 0.210602, 0.036998, -0.164322, -0.110719, -0.112638,
          -0.10647, 0.192823, -0.016839, 0.019046, 0.163585, -0.271123, -0.17525, -0.149194,
          0.009187, 0.234015, -0.178047, 0.102079, 0.026005, -0.048529, 0.114749, 0.121541,
          -0.31674, 0.217797, 0.203661, 0.090162, -0.290754, -0.340611, 0.138128, 0.132733,
          -0.002973, 0.177256, -0.295773, 0.144406, -0.223546, -0.095752, -0.204103, -0.005475,
          0.069675, -0.314266, 0.212177, 0.06003, 0.276895, 0.150081, 0.18867, 0.074754, -0.237052,
          -0.269817, -0.283893, 0.029941, -0.052945, -0.109212, 0.213583, -0.060526, -0.124989,
          -0.122, -0.385384, 0.203659, -0.18578, 0.194613, 0.108192, -0.156343, -0.093111,
          -0.003703, 0.021824, 0.375728, 0.058335, -0.015987, -0.122777, -0.351606, 0.208707,
          0.220472, -0.023016, 0.014458, -0.212265, -0.141647, 0.073706, -0.039345, -0.014684,
          0.024507, -0.299502, 0.201854, 0.277127, 0.034779, 0.220274, 0.104025
        ],
        [
          0.007012, -0.071584, -0.086395, -0.059061, -0.08965, 0.015296, -0.153438, -0.001915,
          0.145933, 0.01469, -0.127761, 0.083084, -0.110566, -0.274858, -0.014568, 0.019668,
          0.206966, 0.169449, 0.063432, 0.117648, 0.127967, 0.003702, 0.114274, 0.014309, 0.174463,
          0.162142, -0.013643, -0.326719, -0.146863, -0.054853, 0.054495, 0.180702, -0.363218,
          0.043201, -0.034802, -0.123912, -0.075704, -0.236582, 0.21474, -0.022102, 0.185503,
          0.099667, 0.121862, 0.163704, 0.155887, -0.161687, -0.097334, 0.030763, -0.205484,
          -0.439562, 0.037342, -0.011635, -0.146181, -0.102285, 0.152977, -0.273261, -0.240761,
          -0.140618, 0.196024, -0.053699, 0.09001, 0.121971, -0.339629, 0.094561, -0.017621,
          0.01193, -0.21714, 0.063588, -0.218575, 0.117091, -0.018695, -0.179002, 0.070014,
          -0.053357, 0.003499, -0.25019, -0.032944, -0.212991, -0.062024, -0.25013, 0.148185,
          -0.185438, 0.256884, -0.314036, 0.06041, -0.240804, 0.173866, 0.15247, -0.138455,
          0.096314, -0.0492, 0.029531, 0.055994, -0.244319, -0.062035, 0.24104
        ],
        [
          0.169506, 0.126307, -0.045032, -0.09985, 0.146124, 0.153149, 0.14367, 0.030812, -0.009281,
          -0.182397, -0.309481, 0.030147, -0.021021, -0.149682, -0.222557, 0.188159, -0.155649,
          -0.277742, 0.086252, 0.12746, 0.070327, -0.048305, 0.143559, -0.146805, -0.094759,
          -0.029056, 0.010624, 0.290777, 0.171391, 0.065968, -0.356609, -0.055216, -0.09432,
          -0.199998, 0.317005, -0.235566, 0.220082, 0.101216, 0.083999, -0.052453, 0.1085,
          -0.061012, -0.138422, 0.106143, -0.271411, -0.193037, 0.107744, -0.094444, 0.073874,
          0.185467, 0.139584, -0.093776, -0.443967, 0.135523, -0.015607, 0.279707, 0.036843,
          0.216807, -0.163539, -0.245265, 0.127709, -0.051997, -0.337307, 0.066758, 0.152823,
          0.186819, 0.080904, -0.303642, -0.014426, 0.197015, -0.248703, 0.192315, 0.162555,
          0.092613, 0.026047, 0.240352, 0.017625, -0.15678, 0.052805, 0.145986, 0.153585, 0.121355,
          -0.042397, -0.074664, 0.176848, 0.120258, 0.136204, 0.18477, 0.237072, -0.033761,
          -0.083304, -0.195454, 0.003026, -0.230414, 0.036929, 0.043308
        ],
        [
          -0.21049, -0.079056, -0.262918, -0.469207, 0.253306, -0.083397, -0.290192, 0.102839,
          0.069245, -0.108059, -0.029161, -0.279954, -0.287918, -0.103106, 0.062824, 0.05398,
          0.063532, 0.123122, -0.064829, -0.056241, 0.162794, -0.185694, 0.01925, -0.135643,
          -0.313259, 0.282906, 0.203129, 0.069978, -9.1e-5, 0.01478, -0.287367, -0.052326,
          -0.047564, 0.294326, 0.019613, -0.031376, 0.131776, 0.026501, -0.120426, -0.039806,
          -0.053695, -0.154454, -0.082449, 0.089236, -0.164941, -0.196526, -0.283619, -0.014781,
          0.089245, -0.053258, -0.061735, -0.164145, 0.0836, 0.007389, -0.103268, -0.099473,
          -0.151491, 0.027454, 0.13011, -0.238012, 0.025714, 0.202871, 0.228614, 0.106524, 0.036302,
          -0.100991, -0.227661, 0.086172, -0.105451, 0.02197, 0.238131, -0.019763, 0.012354,
          0.005154, -0.012443, 0.103946, 0.128943, -0.109664, 0.286772, 0.12177, -0.161362,
          -0.223587, -0.185121, -0.235526, -0.189174, 0.125699, -0.026117, -0.117759, 0.235723,
          -0.3261, -0.041788, -0.082822, -0.276138, 0.000215, 0.155301, 0.170821
        ],
        [
          -3e-5, 0.197404, -0.132245, -0.180722, 0.027323, 0.244364, 0.116284, -0.005443, -0.079274,
          0.097219, -0.210166, 0.113318, -0.042996, 0.044449, 0.04898, 0.130743, -0.16061, 0.138247,
          -0.029331, 0.231636, -0.15644, 0.118318, -0.023602, -0.271608, 0.223687, -0.175115,
          -0.145773, 0.196991, 0.140262, 0.041919, 0.079212, 0.064249, -0.166604, -0.105648,
          -0.022201, 0.197496, 0.080114, 0.091219, -0.248223, 0.068552, -0.050641, 0.031767,
          -0.202543, 0.191348, 0.007569, 0.019071, -0.154311, 0.040802, 0.164047, -0.178679,
          -0.224865, -0.05127, -0.006677, 0.084381, 0.021922, -0.078256, -0.248306, 0.132961,
          -0.045348, -0.047753, 0.126465, 0.126397, 0.181903, 0.159407, -0.118664, -0.068333,
          0.156909, 0.134529, 0.049165, 0.258371, -0.152359, -0.073135, -0.21906, 0.073222,
          -0.350693, -0.148838, -0.143151, 0.102263, 0.085489, -0.0341, 0.153665, 0.059034,
          -0.061363, 0.165068, -0.242376, 0.247299, -0.080457, 0.197027, -0.29946, 0.076934,
          0.054715, 0.024323, -0.091013, 0.050352, 0.114795, 0.018598
        ],
        [
          -0.024973, 0.024954, 0.075641, 0.167331, 0.00716, 0.106611, -0.08186, -0.111852, 0.251303,
          0.143596, 0.020807, 0.147267, -0.016349, -0.088473, -0.12929, -0.00715, -0.059455,
          -0.083701, 0.309317, 0.158204, 0.007508, 0.095455, -0.215306, 0.137214, 0.063572,
          -0.227721, 0.157669, 0.100923, 0.207629, -0.034811, 0.061411, -0.076047, 0.301363,
          0.022661, -0.125694, -0.25925, 0.01308, 0.107353, 0.204959, -0.128218, -0.013493,
          -0.022941, 0.208271, 0.173112, 0.055065, -0.023336, -0.155579, -0.150831, -0.185639,
          0.191547, 0.093264, 0.290248, 0.172694, 0.06841, 0.05014, 0.231939, 0.214329, 0.025968,
          -0.062285, -0.129081, 0.143467, 0.03679, -0.288339, 0.053852, -0.026054, -0.170924,
          -0.235535, 0.086831, -0.10461, 0.152846, -0.032242, 0.235988, -0.023374, -0.011725,
          0.086988, -0.084905, -0.179034, -0.20562, 0.022955, -0.001552, -0.023986, -0.214655,
          -0.208882, -0.264397, 0.060835, -0.040379, -0.092329, 0.035424, 0.126412, 0.046581,
          0.034207, 0.200685, -0.043787, -0.012689, 0.195294, 0.216287
        ],
        [
          -0.287397, 0.16963, 0.056521, -0.038971, -0.085229, 0.22307, 0.012462, -0.069355, 0.11113,
          -0.124195, -0.219657, -0.106117, -0.195136, -0.068705, -0.290632, 0.125356, -0.211928,
          -0.007883, 0.245479, 0.017052, -0.044269, -0.086296, -0.226003, -0.222058, -0.099574,
          -0.173083, -0.179541, -0.188566, -0.166529, -0.109656, -0.095584, -0.047984, 0.078597,
          -0.063372, -0.218115, 0.137773, 0.080612, -0.208301, 0.112024, 0.229419, -0.153932,
          -0.061189, 0.032802, 0.153226, -0.159437, -0.004725, -0.169414, -0.104568, 0.124265,
          -0.013995, -0.082316, 0.087983, -0.113776, -0.093267, 0.005964, 0.247188, 0.02735,
          0.072852, -0.194585, -0.002287, -0.020016, -0.140873, -0.283318, -0.034751, -0.287619,
          -0.105128, -0.157241, 0.000926, -0.177002, 0.269591, 0.001701, 0.120555, 0.075734,
          0.00899, -0.320699, -0.02247, 0.015617, 0.117321, -0.098667, -0.238686, -0.205725,
          -0.059525, 0.019554, -0.013783, -0.024345, 0.170734, 0.072402, -0.045446, -0.250032,
          -0.08696, -0.041116, -0.15749, -0.083855, -0.122611, -0.126387, 0.204028
        ],
        [
          -0.309796, -0.048962, 0.024574, 0.28318, -0.214358, -0.064487, 0.335362, 0.193987,
          0.063891, -0.103275, -0.078109, 0.077237, 0.132323, 0.020257, 0.130273, -0.140989,
          0.095149, -0.156775, -0.128298, 0.027122, -0.029272, -0.214392, 0.006265, -0.031418,
          0.01287, 0.0846, -0.118632, 0.011273, 0.120143, -0.207732, -0.305112, -0.240356, 0.009021,
          0.166762, -0.216889, 0.20094, -0.231654, 0.033554, 0.106654, -0.071511, 0.017311,
          0.085943, -0.115665, 0.025959, 0.052377, 0.228463, -0.260751, 0.026252, 0.293425,
          -0.261952, -0.197508, 0.093754, -0.000918, 0.129021, -0.28586, 0.136043, -0.258658,
          -0.098664, -0.125839, 0.074264, 0.031466, 0.014988, -0.245479, 0.042583, -0.080672,
          0.175253, -0.005483, -0.155391, -0.071607, -0.247404, 0.212475, 0.025225, -0.119221,
          0.161988, 0.136105, 0.038317, 0.165751, 0.035544, -0.095024, 0.142072, 0.065694,
          -0.223689, -0.143813, 0.163123, 0.187605, -0.074662, 0.179234, 0.208441, -0.115775,
          0.086018, -0.15019, 0.228965, -0.320873, 0.127358, 0.11636, 0.17003
        ],
        [
          0.094165, 0.213042, -0.160949, 0.188511, -0.102979, -0.072086, 0.077416, -0.194892,
          -0.071316, 0.149638, 0.025512, 0.076272, 0.093692, 0.052268, -0.103819, -0.056891,
          -0.088121, 0.159382, -0.020094, -0.139338, 0.115581, 0.276688, -0.159881, 0.165164,
          -0.087252, 0.047453, -0.234626, 0.082744, 0.183244, 0.035908, 0.21076, 0.22284, -0.030809,
          -0.186281, 0.207171, 0.059767, 0.00101, 0.147918, 0.256551, 0.149841, 0.028727, -0.207722,
          0.320233, 0.171204, -0.09742, -0.032417, 0.262624, 0.043605, -0.055725, 0.017154,
          -0.147142, -0.069984, 0.065511, -0.17863, 0.084165, -0.097618, 0.083561, 0.085055,
          -0.111337, -0.083633, 0.114498, -0.119425, 0.03088, 0.077694, 0.017038, -0.225687,
          -0.100328, -0.018665, 0.2231, 0.058645, -0.093952, 0.067114, -0.10927, 0.106601, -0.15694,
          0.248253, -0.103531, -0.030027, -0.23798, 0.256288, 0.030178, 0.137826, -0.29138,
          0.171252, -0.246703, 0.23665, -0.07116, -0.289089, -0.264227, -0.103913, 0.049304,
          -0.175289, 0.115184, -0.081284, -0.114288, -0.060177
        ],
        [
          -0.104012, 0.099035, -0.124415, -0.246189, 0.103982, 0.206843, -0.26043, -0.153593,
          0.1004, -0.015749, -0.114187, -0.152857, 0.153561, 0.080537, -0.264895, -0.114506,
          -0.156979, 0.183844, -0.231406, -0.211733, 0.059743, 0.019875, 0.067016, -0.031985,
          -0.156344, -0.341164, 0.039654, 0.192243, -0.020456, 0.074468, 0.130327, -0.162797,
          -0.159607, 0.225831, -0.340927, -0.303757, -0.274602, -0.425046, -0.320186, 0.146949,
          -0.065318, 0.183396, 0.138906, 0.046703, 0.00717, 0.031767, 0.007866, -0.14627, 0.122653,
          -0.074783, -0.00071, 0.075455, -0.037624, 0.152913, 0.035631, 0.018993, 0.298548,
          -0.022437, 0.234878, 0.219685, 0.002251, -0.192133, 0.101889, 0.130553, 0.073546,
          -0.008392, 0.081454, 0.111506, 0.170959, -0.072114, -0.153762, -0.260922, -0.162422,
          0.159525, -0.121444, -0.006576, 0.007463, 0.033676, 0.047236, 0.21521, -0.08805, -0.00295,
          -0.141017, 0.172098, 0.220222, 0.057068, -0.039205, -0.005999, -0.242946, 0.223969,
          -0.011407, -0.095068, 0.042652, -0.044205, -0.062506, 0.12402
        ],
        [
          -0.234829, -0.070315, -0.192648, -0.248473, -0.138355, -0.110803, 0.055028, -0.281687,
          -0.009174, -0.103882, 0.139573, 0.171726, 0.209799, -0.301969, -0.279292, -0.181523,
          0.072989, -0.235269, 0.147597, 0.057042, 0.003017, 0.135178, -0.216442, -0.236671,
          0.168556, 0.019624, 0.043051, -0.047405, -0.261576, 0.100095, 0.129418, 0.232175,
          -0.086888, 0.101611, -0.017976, -0.269354, 0.157397, 0.011665, 0.1386, 0.13562, -0.175687,
          0.093846, 0.126909, 0.066696, 0.174661, 0.096804, -0.015746, 0.169531, -0.306434,
          0.069924, -0.000132, 0.162786, 0.12786, -0.159095, 0.075358, 0.043691, -0.183361,
          0.115735, 0.199586, -0.283229, 0.028244, -0.017314, 0.208462, 0.148438, 0.130843,
          -0.002955, 0.283498, 0.117949, -0.045072, 0.089458, -0.152858, -0.002133, -0.210682,
          -0.297099, -0.241985, -0.016993, -0.128773, 0.108626, -0.067865, -0.076365, 0.116552,
          0.06085, 0.029416, -0.038319, 0.188308, -0.010141, -0.313308, -0.185535, 0.168427,
          -0.29858, 0.221353, -0.084567, 0.279711, 0.235904, 0.294649, -0.114934
        ],
        [
          0.175417, -0.077509, -0.035316, 0.029782, 0.163752, 0.243739, 0.124648, 0.091026,
          -0.163917, 0.062627, -0.007367, -0.178186, -0.11217, -0.077838, -0.009144, -0.132902,
          -0.159967, -0.227264, 0.162893, 0.034188, -0.170911, -0.122574, -0.14672, 0.078034,
          0.101807, -0.201645, 0.079984, 0.228084, 0.225399, 0.030163, 0.047263, -0.315501, 0.24855,
          -0.19653, 0.052583, -0.124137, 0.168845, 0.024164, -0.057749, -0.080804, -0.188645,
          -0.255565, 0.047431, -0.095311, -0.305341, 0.291641, 0.327857, 0.221279, 0.180213,
          -0.120277, 0.017009, 0.101386, 0.119188, -0.160565, 0.128868, -0.053411, -0.123826,
          0.047288, -0.044743, 0.105814, -0.117642, 0.206525, -0.246634, -0.233167, 0.043198,
          0.240193, 0.130607, 0.083835, 0.015726, -0.143686, -0.056053, 0.05921, -0.214755,
          -0.059738, 0.107954, -0.106946, -0.163364, -0.094032, 0.079421, -0.219023, 0.134756,
          -0.095367, 0.152852, -0.007921, 0.08102, -0.049341, -0.038476, 0.150188, 0.029791,
          0.116918, 0.117336, 0.03332, 0.160246, 0.112575, 0.05717, 0.123475
        ],
        [
          0.079662, 0.057438, 0.017491, 0.124191, -0.236045, 0.16069, 0.10023, -0.237567, 0.148865,
          -0.110298, -0.170327, 0.050581, -0.207667, 0.093512, 0.088879, -0.114558, -0.029177,
          -0.193478, 0.037673, 0.203872, 0.029246, -0.235822, 0.082986, -0.012416, 0.107057,
          -0.289179, 0.111292, 0.042342, 0.199066, 0.002311, 0.074778, 0.132544, -0.102094,
          0.190735, 0.086419, -0.300891, -0.153966, 0.102316, -0.076875, 0.090111, -0.080887,
          0.022887, -0.279067, 0.16917, 0.167023, 0.229019, 0.142534, -0.193592, 0.119031,
          -0.122387, -0.250269, -0.074698, -0.052296, 0.134339, 0.066641, 0.078591, -0.052593,
          0.195961, -0.002849, -0.157404, -0.078567, 0.09619, 0.04768, -0.200034, -0.318546,
          0.073045, 0.103242, -0.133502, 0.209427, -0.289403, -0.150947, 0.187317, -0.141283,
          0.037823, -0.038203, -0.236828, 0.190684, -0.032583, 0.238812, -0.197959, -0.151799,
          -0.309636, 0.063835, -0.168705, 0.095288, -0.095275, 0.195735, -0.096649, 0.210653,
          0.132279, 0.099005, 0.184885, 0.057629, 0.030785, -0.151771, -0.265242
        ],
        [
          0.25383, -0.05265, 0.129977, -0.028129, -0.180859, -0.261445, 0.129188, -0.046719,
          -0.172291, -0.096671, -0.257513, 0.066502, -0.002815, 0.209595, 0.013138, -0.143286,
          -0.354146, -0.301108, 0.11006, -0.170238, -0.001545, -0.058501, -0.109522, 0.20211,
          0.149312, -0.407952, 0.010429, -0.132057, -0.155694, 0.217499, -0.290293, 0.063848,
          0.095708, 0.151277, 0.025652, -0.30676, -0.104438, 0.075219, 0.002909, -0.166193,
          -0.242023, -0.077123, -0.115311, -0.182881, 0.055195, 0.099116, 0.214287, -0.115154,
          -0.080136, -0.167327, 0.090665, 0.09969, -0.358271, 0.136591, -0.251629, -0.031002,
          0.037718, 0.1922, 0.138286, 0.124595, 0.003998, 0.235294, -0.058614, 0.086492, -0.138531,
          0.169306, -0.096489, -0.008878, -0.098943, 0.074552, -0.257845, -0.336789, -0.205915,
          -0.068336, 0.098929, -0.281052, 0.112685, 0.018726, -0.219648, 0.206949, -0.078569,
          -0.137608, 0.04333, 0.095526, -0.21757, 0.165467, 0.212677, 0.127473, -0.349394, 0.015762,
          -0.287841, -0.166796, -0.143626, -0.00243, 0.113012, 0.103665
        ],
        [
          0.084579, -0.029211, -0.137548, -0.061089, 0.200281, -0.071594, 0.043907, 0.069583,
          0.05954, 0.081865, -0.112995, 0.101492, 0.207517, 0.115332, -0.114247, 0.012941, 0.105267,
          -0.29394, 0.029859, 0.055667, 0.12759, -0.149899, 0.084002, 0.136056, -0.03482, -0.328827,
          0.220467, -0.147794, 0.072103, 0.089231, -0.09549, 0.093951, 0.003968, -0.152891,
          -0.169858, -0.076237, -0.150549, -0.167533, 0.234657, -0.16072, 0.02385, -0.188276,
          0.078187, -0.223429, 0.187309, -0.098954, -0.286743, -0.154641, -0.27401, 0.031407,
          -0.106717, 0.188836, -0.022271, -0.079189, -0.021098, 0.129939, -0.208274, -0.04265,
          -0.55935, 0.197422, 0.059803, 0.017093, 0.210709, 0.08775, 0.129061, 0.130282, -0.279684,
          -0.073633, -0.091931, -0.180774, -0.056275, 0.098132, -0.095783, -0.079892, -0.029404,
          0.122322, 0.030327, -0.05397, -0.165466, -0.146397, 0.083351, 0.214845, -0.310187,
          0.161313, -0.037792, 0.112144, -0.073305, -0.218802, -0.119441, 0.080631, -0.381744,
          -0.47967, -0.319021, 0.054192, -0.178848, 0.060578
        ],
        [
          0.213813, -0.208504, 0.014603, -0.033691, 0.154197, -0.064105, 0.059661, 0.103511,
          0.169444, 0.079606, -0.03592, 0.036617, 0.142313, -0.016933, -0.127757, 0.154056,
          0.087462, 0.076154, -0.239029, 0.060034, -0.098752, 0.081287, -0.298939, 0.086794,
          0.24457, -0.293646, 0.160016, -0.087442, 0.138596, 0.071612, 0.048985, 0.069506, 0.178968,
          -0.069599, -0.204678, 0.047461, 0.081492, 0.123195, 0.097158, -0.162642, 0.080968,
          -0.202278, 0.023661, -0.17834, -0.146713, -0.123951, -0.172602, 0.063743, -0.177677,
          -0.032854, -0.104738, -0.064634, -0.112886, -0.194797, 0.040376, 0.070114, 0.04023,
          0.065804, -0.289189, 0.11807, 0.022464, 0.019563, -0.263572, -0.027847, -0.197591,
          -0.075836, 0.034364, 0.04097, 0.025341, 0.082183, 0.126089, 0.068113, 0.214524, -0.232731,
          -0.19494, -0.263991, 0.068903, 0.105917, -0.111504, 0.176514, -0.086584, 0.163386,
          -0.119965, -0.254836, -0.205873, -0.208083, -0.094901, -0.099061, 0.142261, 0.044554,
          -0.256012, 0.047905, 0.065386, -0.138609, -0.017633, -0.227714
        ],
        [
          -0.06986, 0.031082, -0.161614, -0.030791, 0.067988, 0.02747, -0.168622, -0.154315,
          0.257951, -0.013498, 0.000712, -0.126232, -0.28874, 0.096645, 0.2091, -0.006975, 0.098172,
          0.233481, -0.018632, -0.10641, 0.006503, -0.299601, 0.275254, 0.24995, 0.043333,
          -0.163097, 0.050799, -0.076207, 0.094378, 0.012254, 0.016753, -0.100155, 0.04289,
          0.088115, 0.063045, -0.137189, 0.121383, 0.297148, 0.029865, -0.147462, -0.347221,
          0.126791, 0.102236, 0.095065, -0.137187, -0.272279, -0.06352, 0.010763, 0.20309,
          -0.169073, -0.156316, 0.111839, -0.010004, 0.171592, 0.11091, 0.103095, -0.151841,
          -0.108017, 0.163644, 0.08526, -0.369154, -0.170508, -0.296943, 0.198662, -0.088348,
          0.000115, -0.065676, -0.029285, -0.024526, 0.04425, -0.297771, 0.039067, -0.387938,
          0.111259, 0.208628, -0.031233, -0.009082, -0.323324, -0.15568, 0.065728, 0.220848,
          0.075833, 0.070098, 0.063756, -0.084386, -0.362065, -0.018242, 0.079915, -0.120517,
          0.195312, -0.243455, 0.048791, -0.149423, -0.05147, 0.073871, -0.035778
        ],
        [
          0.115148, 0.114403, 0.11595, -0.343366, -0.056561, -0.203566, 0.230091, 0.15023, 0.00851,
          0.138547, 0.020954, 0.051244, -0.236448, 0.056788, -0.099691, 0.151964, 0.062878,
          0.031902, -0.191285, 0.015962, -0.324005, -0.14515, -0.129558, 0.165422, 0.017818,
          -0.14626, -0.168917, 0.082801, -0.001854, -0.215078, 0.154156, 0.005293, 0.095736,
          0.183274, -0.022786, 0.27963, -0.407421, 0.175724, -0.164998, 0.076696, 0.117136,
          0.146582, 0.158273, 0.06917, -0.267972, -0.246606, -0.318632, 0.080494, -0.05035,
          0.200431, 0.041814, 0.091336, -0.1785, 0.101392, 0.133785, -0.0661, 0.009283, 0.15246,
          -0.027684, 0.055252, -0.248813, -0.450508, -0.26439, -0.042751, -0.4991, -0.242943,
          0.218634, 0.057727, 0.127197, -6.6e-5, -0.081827, -0.131846, 0.053119, -0.131697,
          0.126838, -0.286442, -0.000615, 0.048334, -0.196522, -0.012577, 0.062213, 0.008041,
          -0.150219, 0.126519, -0.358891, 0.035035, 0.195406, -0.375742, -0.063448, -0.028716,
          -0.395873, -0.006476, 0.118442, 0.030765, 0.090246, 0.160729
        ],
        [
          0.177883, 0.156656, -0.023899, 0.066738, -0.19108, -0.040175, -0.172815, 0.098176,
          -0.045631, 0.023754, -0.09139, -0.293439, 0.154357, 0.172323, 0.23953, -0.033886,
          0.132119, -0.292288, -0.545779, -0.20719, 0.180931, -0.340961, -0.028032, -0.205705,
          -0.113644, -0.243289, 0.139976, -0.018078, 0.218978, -0.44819, -0.544367, -0.284719,
          0.04275, 0.192179, -0.0798, 0.07869, -0.14218, -0.312251, -0.046971, 0.027987, 0.011079,
          -0.109222, -0.069888, 0.355123, 0.213544, 0.233846, 0.086069, -0.254998, -0.012977,
          0.089695, -0.073999, 0.085268, -0.243561, 0.209205, 0.035204, 0.173971, 0.05953, 0.254147,
          -0.122286, -0.073291, -0.30564, 0.026186, -0.238209, 0.124757, 0.074242, 0.043604,
          -0.311262, -0.142559, 0.045586, -0.421924, -0.285538, -0.545227, 0.345625, 0.066468,
          -0.017092, 0.015511, -0.082176, -0.174403, -0.026689, -0.265469, 0.082821, -0.46437,
          0.140284, -0.339395, -0.288775, -0.152603, -0.373952, 0.179985, -0.050092, 0.073913,
          -0.193684, -0.213007, -0.203084, -0.091621, 0.000187, 0.122869
        ],
        [
          0.091335, -0.054511, -0.315568, 0.107242, 0.104356, -0.155409, 0.218987, -0.000516,
          -0.075066, 0.07281, 0.174332, 0.068678, -0.023442, -0.16485, 0.180618, -0.298858,
          -0.012789, -0.084733, -0.058426, 0.048485, 0.227019, -0.248363, -0.269586, -0.015948,
          0.189799, 0.028701, -0.035757, 0.057096, 0.132556, 0.141716, 0.11809, -0.179653, 0.05393,
          -0.008763, 0.187338, 0.148563, 0.042172, 0.08053, -0.200088, -0.06868, 0.131537, 0.157727,
          -0.046898, -0.166845, -0.12626, 0.013622, 0.100631, -0.130901, -0.13267, 0.098927,
          0.08632, -0.046228, -0.06988, 0.029549, -0.127353, 0.080999, 0.093711, 0.126223, 0.065157,
          0.141702, -0.269515, -0.025027, -0.299787, -0.144634, 0.06198, 0.134709, -0.378117,
          -0.263873, 0.128233, -0.039239, 0.062017, 0.164683, -0.063082, -0.326569, -0.002486,
          0.073578, 0.078396, -0.52925, 0.074206, -0.132546, 0.174012, -0.206779, 0.252362,
          -0.199563, -0.090317, -0.318452, -0.00157, 0.162813, 0.116927, -0.007833, 0.01074,
          0.092403, 0.161348, 0.083205, -0.192817, 0.023054
        ],
        [
          0.075371, -0.259809, 0.067432, -0.079924, -0.100114, -0.058879, -0.070938, -0.21801,
          0.039158, -0.033598, 0.023812, -0.146912, 0.07035, 0.306343, 0.169173, 0.248579, 0.083269,
          0.16786, -0.060179, -0.30643, -0.267399, 0.038679, 0.173461, 0.182508, 0.177445, -0.12686,
          -0.13522, -0.386114, -0.192716, -0.334691, -0.586463, -0.349797, -0.07791, 0.159161,
          0.370254, 0.36388, 0.095843, -0.076365, -0.098209, -0.030278, -0.27529, -0.352368,
          0.122957, -0.028709, 0.008869, 0.03744, -0.395827, -0.356947, -0.339072, -0.085429,
          -0.191681, 0.171384, -0.363378, -0.042973, 0.005791, 0.23381, -0.228072, 0.059477,
          0.229544, 0.098783, -0.277479, 0.083824, -0.263685, 0.093774, -0.247843, -0.071071,
          0.207674, -0.054768, 0.029906, -0.005722, 0.124214, -0.280949, -0.048853, -0.282761,
          0.392833, -0.078956, 0.202308, -0.602805, -0.278576, -0.241555, -0.018823, -0.43368,
          0.337756, -0.421135, -0.398368, 0.246772, -0.100474, 0.237784, -0.244859, 0.072468,
          -0.615303, -0.341095, 0.085403, -0.159352, -0.121617, -0.012101
        ],
        [
          -0.206814, 0.283251, -0.636956, 0.029497, 0.044428, 0.026061, 0.433502, -0.321917,
          0.002809, -0.635827, 0.177945, 0.425308, -0.075562, 0.137608, -0.388394, 0.005154,
          -0.392762, 0.348942, 0.053977, 0.073158, -0.134993, -0.244979, -0.375386, -0.366016,
          0.365185, 0.12319, -0.071872, -0.017485, 0.262279, -0.182664, -0.219273, 0.22573, -0.0661,
          -0.315829, -0.488629, 0.06644, -0.416353, 0.236909, 0.151292, 0.153513, -0.00101,
          -0.265236, 0.083254, 0.114975, -0.537882, -0.032912, 0.181669, -0.251825, 0.008256,
          -0.179043, -0.275668, -0.104686, -0.331624, -0.139178, 0.128648, 0.018561, -0.255812,
          0.201196, 0.009633, 0.25406, -0.49096, 0.029367, 0.19509, 0.143926, -0.802383, -0.726561,
          -0.029628, 0.200842, -0.329511, -0.145237, 0.009544, 0.247268, 0.149744, -0.292356,
          0.137021, 0.231977, -0.543727, 0.135308, -0.162075, 0.082323, -0.052504, -0.194483,
          0.07458, -0.165208, 0.259549, 0.04494, -0.574679, 0.002983, 0.011092, -0.02037, 0.260022,
          0.204798, 0.026732, 0.486818, -0.040995, -0.568643
        ],
        [
          0.034195, 0.09526, 0.004478, -0.207858, 0.000669, 0.070653, -0.125328, 0.159263, 0.043746,
          -0.095193, 0.265482, -0.075587, 0.186386, 0.102737, 0.001552, -0.11253, 0.172397,
          -0.051575, -0.342049, -0.227404, -0.028511, 0.141367, 0.192473, 0.148493, -0.078298,
          0.068552, -0.285595, 0.107968, 0.156065, 0.00398, 0.082464, -0.056998, -0.028198,
          0.067764, -0.10165, -0.032365, -0.125763, 0.106735, -0.016208, -0.222748, 0.099903,
          0.116444, -0.014619, -0.024795, -0.167918, 0.012801, 0.001051, 0.06114, 0.014128,
          0.026721, -0.098678, 0.17542, -0.179942, 0.2688, -0.047757, -0.170794, 0.035303, 0.008235,
          0.056085, -0.336777, -0.186904, 0.184037, -0.302975, 0.074299, -0.356253, 0.041741,
          0.117947, 0.054657, -0.012305, -0.291483, -0.195785, -0.166961, 0.120732, 0.178458,
          0.062263, 0.171035, 0.164466, 0.01075, 0.009834, 0.124585, 0.102939, -0.03668, -0.241912,
          0.03592, 0.045032, 0.17669, 0.064351, -0.019419, 0.157877, -0.097136, -0.034771,
          -0.341713, 0.013938, 0.152667, -0.127533, 0.174753
        ],
        [
          0.052046, 0.157336, -0.164192, -0.007936, -0.060716, 0.290802, -0.112756, -0.163383,
          0.395825, -0.706531, 0.156053, -0.592243, 0.198236, -0.088768, -0.586012, -0.446848,
          -0.572525, -0.086299, 0.162104, 0.124322, -0.330521, -0.859067, 0.071193, 0.321352,
          0.320888, 0.064869, -0.128331, 0.076876, 0.044554, -0.461711, 0.105352, -0.613563,
          0.322524, -0.143049, 0.28698, 0.097777, -0.050731, 0.367066, -0.116136, 0.125321,
          -0.225676, -0.605919, 0.198149, 0.282078, 0.241102, 0.043544, 0.103992, -0.604589,
          0.013156, 0.065509, -0.738665, -0.093804, -0.367192, 0.155336, 0.063779, 0.203853,
          -0.02603, 0.154325, 0.142971, 0.055265, -0.859912, -0.154787, -0.255887, 0.232532,
          -0.416765, -0.120329, 0.589226, -0.205324, 0.060312, 0.081507, 0.3181, -0.580605,
          -0.065736, -0.205227, -0.245535, -0.504131, -0.713817, -0.476248, 0.194965, 0.277569,
          0.522874, -0.089851, 0.043756, 0.025117, -0.704321, -0.315015, -0.849815, -0.401612,
          0.532991, -0.049527, -0.873843, 0.08837, 0.063239, 0.147157, -0.050157, -0.190988
        ],
        [
          0.188716, 0.041923, -0.194612, 0.011354, -0.199338, 0.052268, -0.239011, 0.130422,
          0.01066, 0.082424, 0.189862, -0.362598, 0.001579, -0.075178, 0.015062, -0.101425,
          0.212034, 0.103183, 0.062659, -0.10374, 0.141858, 0.209974, 0.097901, -0.097454, 0.133688,
          -0.296666, -0.1963, -0.337171, -0.067515, 0.01913, -0.297405, -0.229942, 0.045483,
          -0.015458, -0.0882, -0.221859, 0.085933, -0.112665, -0.304473, -0.19364, 0.145325,
          0.014495, 0.120562, -0.019564, 0.042543, -0.210904, 0.022056, 0.111054, -0.00234,
          0.144007, 0.04226, -0.164286, 0.096699, -0.058567, -0.089457, -0.090687, -0.137143,
          0.010506, -0.286176, -0.015097, 0.044625, -0.284196, -0.246745, 0.056297, -0.190326,
          0.027312, 0.054345, 0.15587, 0.03102, -0.027372, 0.108282, -0.309383, -0.052089, 0.100958,
          -0.00584, 0.067152, 0.100453, 0.120551, 0.138665, -0.072453, 0.055465, 0.066324, -0.06911,
          0.024566, 0.027829, 0.002796, -0.027993, -0.202124, 0.040811, -0.143922, 0.119832,
          -0.168378, -0.344603, -0.261357, 0.047587, 0.047673
        ],
        [
          0.0, -0.0, 0.0, -0.0, -0.0, -0.0, 0.0, 0.0, 5e-6, 0.0, -0.0, -0.0, 0.0, -3e-6, 0.0, 2e-6,
          -0.0, -2e-6, -3e-6, -0.0, -0.0, -3e-6, 0.0, -0.0, 0.0, 0.0, -0.0, 1e-6, 0.0, 0.0, -0.0,
          -0.0, 5e-6, 0.0, 2e-6, -0.0, -0.0, 0.0, 0.0, -0.0, -0.0, 0.0, 0.0, -0.0, -0.0, -0.0, 0.0,
          -0.0, -1e-6, 0.0, 0.0, 2e-6, 0.0, -0.0, -0.0, -0.0, 0.0, 0.0, -0.0, -0.0, 7e-6, 0.0, -0.0,
          0.0, -0.0, -0.0, 0.0, -2e-6, -0.0, 0.0, 0.0, 2e-6, 0.0, 0.0, 0.0, 0.0, -0.0, 0.0, -0.0,
          0.0, -0.0, 0.0, 1e-6, -0.0, 0.0, 4e-6, -0.0, 0.0, -0.0, 0.0, 0.0, -0.0, 0.0, -0.0, 0.0,
          0.0
        ],
        [
          -0.145658, 0.308857, 0.203564, -0.041759, 0.229025, 0.034305, -0.076052, 0.309484,
          -0.206124, -0.308346, 0.089404, -0.083593, 0.101621, 0.231381, -0.325879, 0.166879,
          0.029977, -0.049192, -0.042058, 0.179717, -0.522002, 0.144821, 0.143907, 0.003302,
          0.030188, -0.244962, -0.079446, -0.080483, 0.196208, -0.24924, -0.111152, 0.19819,
          -0.125343, 0.410497, -0.099794, 0.105305, -0.098214, -0.187504, 0.013618, 0.121808,
          0.142838, -0.185318, -0.025301, 0.272073, -0.033279, 0.172953, 0.144905, -0.007143,
          -0.287481, -0.188774, -0.298105, -0.037469, 0.009056, -0.186715, -0.03641, 0.046171,
          -0.014965, 0.291076, -0.257985, 0.241765, -0.103575, -0.169986, -0.225114, 0.179596,
          0.153188, 0.152746, -0.089295, -0.405182, 0.031739, -0.069145, 0.043515, -0.203159,
          0.081654, 0.124632, -0.076626, 0.273355, -0.325557, -0.012153, -0.037784, -0.001929,
          0.181404, 0.039395, -0.177206, -0.021015, -0.45226, 0.152273, -0.386642, -0.089902,
          0.056499, 0.024689, -0.408012, 0.057943, -0.055439, 0.050047, 0.041279, 0.080384
        ],
        [
          0.053871, 0.128657, -0.058141, 0.261979, -0.102484, -0.03051, -0.017074, -0.147487,
          0.177606, 0.073945, 0.179296, -0.135897, -0.246182, 0.048387, -0.209661, -0.115545,
          0.025637, -0.2166, 0.167132, -0.419258, -0.070014, 0.082334, -0.01991, -0.359681,
          -0.095843, -0.102849, 0.267455, -0.060372, 0.17815, 0.339464, -0.043916, 0.134397,
          -0.062108, 0.327097, -0.313259, 0.081904, 0.083787, -0.239408, 0.150871, 0.092779,
          -0.212668, -0.075818, 0.202248, 0.11833, 0.433569, 0.274649, 0.290397, 0.267469,
          -0.075946, -0.088796, 0.204895, 0.107958, -0.127144, 0.001056, 0.263877, 0.021179,
          -0.089552, -0.024114, -0.180434, -0.001226, 0.020644, -0.176883, 0.202578, 0.217431,
          0.22591, 0.259873, -0.045394, 0.011716, -0.267285, -0.064532, 0.017112, 0.027174,
          -0.017176, -0.164154, -0.094336, 0.155225, 0.142326, -0.065406, 0.194243, 0.155326,
          -0.06099, -0.068823, 0.042877, 0.167725, -0.076608, -0.234557, -0.177795, 0.091816,
          0.039034, 0.17438, -0.05618, 0.120439, -0.191544, -0.313147, -0.164751, -0.16184
        ],
        [
          -0.273915, -0.326792, 0.040548, 0.016744, -0.42005, -0.063441, 0.273488, 0.032212,
          0.143249, 0.012173, 0.182204, 0.180968, 0.053343, 0.191875, -0.124996, -0.347356,
          0.150872, 0.057262, -0.311413, -0.01019, -0.360093, -0.111996, 0.150951, -0.078915,
          -0.081247, -0.198359, -0.328316, -0.218037, 0.229574, 0.472221, 0.11044, -0.689459,
          0.074006, 0.064894, 0.16524, -0.180012, -0.016054, -0.198438, -0.284922, -0.486387,
          -0.218222, 0.027614, 0.084516, 0.002553, -0.173563, 0.499657, 0.050572, 0.188747,
          0.110393, -0.021755, 0.190578, -0.339361, -0.193583, -0.131796, -0.490189, -0.035424,
          0.019638, 0.16039, -0.038449, -0.349016, 0.131356, 0.231965, -0.191322, 0.130644,
          -0.396669, 0.146075, 0.238405, -0.249467, 0.094416, 0.212225, 0.055533, -0.115798,
          -0.224436, -0.358984, 0.026313, -0.386752, 0.055081, 0.135207, 0.034915, -0.142903,
          0.178919, -0.046068, -0.072293, -0.147827, 0.143371, -0.022123, 0.060316, 0.079456,
          -0.130802, -0.132447, -0.033713, -0.201206, -0.696374, 0.129156, 0.244945, 0.06353
        ],
        [
          0.142118, -0.14698, 0.220917, -0.131536, 0.189949, 0.21995, 0.03762, 0.161761, -0.032861,
          -0.072107, -0.113385, -0.034083, -0.191717, 0.054367, 0.284944, -0.199597, 0.131516,
          0.093097, 0.144274, 0.163019, 0.003032, 0.18704, 0.068837, -0.267785, -0.00067, 0.037585,
          -0.129645, 0.03177, 0.049283, -0.165724, 0.003563, 0.065134, -0.002022, -0.222106,
          -0.328194, -0.180172, 0.144306, -0.229908, 0.086494, -0.243077, -0.155856, 0.138751,
          0.093603, -0.139489, -0.103561, -0.2532, -0.136632, 0.073473, -0.281731, -0.094901,
          -0.039715, 0.144697, 0.197062, -0.201433, 0.122394, 0.089746, -0.070107, 0.088544, -9e-5,
          0.140984, 0.058561, -0.046234, 0.108902, -0.062436, -0.02104, -0.090383, 0.007826,
          -0.147544, -0.089119, 0.030798, -0.16357, -0.177494, -0.121543, -0.220649, -0.25463,
          -0.194928, 0.14439, -0.243205, 0.183034, 0.037963, 0.012867, 0.009724, -0.039233,
          0.024335, -0.283929, -0.16728, 0.192708, 0.181318, 0.112352, -0.029919, 0.028057,
          -0.059763, -0.098258, -0.162688, 0.097857, -0.199732
        ],
        [
          -0.076159, 0.160238, -0.135222, -0.182468, -0.142919, 0.217812, -0.059971, -0.083143,
          0.153568, 0.121779, -0.155407, 0.106782, 0.117816, 0.039635, -0.078148, 0.116889,
          0.009946, -0.181183, -0.154838, -0.191639, -0.201703, 0.097859, -0.339069, -0.168407,
          0.042339, -0.287805, 0.171727, -0.157281, -0.103308, -0.113163, -0.177226, -0.299973,
          0.125205, 0.165468, -0.244412, 0.082104, 0.112729, 0.12356, -0.016031, -0.213356,
          -0.155245, 0.048351, 0.148271, -0.107618, -0.127139, 0.182285, 0.106868, 0.170602,
          0.058384, -0.054567, 0.017304, 0.095232, -0.170816, 0.04477, 0.081882, 0.006418, 0.084051,
          0.068068, 0.187518, -0.284272, -0.067575, 0.008608, -0.154381, 0.117529, 0.096587,
          -0.192376, -0.003179, -0.043142, 0.006969, 0.140426, 0.13794, 0.042496, 0.054985,
          -0.055859, 0.137217, 0.057286, 0.07734, 0.110176, -0.098194, 0.107859, -0.03223,
          -0.121387, -0.125349, 0.180574, 0.098666, 0.087701, 0.103684, 0.000314, 0.215662,
          0.009726, -0.226844, -0.219745, 0.093354, 0.076001, 0.025685, -0.264793
        ],
        [
          0.0, -6e-6, -0.0, 3e-6, -0.0, 0.0, -0.0, -0.0, -0.0, 2e-6, -1e-6, 0.0, 0.0, 0.0, 0.0, 0.0,
          -0.0, 0.0, -0.0, 0.0, -0.0, -0.0, 0.0, 0.0, 0.0, 0.0, -0.0, -0.0, 0.0, -0.0, 0.0, -5e-6,
          0.0, -1e-6, 0.0, 0.0, -0.0, -0.0, -0.0, -0.0, -0.0, -0.0, -0.0, 0.0, 0.0, 0.0, -0.0, -0.0,
          -1e-6, -0.0, 1e-6, -0.0, 0.0, 0.0, -0.0, -0.0, 0.0, -0.0, -0.0, -0.0, 0.0, 4e-6, -0.0,
          0.0, 0.0, 3e-6, -0.0, -0.0, -0.0, -0.0, 0.0, -0.0, 0.0, 0.0, -0.0, -0.0, 0.0, 0.0, -0.0,
          2e-6, -0.0, -0.0, -0.0, 1e-6, 0.0, -0.0, 0.0, -0.0, 0.0, 0.0, -5e-6, 2e-6, -0.0, 0.0,
          -0.0, 0.0
        ],
        [
          0.0, -0.0, 0.0, 0.0, 1e-6, -0.0, -0.0, 1e-6, -0.0, 0.0, -0.0, -0.0, 0.0, -0.0, 0.0, -5e-6,
          0.0, -0.0, -0.0, 1e-6, -0.0, 0.0, 0.0, 0.0, 4e-6, -0.0, -6e-6, 0.0, -0.0, 0.0, 0.0, 0.0,
          0.0, 0.0, 0.0, -6e-6, -0.0, 0.0, -0.0, -0.0, -0.0, -0.0, -0.0, 0.0, -0.0, -5e-6, -0.0,
          -0.0, -0.0, -0.0, -1e-6, -0.0, -0.0, -0.0, 0.0, -0.0, 1e-6, 0.0, 0.0, -0.0, 0.0, -0.0,
          -0.0, 0.0, -0.0, -0.0, -0.0, -0.0, -0.0, 0.0, 0.0, -0.0, 0.0, -0.0, 0.0, 0.0, 0.0, 0.0,
          0.0, -0.0, -0.0, -0.0, 0.0, 0.0, 1e-6, -0.0, -0.0, 0.0, 0.0, -4e-6, -0.0, -0.0, -1e-6,
          0.0, 0.0, -0.0
        ],
        [
          0.078722, -0.082874, 0.091383, -0.107753, -0.108404, -0.070546, -0.233455, -0.172763,
          0.076714, 0.130131, 0.100625, 0.098424, -0.181421, -0.097645, -0.015859, -0.177074,
          0.001846, 0.036284, -0.18256, -0.065856, 0.125364, 0.127317, -0.218518, 0.122255,
          0.180611, -0.183323, -0.088016, -0.027569, 0.162872, 0.205063, -0.229136, -0.144251,
          0.017934, -0.006873, -0.257551, 0.166151, 0.095698, 0.094878, 0.128561, 0.122318, -0.1104,
          0.040753, -0.092758, 0.102985, -0.20398, 0.100419, -0.238265, -0.165431, -0.266286,
          -0.209675, 0.130243, 0.132662, -0.026107, -0.15948, -0.124757, -0.046176, -0.161319,
          0.110415, -0.343676, -0.161726, -0.132171, -0.100868, 0.057272, 0.015172, -0.250956,
          -0.21137, -0.190253, -0.152521, -0.079073, 0.1651, 0.036015, 0.029552, -0.046179,
          -0.069222, 0.025055, 0.093858, 0.10381, -0.289461, 0.002956, -0.021846, 0.130778,
          0.057825, 0.007202, -0.248684, 0.062304, -0.26304, -0.073895, -0.164634, 0.052191,
          -0.139203, -0.223536, 0.133254, -0.287789, -0.012784, -0.008131, -0.268796
        ],
        [
          0.0, -0.0, -0.0, 0.0, 0.0, 0.0, -0.0, -6e-6, 0.0, -0.0, 0.0, -0.0, 0.0, 0.0, -0.0, 0.0,
          -0.0, 0.0, 0.0, 0.0, -0.0, -0.0, -0.0, 0.0, 0.0, -0.0, -0.0, 0.0, -0.0, 0.0, 2e-6, -0.0,
          0.0, -0.0, 0.0, 0.0, 0.0, 8e-6, 0.0, 0.0, 0.0, -0.0, -0.0, -0.0, -0.0, 0.0, 0.0, -0.0,
          -0.0, -6e-6, 0.0, -0.0, 0.0, -7e-6, 0.0, -0.0, 0.0, -0.0, -0.0, 0.0, -0.0, 0.0, 0.0, 0.0,
          -0.0, 0.0, -0.0, -0.0, 0.0, -0.0, 0.0, 0.0, 0.0, 0.0, 0.0, 0.0, 0.0, -0.0, 0.0, -0.0,
          -0.0, 0.0, -0.0, -0.0, 0.0, -0.0, -0.0, 0.0, 0.0, 0.0, 0.0, -0.0, 0.0, 0.0, -0.0, -0.0
        ],
        [
          0.0, -0.0, 0.0, 0.0, 1e-6, -0.0, -0.0, 0.0, 0.0, 0.0, 0.0, 0.0, 0.0, -0.0, -0.0, -0.0,
          0.0, 0.0, -0.0, 0.0, -0.0, 0.0, -2e-6, 0.0, -2e-6, 0.0, -0.0, -0.0, -2e-6, 0.0, 0.0, 0.0,
          0.0, -0.0, 0.0, 7e-6, -0.0, 0.0, -0.0, -0.0, -0.0, -0.0, 8e-6, -0.0, 0.0, -0.0, 0.0, 8e-6,
          -0.0, -2e-6, 0.0, -0.0, -4e-6, 0.0, 0.0, -0.0, 0.0, -0.0, 0.0, -5e-6, -0.0, -0.0, 0.0,
          -2e-6, 0.0, -0.0, -0.0, -0.0, 0.0, 0.0, 0.0, 6e-6, 0.0, -0.0, -0.0, -0.0, 0.0, 0.0, 0.0,
          0.0, 0.0, -0.0, -0.0, 7e-6, 4e-6, 0.0, 0.0, 0.0, -0.0, -1e-6, 0.0, 0.0, -0.0, -0.0, 1e-6,
          0.0
        ],
        [
          0.0, 0.0, 0.0, 0.0, -0.0, -0.0, -0.0, 0.0, 0.0, -0.0, 0.0, 0.0, 0.0, 0.0, -4e-6, -0.0,
          0.0, 0.0, 0.0, 0.0, 2e-6, -0.0, -0.0, -0.0, -0.0, 0.0, -0.0, 0.0, 0.0, -0.0, -0.0, -1e-6,
          -2e-6, 0.0, -0.0, -0.0, 0.0, 0.0, -0.0, -0.0, 0.0, 0.0, -0.0, -0.0, 0.0, 0.0, 8e-6, -3e-6,
          0.0, -0.0, 3e-6, 0.0, 0.0, -1e-6, 0.0, -0.0, 3e-6, -0.0, 0.0, 1e-6, -0.0, -0.0, -0.0,
          -0.0, 0.0, -0.0, 0.0, -0.0, 0.0, -0.0, 3e-6, 0.0, 2e-6, -0.0, -0.0, 0.0, -0.0, -0.0, 0.0,
          -0.0, 0.0, -0.0, 0.0, -1e-6, -0.0, -0.0, -0.0, 0.0, 0.0, -0.0, -0.0, 0.0, -0.0, -0.0, 0.0,
          -0.0
        ],
        [
          0.05494, -0.044243, -0.159341, 0.050899, -0.06188, 0.014147, -0.225343, -0.062801,
          -0.16144, 0.137912, -0.262866, -0.148904, -0.044092, 0.087919, 0.05558, 0.063097,
          0.127169, 0.138551, -0.197671, 0.018423, 0.159544, 0.193698, 0.157098, -0.185495,
          -0.091102, -0.117748, 0.094145, -0.003178, -0.031965, 0.127531, -0.124584, 0.139391,
          -0.012339, -0.098377, -0.152486, 0.103335, -0.218292, -0.242594, 0.183539, -0.261172,
          0.02016, 0.015791, -0.00141, 0.079578, -0.181192, 0.02584, -0.179097, 0.062588, -0.272796,
          0.028322, -0.124574, -0.101363, -0.114328, -0.148219, 0.143735, 0.058563, 0.172415,
          0.190512, -0.007042, -0.243124, -0.023576, 0.12871, -0.125356, -0.126353, 0.036184,
          0.148566, 0.112373, -0.173047, 0.095543, -0.269664, -0.118235, 0.090771, -0.110286,
          -0.132985, -0.268493, 0.142767, 0.124123, 0.018611, 0.101578, -0.125971, 0.067464,
          -0.1184, -0.218859, -0.100487, 0.080857, -0.289685, -0.090253, -0.137175, -0.159089,
          0.152589, -0.191133, -0.059369, 0.095016, -0.182174, 0.066608, -0.103341
        ],
        [
          0.038913, 0.174279, 0.088055, -0.181024, 0.193278, -0.376533, -0.440556, -0.323733,
          0.019358, -0.28941, -0.109571, 0.153582, -0.145593, 0.009258, -0.366728, -0.532468,
          0.124149, -0.0201, 0.280518, 0.05515, -0.118066, -0.295743, -0.098664, -0.313998,
          0.108755, -0.047941, 0.020293, 0.000675, -0.430845, 0.050322, 0.096547, -0.060711,
          0.032817, 0.023243, 0.1961, -0.152607, -0.057072, -0.009427, 0.169652, -0.001591,
          -0.514159, -0.28327, 0.01824, -0.059696, 0.101153, -0.254397, -0.143225, -0.204482,
          0.19242, 0.100042, 0.181344, -0.051567, 0.05522, 0.036429, -0.163731, 0.160345, 0.19588,
          0.209301, 0.073809, -0.262539, -0.193102, 0.177016, -0.04645, 0.047094, 0.056392,
          0.064887, 0.228985, -0.179577, -0.047702, -0.071476, -0.253252, -0.134723, -0.024158,
          0.138849, 0.412593, -0.120287, -0.01817, 0.155111, -0.177727, -0.220525, -0.115956,
          0.079072, -0.157214, 0.146787, -0.258405, -0.021072, -0.01572, -0.168448, -0.03857,
          0.107677, 0.179052, -0.019864, 0.191952, 0.161318, 0.093851, -0.217451
        ],
        [
          -0.360835, -0.177926, 0.083661, -0.093113, -0.035204, 0.174077, 0.124936, 0.21853,
          -0.050409, 0.062728, -0.169318, -0.125921, -0.197825, -0.055416, -0.124802, 0.18163,
          -0.243791, 0.082452, 0.041776, -0.045653, -0.068969, -0.078484, -0.014878, -0.040145,
          -0.139347, -0.141107, 0.012512, 0.13204, -0.059326, 0.080907, 0.032421, 0.197428,
          0.149329, 0.048525, 0.009164, 0.204991, -0.050071, -0.138344, -0.287541, 0.133298,
          0.127757, -0.157945, -0.055429, 0.026745, -0.16845, 0.288304, -0.261177, -0.187825,
          0.069896, 0.054856, -0.277059, 0.050755, 0.12478, -0.152264, -0.203134, 0.07512,
          -0.137517, 0.218184, 0.162395, 0.192009, -0.097159, 0.236746, -0.086351, -0.070811,
          -0.286765, -0.196213, 0.020843, 0.056648, -0.090153, 0.130418, -0.092904, 0.043032,
          -0.070053, 0.102909, 0.001346, 0.008465, -0.115098, -0.071961, 0.121086, -0.166155,
          -0.236497, -0.189993, -0.060127, -0.055932, 0.16539, -0.114872, 0.033955, 0.156937,
          0.126589, -0.046599, -0.061779, -0.096138, 0.166622, -0.240001, 0.234319, 0.117276
        ],
        [
          0.173877, -0.127939, -0.027282, 0.019748, -0.141594, 0.045103, 0.226182, -0.027513,
          0.062013, -0.160172, 0.043435, -0.15486, 0.115784, 0.169102, 0.16197, -0.219018, 0.030931,
          0.03326, -0.068248, 0.09492, 0.193516, 0.042762, 0.002538, -0.085771, -0.15629, -0.072948,
          -0.028775, 0.102194, 0.060184, -0.160664, -0.010577, -0.151495, -0.158325, 0.111087,
          -0.131156, -0.076314, -0.125035, 0.22186, 0.112485, -0.109829, -0.004816, 0.09148,
          0.272184, -0.154603, 0.170431, 0.082345, 0.31428, 0.067342, 0.021134, 0.002715, 0.189858,
          0.026214, -0.039792, -0.037392, 0.164245, 0.08389, -0.088169, 0.094283, -0.016937,
          0.143553, -0.028091, -0.095431, 0.226629, -0.091796, 0.244048, 0.008541, 0.062672,
          -0.15131, 0.008959, -0.155055, -0.193884, -0.103959, -0.18703, 0.221981, 0.317334,
          -0.060132, 0.14719, -0.046219, 0.072087, 0.220283, 0.299624, -0.01873, 0.161408,
          -0.046124, 0.17139, -0.19022, -0.040226, 0.032659, 0.080667, -0.153966, 0.222854,
          -0.112748, 0.058368, -0.026815, -0.136699, -0.023927
        ],
        [
          0.0876, -0.074308, -0.066382, -0.109461, 0.069769, 0.121999, -0.020198, -0.013555,
          -0.156541, 0.00473, 0.258587, 0.097881, -0.153754, -0.09164, -0.07115, 0.079887, 0.326664,
          -0.074675, 0.047692, 0.439405, 0.140235, -0.0664, -0.188037, -0.184202, 0.067164,
          -0.150289, -0.237914, 0.035232, -0.174634, 0.233007, 0.147593, -0.152339, 0.075525,
          0.032732, 0.281868, -0.019977, -0.182621, -0.030406, -0.233841, 0.322107, -0.081717,
          0.003487, -0.254083, -0.050713, 0.310126, 0.118002, -0.044708, -0.15255, 0.117186,
          0.320834, -0.210636, 0.027516, -0.081549, 0.41474, -0.173684, -0.161754, 0.124702,
          -0.117446, 0.09016, 0.042051, -0.071799, -0.253765, -0.00183, -0.271202, 0.013232,
          -0.029235, 0.168405, -0.097808, -0.316852, -0.290057, -0.067965, 0.028268, 0.03819,
          -0.069723, -0.112071, -0.113221, 0.164023, -0.058353, 0.276038, -0.032463, 0.32888,
          0.195144, -0.121811, -0.049934, -0.013527, -0.20031, 0.12824, 0.028772, 0.251945,
          0.104652, 0.0108, -0.166363, 0.177632, 0.079925, -0.066038, -0.051645
        ],
        [
          -0.1383, 0.317816, -0.133869, 0.293979, 0.163674, 0.144414, 0.091937, 0.063337, 0.140833,
          0.054796, -0.034336, 0.037635, -0.022708, -0.121411, -0.14301, -0.090175, 0.272381,
          -0.278352, 0.320713, -0.048747, 0.241629, 0.119366, 0.226783, -0.173463, 0.12803,
          -0.154779, 0.13583, 0.198269, -0.079946, 0.03823, 0.036529, -0.177923, 0.33065, -0.07124,
          -0.163388, 0.09976, 0.070024, 0.138735, 0.014851, 0.158171, 0.029835, 0.126236, 0.047541,
          0.110312, -0.12126, -0.044407, 0.054731, -0.054103, 0.026396, -0.139913, 0.035076,
          0.008689, -0.081886, -0.285572, 0.000611, -0.020915, 0.184237, -0.221594, 0.069962,
          -0.015121, -0.01487, 0.16743, -0.16145, 0.009562, -0.058818, -0.018844, -0.031119,
          -0.356838, 0.036042, -0.011228, -0.019491, -0.203134, -0.250368, 0.200147, 0.252402,
          -0.084343, 0.230644, 0.03217, 0.132613, 0.09504, -0.140379, -0.102673, 0.077208, 0.048327,
          0.113136, 0.006316, -0.138602, 0.081328, -0.217762, -0.076504, 0.069956, 0.13361,
          0.096575, -0.013587, 0.031035, 0.261668
        ],
        [
          -0.141892, -0.139983, -0.071298, -0.075387, 0.102034, 0.137396, 0.07127, -0.13491,
          0.21189, -0.022202, 0.222699, -0.063125, -0.152689, -0.198839, -0.078987, 0.100091,
          0.152618, 0.247081, -0.179206, 0.118339, 0.152942, 0.117555, -0.062401, -0.060664,
          0.032713, -0.003274, -0.103722, -0.313505, -0.02766, 0.349113, 0.200678, 0.024287,
          -0.020369, -0.200395, 0.047045, 0.003793, 0.077789, -0.166869, -0.257819, -0.261447,
          0.018035, -0.210217, -0.019267, 0.064016, 0.071308, 0.106736, 0.135858, 0.205332,
          0.028227, 0.130138, -0.067554, -0.021822, 0.007532, 0.119019, 0.119765, -0.052592,
          -0.373229, -0.063474, -0.059115, 0.110192, 0.063838, 0.114006, 0.220539, 0.178361,
          -0.147239, 0.137768, 0.113725, -0.189357, -0.276675, -0.21233, 0.012776, 0.11175,
          0.071021, -0.295769, -0.069022, 0.208296, -0.106493, -0.02128, -0.019866, 0.023608,
          -0.207818, -0.22265, -0.118651, 0.145006, 0.007013, -0.029497, 0.174802, 0.231929,
          -0.313945, -0.012622, 0.125015, -0.159392, -0.240049, -0.03237, 0.15255, 0.070274
        ],
        [
          -0.039369, 0.035297, -0.061882, -0.001534, -0.010381, -0.098369, -0.084259, 0.024686,
          -0.137143, 0.197688, -0.2837, -0.209289, -0.190646, 0.086993, 0.042831, -0.083831,
          0.049035, -0.040172, 0.080757, 0.02852, -0.079299, 0.118585, -0.225802, -0.199648,
          0.031908, 0.200358, -0.036151, -0.228839, -0.074636, 0.10164, -0.231088, -0.037038,
          0.269809, 0.065304, -0.115056, 0.032393, -0.194415, 0.181859, 0.029014, -0.03067,
          0.054881, -0.109243, 0.047647, 0.041374, 0.211533, 0.15421, 0.058285, 0.079144, -0.315376,
          0.028076, -0.090784, 0.091498, -0.077796, 0.022365, -0.239279, 0.023388, -0.195621,
          0.144533, -0.083549, -0.33288, -0.061982, 0.097505, 0.182802, 0.005752, -0.101127,
          0.124206, -0.081837, -0.239309, 0.150762, 0.104258, -0.090947, -0.251352, -0.054927,
          -0.169244, -0.146691, 0.030024, -0.191975, 0.159742, 0.068371, 0.073405, 0.168868,
          -0.239387, -0.064542, -0.015444, 0.043441, 0.125228, 0.000275, 0.184566, -0.343114,
          0.121302, 0.176525, -0.265608, 0.107214, -0.306322, -0.133871, -0.111637
        ],
        [
          -0.000924, 0.242027, -0.053901, -0.025552, 0.092156, 0.210746, -0.336521, 0.258525,
          -0.253091, 0.151014, -0.158827, -0.26774, -0.091346, 0.063922, -0.005506, -0.201114,
          -0.089111, 0.176203, -0.074149, 0.012659, -0.012276, -0.224935, 0.192194, 0.204611,
          0.090276, 0.039348, 0.109195, -0.026182, 0.057253, 0.095892, 0.098342, 0.033115, 0.005307,
          0.12285, -0.002405, 0.135516, -0.131123, 0.016226, -0.015684, -0.265971, -0.265072,
          0.037124, 0.075623, 0.087203, -0.121573, 0.096427, -0.214883, -0.059924, -0.232285,
          -0.057792, -0.119892, -0.112225, -0.148597, -0.055494, -0.043491, 0.011287, -0.172383,
          0.024958, -0.330815, 0.109317, -0.150942, -0.180364, 0.140566, -0.024478, 0.18131,
          0.065667, 0.24444, -0.368967, -0.130068, -0.191209, -0.136585, 0.012068, 0.099181,
          -0.225149, 0.209564, 0.097549, -0.122262, -0.223501, -0.077346, -0.194437, -0.158259,
          -0.026168, -0.120207, -0.049396, 0.096481, 0.045948, 0.154191, -0.166885, -0.022648,
          0.04158, -0.331799, -0.287867, 0.077733, -0.010019, 0.107893, -0.096401
        ],
        [
          -0.090841, -0.159221, -0.035204, -0.185346, -0.169298, 0.179223, 0.120829, 0.137426,
          -0.19865, -0.04944, -0.196152, -0.281832, -0.158395, 0.102472, 0.054625, 0.01311,
          -0.104454, 0.150993, -0.26924, -0.160562, -0.007819, -0.027827, 0.203385, -0.096038,
          0.145977, 0.182753, -0.109544, -0.075968, -0.052443, 0.144834, -0.181317, 0.098536,
          -0.061362, 0.101309, 0.021589, 0.007096, 0.167787, 0.050228, 0.171686, -0.316294,
          -0.064289, -0.197083, -0.035852, 0.012114, 0.070151, 0.011603, 0.150035, -0.184573,
          0.008102, 0.049883, -0.147885, -0.194129, 0.172026, 0.175074, 0.10028, 0.219338,
          -0.148372, -0.008749, 0.024974, 0.078958, 0.026328, 0.004077, 0.0563, -0.034292,
          -0.205799, -0.112684, -0.002258, 0.027364, -0.128864, 0.14143, -0.199549, -0.024295,
          0.155441, -0.099645, -0.06587, 0.046841, 0.002264, 0.081578, 0.138309, 0.074876, 0.05375,
          -0.20902, -0.079154, -0.138981, -0.059126, -0.024284, -0.053004, -0.222322, 0.049245,
          -0.066431, 0.013779, -0.279757, 0.041676, 0.181936, -0.162673, -0.02454
        ],
        [
          -0.206646, 0.077845, 0.001886, -0.063721, 0.06649, 0.228187, -0.191674, -0.269236,
          0.119734, -0.069245, 0.169026, 0.114605, 0.092129, -0.007238, 0.097323, 0.19364, -0.0461,
          -0.26825, -0.129631, -0.188448, -0.226108, -0.151416, 0.010476, 0.042649, -0.032394,
          -0.084554, -0.120431, -0.254384, -0.192535, 0.045455, -0.178348, -0.001688, 0.048809,
          0.144329, -0.260499, -0.11767, 0.017079, 0.15781, 0.178509, -0.208101, -0.172854,
          0.097197, -0.081505, -0.078361, 0.061204, -0.019936, 0.120255, 0.233306, -0.025176,
          -0.092011, 0.159872, -0.267507, -0.123332, 0.110876, -0.120179, -0.12045, -0.168841,
          0.122461, -0.052459, 0.019616, -0.144408, 0.148556, 0.061674, 0.00352, 0.054198,
          -0.143561, 0.149185, 0.07343, 0.150707, -0.142725, 0.187223, 0.097823, 0.155485, 0.198726,
          -0.016107, -0.196011, 0.013049, 0.097692, 0.116008, -0.092717, -0.064159, -0.057774,
          -0.033374, -0.045439, 0.082182, -0.185651, -0.009395, -0.17554, -0.137763, 0.101454,
          -0.023179, 0.005637, 0.128315, 0.178808, 0.211799, -0.193687
        ],
        [
          0.149293, -0.095993, -0.083066, -0.186929, -0.00157, -0.090963, -0.162922, -0.120518,
          0.098977, 0.201889, -0.167946, 0.145952, 0.107666, 0.149051, -0.081012, 0.094121,
          0.194584, 0.148993, -0.192652, 0.029106, 0.051073, 0.032967, -0.29322, -0.210501, 0.06663,
          0.160691, -0.174978, 0.212483, -0.094, 0.048615, 0.116482, 0.109684, 0.175942, -0.105734,
          0.136992, -0.272204, 0.093797, 0.107086, 0.05364, -0.234859, 0.142795, -0.18254,
          -0.135278, 0.100686, 0.045042, 0.132484, -0.177349, -0.145219, 0.161818, 0.049972,
          -0.124051, 0.075571, -0.036653, -0.033052, 0.015916, 0.163405, 0.176541, 0.121195,
          -0.39791, 0.129938, 0.081039, 0.059835, -0.129275, 0.16151, 0.064163, -0.189627,
          -0.183589, 0.111406, -0.14757, 0.165386, 0.045809, 0.066911, -0.103832, -0.140765,
          0.167226, -0.147285, 0.087038, -0.200792, -0.15234, -0.183818, 0.010582, 0.222767,
          -0.112822, -0.152968, -0.262194, -0.024577, -0.032973, 0.083097, -0.034933, -0.019698,
          -0.324294, 0.214723, -0.269683, -0.217145, -0.041083, -0.01546
        ],
        [
          0.079992, 0.14836, 0.021467, -0.072904, -0.011776, 0.1246, -0.014767, -0.031392,
          -0.186024, 0.074013, 0.089073, -0.060031, 0.016838, 0.232787, -0.067978, 0.208818,
          -0.119001, -0.195575, -0.097404, 0.053683, -0.030933, -0.213728, 0.119172, 0.156411,
          -0.005139, -0.140522, -0.150816, -0.209218, 0.268639, 0.263329, 0.070611, 0.035385,
          0.186325, -0.035321, 0.011193, -0.078085, 0.062946, -0.194166, -0.187953, 0.192409,
          -0.131338, -0.245081, -0.10045, -0.194505, -0.224366, 0.001374, -0.103311, -0.082124,
          0.103955, 0.149411, 0.072957, -0.006917, -0.241586, 0.028685, -0.036813, 0.192393,
          -0.031196, 0.224783, -0.001382, -0.065933, -0.092398, 0.235677, 0.20366, -0.287682,
          0.173337, -0.175627, -0.175171, -0.114664, -0.159262, 0.177547, -0.109825, 0.158027,
          -0.162378, -0.033564, -0.091297, -0.098288, -0.216653, -0.158075, -0.04036, -0.021901,
          0.011555, -0.151764, 0.157307, 0.26785, 0.029298, -0.12909, -0.128482, 0.225265,
          -0.282573, -0.05455, -0.139747, -0.004813, -0.196959, 0.1645, -0.206436, 0.142537
        ]
      ],
      "b": [
        -0.141591, -0.12601, 0.185496, -0.1132, 0.103807, -0.047372, -0.106696, 0.233169, -0.016605,
        0.123814, -0.044152, 0.262994, -0.167942, 0.018711, 0.049734, 0.253796, 0.145382, 0.226531,
        0.28443, -0.114498, -0.029683, -0.059107, 0.093669, 0.093407, -0.010397, -0.020325,
        0.107777, -0.083214, -0.050887, 0.04, 0.193178, 0.199588, 0.034018, -0.10779, 0.15591,
        -0.039107, 0.026703, 0.090547, -0.205841, 0.047698, 0.271999, 0.235971, -0.103052, -0.2023,
        -0.051706, 0.028155, 0.315275, -0.132213, 0.241725, -0.1464, 0.194596, -0.031251, 0.116054,
        -0.037247, 0.010825, -0.270914, -0.112272, 0.22509, 0.413346, 0.261819, 0.024573, 0.115563,
        -0.097954, -0.102842, 0.07568, 0.091216, 0.08932, -0.094009, 0.005795, 0.294727, -0.039778,
        0.036437, -0.109797, -0.064563, -0.006252, 0.125036, 0.070111, 0.239097, -0.045362,
        0.119848, -0.209093, 0.04841, 0.183773, -0.031531, 0.04431, 0.268552, -0.053667, 0.09704,
        -0.131434, 0.09893, 0.10892, -0.0923, 0.216603, -0.056088, -0.118871, -0.092761
      ]
    },
    {
      "w": [
        [
          -0.167468, -0.05479, -0.488921, 0.215457, -0.315253, 0.050874, -0.126355, -0.150243,
          0.256334, -0.019621, 0.253778, -0.124672, 0.141638, -0.027639, 0.177414, -0.017602,
          -0.177776, -0.130609, -0.020866, 0.242727, -0.094541, -0.091366, 0.16476, -0.131526,
          0.167541, 0.091791, 0.018137, 0.116272, -0.268437, -0.145175, -0.059679, -0.118984,
          0.226131, 0.282956, 0.037796, -0.173335, 0.179258, -0.018039, 0.098388, -0.136919,
          0.165277, 0.128694, 0.072329, 0.139316, 0.002993, -0.060448, 0.080146, -0.031037
        ],
        [
          0.158052, 0.260946, 0.092298, 0.207576, 0.106129, 0.117813, -0.033031, -0.001631,
          -0.178652, -0.004738, -0.024653, 0.060952, -0.06029, 0.137821, -0.152788, 0.083038,
          0.108304, -0.152065, -0.037386, 0.175819, 0.016786, -0.203538, 0.298793, 0.080127,
          0.274166, -0.163509, 0.029169, 0.126768, -0.014114, 0.02417, -0.11857, -0.039235,
          -0.243493, -0.118573, -0.217062, -0.329311, 0.20301, -0.073237, 0.109657, 0.212281,
          0.006757, -0.31409, 0.157054, 0.107614, 0.146637, 0.058774, 0.235319, 0.01265
        ],
        [
          0.026509, 0.168063, -0.258757, 0.170464, -0.192344, -0.076159, 0.276374, 0.127117,
          -0.137559, 0.051899, 0.168291, -0.085426, 0.117259, -0.211983, 0.103544, 0.193164,
          -0.327007, 0.008309, -0.176992, 0.113334, 0.049461, 0.120456, -0.145354, -0.108887,
          -0.171343, -0.10377, 0.003046, 0.25282, -0.016176, -0.075976, 0.07373, 0.083947, 0.230351,
          2.9e-5, 0.001167, -0.241796, 0.062473, -0.072486, -0.149498, -0.235818, 0.048882,
          0.070581, -0.049053, -0.041048, 0.088093, 0.133994, 0.164748, 0.266706
        ],
        [
          0.113797, 0.076312, -0.196036, 0.036025, 0.079256, 0.002048, -0.014938, -0.00545,
          0.047057, -0.17479, -0.144376, -0.001565, -0.362009, -0.297705, -0.1344, 0.223296,
          0.016271, 0.012474, 0.045892, 0.008887, 0.237635, 0.288022, 0.034397, 0.005789, -0.017912,
          -0.14263, -0.038264, -0.183029, 0.336905, -0.073242, 0.072448, 0.268176, -0.037453,
          -0.154132, 0.276449, 0.048229, 0.00358, -0.124358, -0.017856, -0.036464, -0.199663,
          -0.194171, 0.166783, -0.079516, -0.333014, 0.010674, 0.212441, -0.171872
        ],
        [
          0.08423, -0.114194, -0.199944, -0.247841, 0.185159, -0.084306, -0.153027, 0.060392,
          0.111443, -0.034532, -0.063469, -0.257279, 0.090104, 0.153388, -0.050006, -0.089686,
          -0.062188, -0.095465, -0.041589, -0.066105, 0.208288, 0.14861, 0.164214, 0.152122,
          -0.018588, 0.116068, 0.003041, 0.068169, -0.000738, 0.008338, 0.039894, -0.097394,
          -0.127182, 0.295301, -0.176514, 0.021984, 0.184611, 0.02818, -0.110292, -0.095913,
          -0.160924, 0.103829, 0.037996, 0.048292, -0.178946, -0.212301, 0.211376, -0.11032
        ],
        [
          0.141978, -0.193511, 0.04564, 0.281016, 0.002022, -0.12299, 0.076004, 0.170059, -0.037028,
          0.166373, -0.012692, 0.282309, 0.025094, -0.082541, -0.095335, -0.155805, 0.125494,
          0.017885, -0.017132, -0.070401, -0.10342, 0.064629, -0.020653, -0.190474, 0.11929,
          -0.22786, -0.071104, 0.07897, -0.180324, 0.160712, -0.123901, -0.241274, -0.145927,
          0.165362, -0.067696, -0.037973, -0.154547, -0.117583, -0.073135, 0.102503, 0.244237,
          -0.148082, 0.031454, 0.166123, 0.066623, 0.27056, -0.176512, 0.201061
        ],
        [
          0.005006, 0.188599, 0.163107, -0.062469, 0.333456, -0.040904, -0.145946, 0.132887,
          0.145302, 0.268706, -0.066412, -0.047219, 0.130915, -0.299299, -0.170009, -0.121164,
          0.091488, 0.378222, 0.020573, 0.126858, 0.126074, -0.076834, 0.132682, -0.010066,
          0.103392, -0.046716, 0.07677, -0.27033, -0.074661, 0.227372, -0.138799, 0.062763,
          -0.081898, 0.203965, -0.03706, -0.134884, -0.048939, -0.17335, -0.128896, -0.273424,
          -0.094211, -0.246106, 0.025629, 0.151235, -0.133286, -0.038575, 0.093678, -0.051042
        ],
        [
          0.19562, -0.038515, 0.092404, -0.134839, 0.150077, -0.041224, -0.147772, 0.01909,
          0.210447, -0.017138, -0.052563, 0.110199, 0.158405, 0.129637, 0.14033, 0.161967, 0.048042,
          0.007179, -0.135167, 0.212939, 0.247944, -0.197304, 0.10227, 0.023229, -0.410261,
          0.042937, -0.063471, 0.266045, -0.168053, 0.164458, -0.011332, -0.264013, 0.163687,
          0.035108, -0.125286, -0.013222, 0.19135, -0.0734, -0.264381, -0.362547, -0.110984,
          0.126333, 0.019494, -0.143793, -0.303812, -0.115217, 0.214661, -0.053557
        ],
        [
          0.238436, -0.030985, -0.138715, 0.209577, -0.080553, 0.101186, 0.076214, -0.278054,
          -0.182831, 0.061886, -0.113024, -0.139246, -0.143263, -0.252307, 0.110917, -0.197697,
          0.024456, 0.060193, 0.018927, -0.281396, 0.27684, -0.211142, 0.16369, 0.126863, 0.085871,
          0.025784, 0.024205, -0.153039, 0.198207, 0.213206, -0.020541, -0.068799, 0.117296,
          0.242675, 0.050468, -0.02029, -0.056714, 0.206383, -0.070172, 0.169218, -0.030793,
          -0.183941, -0.098481, 0.24479, -0.124434, 0.008914, -0.227898, -0.234089
        ],
        [
          0.074605, 0.040929, -0.144541, -0.069512, -0.226801, -0.038603, 0.343989, 0.262255,
          -0.103467, 0.067542, 0.183191, -0.042175, 0.056411, 0.229097, -0.237286, -0.132703,
          -0.064461, -0.017504, -0.341072, -0.057656, -0.005046, 0.126008, 0.08871, 0.161647,
          -0.006405, -0.154372, -0.010778, 0.181269, -0.189113, 0.125286, 0.097914, 0.065655,
          0.032651, -0.167135, 0.057918, 0.023915, -0.068365, 0.317369, 0.045381, -0.178794,
          0.202118, -0.128274, 0.034104, -0.190142, 0.00282, 0.058201, 0.046471, 0.228123
        ],
        [
          -0.043563, -0.071166, 0.258527, -0.019241, -0.196715, -0.013915, -0.205684, -0.152954,
          0.05117, 0.011428, -0.081515, 0.235123, -0.015148, 0.239227, -0.132437, 0.057973, 0.18631,
          -0.002881, 0.06098, -0.161244, -0.16174, -0.129436, 0.093069, 0.099175, -0.280986,
          0.356278, 0.147878, -0.22683, 0.080153, 0.278715, 0.296384, -0.132059, 0.134849, 0.127448,
          0.046948, -0.053848, 0.157089, -0.237436, -0.216686, -0.06114, -0.074869, -0.106538,
          -0.080839, -0.022067, -0.090347, 0.052917, 0.113491, -0.134182
        ],
        [
          -0.12846, 0.082271, 0.286014, -0.165729, 0.190522, 0.180196, -0.166479, -0.180549,
          0.070735, -0.191718, 0.067529, -0.010342, -0.16045, 0.178069, -0.244673, 0.144614,
          0.066521, 0.015598, -0.030257, 0.312786, -0.224195, -0.13814, -0.072046, 0.106903,
          0.018163, -0.186122, -0.13459, -0.327187, 0.032869, 0.120584, 0.064808, -0.018342,
          -0.136957, 0.14511, 0.208818, 0.233525, 0.122849, -0.158802, -0.218508, -0.132238,
          -0.157766, 0.006956, 0.088519, 0.204894, 0.1837, -0.020146, 0.090995, -0.093394
        ],
        [
          -0.22927, 0.076221, -0.088411, -0.010778, -0.127061, -0.028143, 0.103062, 0.09005,
          0.149773, -0.030844, -0.038668, 0.050345, 0.034676, 0.200566, -0.195059, 0.038571,
          0.105474, 0.141313, -0.201246, 0.053042, -0.035439, -0.089227, -0.058663, -0.099975,
          -0.219332, 0.210792, 0.002818, -0.004498, 0.051351, -0.13662, 0.006454, -0.064883,
          -0.185715, -0.159103, -0.047139, -0.070877, -0.119258, -0.036593, -0.277586, 0.367862,
          0.250861, -0.005179, -0.178687, 0.031683, 0.187701, 0.109589, -0.141063, -0.00562
        ],
        [
          0.262691, 0.115336, 0.071426, 0.066093, -0.104762, -0.217874, 0.121371, -0.293502,
          -0.104595, -0.053285, -0.088135, -0.201779, 0.141253, 0.171676, -0.156316, -0.087557,
          0.051623, 0.223532, -0.047058, 0.053121, -0.219796, 0.005309, 0.116269, 0.23002, 0.037114,
          -0.124092, -0.159045, -0.117339, -0.250323, -0.221942, -0.093865, -0.095494, 0.184967,
          -0.010212, 0.22269, 0.013418, -0.146288, 0.08265, -0.025399, 0.236544, -0.086165,
          0.250631, -0.044072, -0.04819, 0.125845, -0.247933, 0.119484, 0.048393
        ],
        [
          0.155001, 0.235839, 0.199298, -0.022773, 0.112892, 0.139135, 0.244651, -0.420515,
          0.095336, 0.258962, 0.225111, -0.067456, -0.170641, -0.139084, 0.078624, 0.07583,
          -0.026037, -0.184754, 0.049894, -0.003386, 0.241523, 0.098878, -0.053499, -0.044183,
          -0.081731, 0.178092, -0.12705, 0.050244, -0.172977, 0.001877, 0.019697, 0.048586,
          -0.02905, -0.074373, -0.07828, 0.205669, -0.274746, 0.115322, 0.212901, 0.184832,
          0.001721, 0.026262, -0.123844, 0.072476, 0.176407, -0.231389, 0.034974, 0.232006
        ],
        [
          0.140289, -0.096463, 0.081851, -0.077688, -0.216826, 0.255062, 0.279039, 0.11847,
          -0.238728, 0.324785, -0.089806, -0.05819, 0.067009, -0.227843, 0.08466, 0.019776,
          -0.409098, -0.130055, -0.14356, -0.192073, 0.043139, 0.170051, -0.190412, -0.201956,
          0.050974, 0.150984, -0.160087, -0.025011, -0.060824, -0.162894, -0.354859, 0.066191,
          0.122832, 0.121218, 0.229399, 0.182859, -0.0894, -0.057209, -0.202157, -0.184938,
          0.130627, 0.232921, 0.222847, 0.052096, 0.013121, -0.10591, 0.125945, 0.052587
        ],
        [
          0.076993, 0.103619, 0.272598, 0.21242, -0.08552, 0.059212, 0.253664, -0.13909, 0.108648,
          0.026865, 0.147215, -0.195865, 0.012219, -0.188282, 0.144366, -0.097188, -0.178709,
          0.070548, 0.03985, -0.208055, -0.098928, 0.12647, 0.004354, 0.20812, -0.324258, 0.20705,
          -0.163197, -0.040057, 0.011826, 0.058185, 0.156635, -0.039018, -0.017423, -0.108195,
          0.202988, -0.081034, -0.076539, -0.065973, 0.015725, -0.302095, 0.209501, -0.153947,
          0.205212, -0.187898, 0.07338, 0.214344, -0.108445, 0.23404
        ],
        [
          -0.049207, 0.194286, 0.217563, -0.040226, -0.154921, 0.107536, -0.292296, -0.136266,
          -0.116433, 0.068586, 0.162275, -0.2343, -0.061098, 0.068288, -0.205128, -0.274111,
          -0.146433, 0.222263, 0.13817, -0.049341, 0.185434, 0.017596, 0.157235, 0.047355, 0.137817,
          -0.092293, -0.116726, -0.111241, 0.231414, 0.109976, 0.095296, 0.206662, -0.242137,
          0.168684, 0.113099, 0.281991, 0.149372, 0.139754, -0.24353, 0.208572, -0.153875, 0.216465,
          0.144514, -0.069535, 0.004272, -0.056492, -0.066493, -0.097912
        ],
        [
          0.178189, 0.191532, 0.091447, -0.048778, 0.058787, 0.250377, -0.071787, -0.186759,
          -0.187002, 0.116765, 0.186954, 0.004657, -0.20998, 0.153233, -0.198872, -0.143536,
          0.088421, -0.217731, 0.253983, -0.029684, 0.105058, -0.01779, 0.035247, -0.231834,
          -0.225379, 0.081768, -0.136461, 0.036975, 0.311147, -0.025727, -0.103339, 0.032372,
          0.217173, 0.296374, 0.108591, 0.183217, -0.1746, 0.302322, 0.175086, -0.287409, -0.163894,
          -0.184512, -0.11568, 0.217676, 0.012084, -0.252453, -0.082322, 0.175864
        ],
        [
          0.078112, -0.099295, 0.059706, 0.194742, 0.197555, -0.16595, -0.264495, -0.319636,
          -0.242562, -0.084212, 0.142235, 0.044419, -0.032952, 0.191367, 0.280789, 0.177997,
          0.028859, -0.098029, 0.149324, -0.238829, -0.125809, -0.031259, 0.204636, 0.026401,
          0.157778, 0.172218, -0.021119, -0.029151, 0.288354, 0.104602, 0.034672, 0.104072,
          0.073653, -0.136879, -0.267174, -0.256132, 0.253749, 0.018719, -0.077732, -0.001224,
          0.019205, 0.180492, -0.172243, 0.245001, 0.164355, 0.406337, -0.033211, 0.000186
        ],
        [
          -0.018585, -0.254461, 0.008497, -0.034875, 0.031499, 0.027729, -0.155206, -0.06213,
          0.209369, 0.014614, 0.018717, -0.12534, 0.201035, 0.062914, -0.139163, -0.08669, 0.003725,
          0.364971, -0.070679, 0.05527, 0.384464, 0.145923, -0.12301, 0.090574, -0.210085,
          -0.114627, -0.093188, 0.197389, -0.089709, 0.038678, 0.018148, 0.277755, 0.164917,
          0.089938, 0.044816, -0.158329, 0.000694, -0.214101, 0.029479, -0.119728, 0.189244,
          -0.289034, 0.153644, -0.0075, -0.039418, -0.059691, -0.042293, -0.099727
        ],
        [
          -0.041797, 0.071737, -0.023867, 0.147782, -0.026863, -0.239535, 0.12167, 0.201112,
          0.127357, 0.06638, -0.079943, -0.07751, 0.192741, 0.044188, -0.069848, 0.124466,
          -0.164643, 0.309731, -0.24088, 0.080411, -0.090476, 0.120712, 0.105537, 0.186519,
          0.006867, 0.151247, -0.189064, 0.044769, -0.170162, 0.139662, -0.056858, 0.184937,
          0.037707, -0.143978, -0.178385, -0.400136, -0.060632, -0.08884, -0.259616, 0.24542,
          0.257562, -0.156444, -0.030071, -0.251724, 0.142704, 0.138848, -0.129627, -0.183106
        ],
        [
          0.168162, 0.043337, -0.192719, 0.148438, -0.223605, -0.142945, 0.174688, 0.112976,
          0.047559, 0.271542, -0.120194, 0.147884, 0.105491, 0.188846, 0.079955, -0.218574,
          0.261838, 0.085894, 0.020604, -0.23507, 0.18534, 0.176862, -0.164355, 0.163511, -0.218858,
          -0.147634, 0.010555, 0.11931, 0.003603, -0.269381, 0.204328, -0.295997, -0.12166,
          -0.32287, 0.078047, 0.217283, 0.031283, 0.157688, -0.09183, 0.10207, 0.068441, 0.102192,
          -0.104856, 0.094004, -0.114182, 0.073793, -0.003266, -0.145178
        ],
        [
          0.052489, -0.163853, 0.118202, 0.038825, -0.359528, 0.231091, 0.011121, -0.109305,
          0.130255, -0.077378, 0.125213, 0.094399, 0.230502, 0.041749, -0.077242, 0.167218,
          -0.189474, 0.011106, -0.026558, -0.180727, 0.044052, 0.201245, 0.096712, -0.177402,
          -0.281413, -0.093722, 0.135492, -0.14741, 0.08922, -0.16231, 0.032886, -0.108547,
          0.189626, -0.103912, 0.173755, -0.039825, 0.0836, 0.191676, -0.192433, 0.124096, 0.076223,
          -0.10364, -0.040124, -0.259669, 0.126409, 0.096699, -0.143634, 0.00018
        ],
        [
          0.040116, 0.205326, 0.105537, 0.144889, -0.024426, 0.066976, 0.156278, 0.039953, 0.049168,
          0.120397, 0.191759, 0.052468, -0.030643, -0.01271, -0.055921, -0.104443, -0.054593,
          0.136903, -0.003029, -0.060408, -0.318161, -0.138919, 0.265682, -0.184228, -0.168514,
          -0.038624, -0.040912, -0.312179, -0.092926, 0.064332, -0.006289, -0.097239, -0.083161,
          0.267421, -0.011727, -0.024861, -0.197099, 0.018335, 0.161728, -0.180602, 0.158178,
          -0.139403, -0.034185, 0.106326, -0.072341, -0.030675, -0.203318, 0.125485
        ],
        [
          -0.218472, 0.240087, 0.104866, 0.216478, 0.108482, 0.104464, -0.144972, 0.163095,
          -0.073204, -0.133114, -0.064746, -0.231031, -0.24146, 0.131053, 0.260159, -0.042607,
          0.256038, 0.086181, -0.158517, 0.162135, 0.214811, 0.194483, -0.076271, 0.043716,
          -0.200283, -0.228505, -0.313121, 0.190066, 0.140013, 0.15282, -0.048189, -0.19762,
          -0.20332, -0.007232, 0.104786, 0.054131, 0.029918, -0.14373, -0.307192, -0.154245,
          -0.005158, 0.157109, 0.095387, 0.100366, 0.075347, -0.136421, -0.164478, 0.17371
        ],
        [
          0.214459, -0.107697, -0.154439, 0.069818, 0.027499, 0.231572, 0.015245, 0.058396,
          -0.227347, -0.212343, -0.291477, -0.203083, 0.021193, 0.14453, -0.200264, 0.134513,
          -0.108456, -0.057863, -0.190775, -0.044815, 0.041868, -0.008568, -0.031591, 0.235617,
          -0.216094, -0.181891, -0.230218, 0.087216, -0.162783, 0.146294, -0.019433, 0.065932,
          0.091852, -0.069915, -0.123277, -0.063445, 0.04566, -0.097116, -0.197886, 0.290574,
          -0.21142, 0.095871, 0.143619, -0.05483, -0.288007, -0.144757, 0.088968, 0.018096
        ],
        [
          0.199165, 0.18993, 0.011833, -0.173335, -0.059013, 0.120802, -0.115778, -0.098237,
          0.106929, -0.138304, 0.21481, 0.122742, -0.312102, 0.26329, -0.032933, -0.036513,
          -0.074519, -0.133152, 0.135524, -0.039941, 0.084023, -0.058906, 0.058974, 0.187791,
          -0.011205, -0.069277, -0.079251, -0.124504, 0.22092, 0.213363, -0.156243, -0.054317,
          -0.242658, 0.179066, -0.164864, 0.163918, 0.104228, -0.097246, 0.075767, 0.165606,
          -0.017342, -0.248099, -0.027884, 0.084627, 0.024727, 0.002148, 0.166475, 0.167513
        ],
        [
          0.309791, 0.013095, -0.059106, 0.002266, 0.230424, 0.040081, -0.093103, 0.085492,
          -0.060119, -0.32606, -0.121, -0.368413, -0.082902, -0.068734, -0.039721, 0.135334,
          0.115887, 0.110957, 0.066336, -0.005756, 0.035098, 0.203855, -0.139393, 0.219005,
          0.001657, -0.146642, 0.226373, -0.177381, -0.122478, 0.01284, -0.096135, 0.205362,
          -0.098643, 0.000528, 0.003138, -0.136222, -0.176817, -0.022144, 0.152106, -0.095606,
          0.086305, -0.174954, 0.249346, 0.05675, -0.375079, -0.074754, 0.316687, -0.023835
        ],
        [
          0.360379, 0.020164, -0.521208, -0.031437, 0.27176, -0.131521, 0.120911, 0.168178,
          -0.063366, -0.316392, 0.064438, 0.161144, 0.099296, 0.142372, 0.001943, 0.283911,
          -0.03397, -0.018796, -0.166461, -0.050909, 0.143768, 0.117234, -0.142792, 0.084986,
          0.10778, -0.028101, -0.129888, 0.304056, 0.118716, -5.5e-5, 0.004668, -0.046006, 0.094254,
          -0.061321, 0.016844, -0.175011, -0.20635, -0.005273, 0.253595, -0.238467, -0.050346,
          -0.133851, -0.166016, 0.130522, 0.074959, 0.11679, -0.031437, 0.126186
        ],
        [
          -0.02009, -0.117296, -0.190885, -0.172277, -0.101375, 0.054004, 0.00122, 0.226288,
          0.039312, -0.216566, -0.127939, 0.435023, 0.011563, 0.264238, -0.193135, 0.172107,
          -0.29636, -0.006114, 0.095325, 0.207755, 0.105476, 0.008714, 0.133453, 0.131399,
          -0.102094, -0.029468, -0.197998, 0.13523, 0.122578, 0.161391, -0.060319, 0.036861,
          0.032262, 0.076065, 0.166651, -0.29146, 0.143148, 0.350575, -0.140606, -0.327814,
          0.195689, 0.160061, 0.261313, 0.136202, -0.079015, 0.147256, -0.135656, -0.042336
        ],
        [
          0.071486, 0.221226, 0.046689, 0.142381, -0.204183, 0.030086, -0.193849, 0.01833, 0.156428,
          0.057051, 0.073581, -0.207033, -0.083612, -0.04091, -0.186405, 0.279212, 0.209535,
          0.30049, -0.012765, 0.313278, -0.050225, 0.18156, -0.036447, -0.013875, 0.088711,
          0.176416, -0.228654, -0.124202, 0.158533, -0.045834, -0.225137, 0.096832, -0.127467,
          0.455642, 0.05831, -0.13143, 0.222068, 0.059433, -0.249242, -0.312574, -0.135146,
          -0.165155, 0.206795, 0.263342, -0.04076, -0.018543, 0.171365, 0.170053
        ],
        [
          0.17244, 0.002927, 0.096448, 0.116109, -0.0478, -0.097226, -0.129712, 0.074502, -0.095485,
          -0.221082, 0.170751, -0.293148, -0.042486, 0.04401, 0.329082, -0.008325, -0.306075,
          -0.103077, 0.193884, 0.167924, -0.028945, -0.071334, 0.244378, -0.215677, 0.00491,
          -0.090383, -0.20096, -0.090708, -0.096634, 0.033216, 0.162781, -0.117035, 0.186865,
          -0.117039, 0.15542, -0.131128, 0.142583, 0.21328, 0.104986, 0.041977, 0.106067, 0.135446,
          0.083701, 0.192369, 0.067751, -0.274901, -0.035259, -0.175005
        ],
        [
          -0.102303, -0.010462, 0.062335, -0.178631, -0.30827, -0.034295, 0.27062, -0.054675,
          0.112468, 0.335209, 0.014974, -0.120833, 0.00907, -0.197294, 0.179401, -0.184948,
          -0.079875, -0.178645, -0.112389, 0.023228, -0.297486, -0.191984, 0.055757, -0.301653,
          -0.16656, 0.262443, 0.061212, 0.249175, 0.146549, 0.140967, -0.240752, 0.099483, 0.174038,
          0.013593, 0.172301, 0.035009, 0.107645, 0.114107, 0.249541, -0.052199, -0.063325,
          0.087952, 0.175639, -0.199819, -0.136909, 0.137615, -0.265318, 0.258684
        ],
        [
          -0.124597, -0.002297, -0.093517, 0.257762, 0.151363, -0.070346, -0.143, 0.007268, 0.12246,
          0.230922, 0.022554, 0.204156, -0.057868, 0.152754, 0.249718, -0.216482, -0.272782,
          -0.305595, -0.031887, -0.173534, -0.274785, -0.102985, -0.00725, -0.042555, 0.164982,
          -0.174805, -0.013915, 0.177274, -0.058478, -0.115122, 0.132349, 0.141651, 0.120381,
          -0.169545, 0.068458, 0.125608, -0.147088, -0.065431, 0.202665, 0.074946, 0.025905,
          0.172512, -0.005045, -0.124166, -0.176575, 0.322065, -0.326843, 0.153185
        ],
        [
          0.100798, -0.236986, 0.031501, 0.067594, 0.113987, 0.206485, 0.20965, -0.014551, 0.103007,
          0.086079, -0.037081, -0.305369, -0.060378, 0.045316, -0.180293, -0.284651, -0.010314,
          0.12049, 0.080405, -0.192575, -0.290717, -0.116724, 0.253919, 0.044023, 0.033253, 0.0489,
          -0.152438, 0.089177, -0.050548, -0.175877, -0.088719, 0.002237, 0.189453, -0.113726,
          0.202041, 0.253318, -0.033645, -0.325303, -0.161062, 0.169479, -0.123971, 0.157264,
          -0.050871, 0.069002, -0.349596, -0.001962, -0.101706, 0.041216
        ],
        [
          0.177268, -0.077844, -0.028796, 0.193842, 0.011613, 0.119087, 0.071083, -0.27129, 0.00827,
          0.150831, 0.039355, 0.012895, 0.212453, -0.001279, -0.227953, -0.075768, 0.106543,
          0.103314, -0.262059, 0.190189, -0.144145, -0.059169, 0.162273, 0.071657, 0.166078,
          0.068441, -0.292104, 0.226578, -0.11791, -0.208145, -0.171674, -0.10379, -0.105386,
          -0.105252, -0.151829, -0.135374, -0.011042, -0.04285, -0.070862, 0.065572, 0.214985,
          0.192588, -0.023533, 0.107263, -0.079525, -0.172292, -0.069858, 0.162395
        ],
        [
          -0.252766, -0.202725, -0.01672, 0.189329, 0.09317, -0.074026, -0.083315, -0.029713,
          0.080224, -0.125277, 0.214467, -0.146927, 0.08724, -0.221883, 0.000101, -0.064158,
          0.168765, -0.170403, 0.219026, -0.136381, 0.074432, 0.071746, 0.064859, 0.036254, 0.08617,
          -0.021461, 0.165877, -0.2298, 0.122601, 0.19713, -0.045051, -0.146132, -0.022633,
          0.242755, 0.279319, 0.039468, 0.08764, 0.161318, -0.036882, -0.131176, 0.07289, 0.158883,
          0.12409, -0.174535, -0.023181, -0.043765, -0.204032, -0.143138
        ],
        [
          0.018917, -0.132541, 0.091554, -0.046261, 0.154828, -0.10998, -0.067903, -0.270103,
          0.216837, 0.115777, -0.088559, -0.232121, 0.145158, -0.151972, -0.171383, 0.03501,
          0.258583, -0.233101, -0.147971, 0.183495, -0.252513, -0.107002, 0.071413, 0.130051,
          0.088482, 0.169969, 0.206678, -0.279957, 0.301181, 0.037514, -0.061212, 0.080431,
          -0.049963, -0.125094, -0.208521, -0.041099, 0.100528, 0.094733, 0.093781, -0.04662,
          -0.020907, -0.043357, -0.129464, -0.097531, 0.202878, 0.187878, 0.173489, -0.170934
        ],
        [
          0.192237, 0.016517, -0.153168, 0.164724, -0.017163, -0.094424, 0.096687, -0.445957,
          -0.03697, 0.046004, 0.181821, -0.361674, -0.054658, 0.045606, -0.133126, -0.142021,
          0.121589, 0.16305, 0.331473, 0.286114, 0.196945, 0.059262, 0.212857, -0.046482, -0.082637,
          -0.119049, -0.031251, -0.167427, 0.14363, -0.097243, -0.195315, 0.101059, -0.097049,
          -0.046369, -0.077129, 0.018134, -0.078616, 0.152335, 0.057775, -0.030084, -0.192166,
          -0.09236, 0.175406, -0.161851, -0.179503, 0.102741, 0.028354, -0.118078
        ],
        [
          -0.062342, 0.164399, 0.2375, 0.101226, 0.084878, -0.108258, 0.234383, 0.143923, -0.067548,
          0.137375, -0.163804, -0.212456, 0.052377, -0.024229, 0.209321, -0.132728, 0.019663,
          0.283165, 0.206871, -0.100368, 0.043618, 0.060757, -0.209024, 0.262533, 0.170191,
          -0.152745, -0.167168, -0.151675, 0.181095, -0.007223, -0.044872, 0.028143, 0.109531,
          -0.116088, -0.12419, 0.135961, 0.205336, 0.092941, -0.290256, 0.02441, 0.082735,
          -0.169453, 0.166312, 0.023946, -0.141008, 0.145178, 0.222017, -0.224916
        ],
        [
          0.094436, -0.069918, 0.057714, -0.002083, 0.026356, 0.107621, 0.127212, -0.11022,
          0.150856, -0.062064, 0.191268, 0.097036, -0.14427, -0.242952, -0.004264, -0.006591,
          0.133023, -0.026682, -0.013219, 0.031868, 0.210524, 0.233958, -0.2531, 0.000715,
          -0.212943, -0.081756, -0.054877, 0.27373, 0.136688, -0.012089, 0.041391, 0.233568,
          0.037289, -0.283084, -0.112613, 0.062603, -0.133481, -0.151034, -0.19366, 0.105029,
          -0.082206, -0.309123, -0.074783, 0.117825, 0.106415, -0.062212, 0.06831, 0.321337
        ],
        [
          -0.180619, -0.150968, -0.080678, 0.03738, -0.036574, 0.297128, 0.048054, 0.02613,
          0.196319, -0.109189, -0.030087, 0.110799, 0.048202, -0.180985, -0.018029, 0.005338,
          0.188924, 0.010045, -0.129352, -0.244915, -0.137466, -0.26776, 0.294166, -0.104234,
          0.032123, 0.169701, 0.114031, -0.103999, 0.184696, 0.255384, 0.115543, -0.241064,
          -0.007238, 0.06351, -0.276466, -0.122899, 0.207948, -0.176636, 0.03128, 0.244411,
          0.062831, -0.085135, 0.05564, 0.002413, 0.013296, 0.145389, 0.011355, 0.119251
        ],
        [
          0.068509, -0.012678, 0.290165, 0.128657, -0.07391, -0.240729, 0.317048, 0.103063, 0.0034,
          0.07513, -0.09292, 0.013065, -0.080154, -0.051387, 0.023147, -0.051257, 0.157079,
          0.099282, 0.017616, -0.197638, -0.105116, -0.005801, 0.255786, 0.071832, 0.121482,
          -0.171916, 0.056854, 0.048712, -0.249063, -0.271366, 0.19915, -0.183774, -0.192727,
          -0.182191, 0.146345, -0.101674, 0.072101, 0.163723, -0.027206, -0.257191, -0.189148,
          -0.190465, 0.20057, 0.048048, -0.268165, -0.032476, 0.039946, -0.117934
        ],
        [
          0.053429, -0.067574, -0.140154, 0.263647, -0.099111, -0.031448, 0.15576, -0.106533,
          -0.222, -0.064067, -0.077359, 0.171173, 0.074732, 0.05473, 0.161332, 0.06204, 0.108055,
          0.08577, -0.34075, 0.292816, 0.133821, -0.190817, 0.207322, -0.129406, 0.102318, 0.115902,
          -0.075735, 0.259417, -0.186195, -0.034716, 0.032633, 0.008423, 0.116989, 0.067509,
          0.003644, -0.399204, 0.213017, 0.033768, 0.172493, -0.116483, -0.005538, -0.108167,
          0.16543, 0.030931, 0.289285, 0.030151, 0.057755, -0.138432
        ],
        [
          0.254069, -0.164821, 0.174368, 0.239884, 0.249096, 0.044973, 0.11901, 0.074625, -0.157859,
          0.032815, -0.213085, -0.065634, -0.207726, -0.076647, -0.058877, 0.012009, 0.084293,
          -0.072178, -0.133965, -0.138409, 0.06815, -0.006194, 0.066352, 0.217675, -0.119887,
          0.24429, -0.075121, -0.040251, 0.04344, -0.174141, 0.09237, -0.002656, -0.087019,
          -0.141452, -0.186499, 0.254753, 0.218422, -0.245233, -0.051803, -0.157351, 0.117104,
          -0.212121, -0.221046, 0.262888, -0.040895, -0.054292, 0.204334, -0.051896
        ],
        [
          -0.139322, -0.127637, -0.542761, -0.084927, 0.192214, -0.012021, 0.075075, 0.220142,
          0.034553, -0.196011, 0.107018, 0.176233, 0.127169, -0.107113, -0.024948, 0.155907,
          0.332436, -0.202507, 0.093587, 0.224339, -0.006923, -0.045286, -0.101545, -0.127411,
          -0.148617, 0.232096, -0.134487, -0.045111, 0.223426, -0.070088, -0.001619, 0.152146,
          0.253414, 0.113017, -0.019769, -0.213042, 0.158159, -0.146153, 0.061119, -0.088721,
          0.147213, 0.15625, 0.116744, -0.070563, -0.020007, 0.07905, 0.137965, -0.164619
        ],
        [
          0.266421, 0.205188, -0.192447, 0.105638, 0.171853, -0.078155, -0.01768, 0.069772,
          0.065885, -0.027828, 0.056519, 0.241277, 0.027362, -0.182233, -0.015651, 0.16683,
          -0.072224, -0.107473, -0.080025, 0.184389, -0.043965, 0.14454, -0.154082, 0.080996,
          0.160428, 0.12115, -0.177812, 0.090153, -0.036472, -0.047512, 0.073384, 0.226632,
          -0.127738, 0.156569, 0.101621, -0.111087, 0.007725, 0.039887, -0.046772, -0.040576,
          -0.034951, -0.17254, 0.19912, -0.068246, -0.155107, 0.094266, 0.269953, 0.218895
        ],
        [
          0.012609, -0.208603, 0.134319, -0.144612, 0.230318, -0.128102, -0.167606, -0.136279,
          -0.136757, 0.049869, 0.027989, 0.01147, -0.096261, 0.051329, -0.111874, 0.09249, 0.103208,
          -0.00203, 0.168032, 0.085237, 0.306738, -0.143411, -0.193316, -0.077648, 0.217354,
          0.218446, 0.15838, -0.100897, 0.340957, 0.117559, -0.221042, -0.066353, -0.381244,
          0.047496, -0.122983, -0.080764, -0.0019, 0.252774, 0.085426, -0.144294, 0.208284,
          0.132198, -0.105479, 0.012342, -0.177314, -0.089395, 0.044277, 0.112674
        ],
        [
          -0.208436, 0.153192, 0.102468, 0.202175, -0.122273, 0.154227, -0.055917, 0.019642,
          -0.185654, -0.0586, 0.071186, 0.14395, -0.129546, -0.181677, 0.219306, -0.209761,
          -0.141484, -0.191148, -0.25482, -0.122206, -0.084653, -0.10785, -0.109438, 0.110605,
          0.270487, -0.026509, -0.039827, 0.182113, -0.117124, -0.07056, 0.089728, 0.032894,
          0.138403, -0.220508, -0.007837, 0.025044, -0.134579, 0.029275, 0.076053, -0.084865,
          0.362237, 0.234805, 0.096281, -0.253031, -0.052591, 0.132728, -0.190109, 0.188762
        ],
        [
          -0.097988, 0.111145, 0.00677, 0.104499, -0.135503, -0.066499, -0.000368, 0.272977,
          -0.15778, 0.212299, 0.18788, -0.097191, 0.07698, -0.305702, 0.119792, 0.107451, -0.111205,
          0.021361, -0.289732, 0.270995, -0.16976, 0.092197, -0.045517, 0.224387, -0.089093,
          -0.068821, 0.02718, 0.149222, -0.230358, -0.160613, -0.153523, 0.177178, -0.199715,
          0.03965, -0.145964, 0.04195, 0.154235, -0.022208, -0.267175, -0.068651, -0.163945,
          -0.153235, 0.126696, -0.025344, 0.159489, -0.084454, 0.166101, 0.097865
        ],
        [
          0.048487, -0.029729, -0.099524, -0.065916, -0.076698, 0.141879, 0.017734, -0.227604,
          0.034551, 0.01197, -0.21788, 0.0371, 0.121731, 0.16428, -0.171295, 0.211543, -0.037438,
          0.054127, 0.074268, 0.218509, 0.046554, 0.058089, -0.098327, 0.081566, -0.311053,
          0.143602, 0.029755, 0.049878, -0.158816, 0.030188, -0.20088, -0.11028, -0.003606,
          -0.041274, 0.137979, -0.107895, -0.014942, -0.119521, 0.109802, -0.133694, 0.019007,
          -0.129771, -0.185206, 0.180087, -0.091949, -0.132339, 0.139651, -0.093673
        ],
        [
          0.302548, 0.062865, -0.180418, -0.298746, -0.065892, 0.155047, 0.14042, -0.173717,
          -0.221137, 0.090649, -0.009962, 0.091758, 0.005274, -0.092134, 0.190555, 0.287427,
          -0.144067, 0.075072, -0.164936, 0.057789, 0.047548, 0.23192, -0.069916, 0.12381,
          -0.135079, -0.217251, -0.21398, 0.215776, -0.13988, 0.097962, -0.117382, 0.090184,
          -0.042851, -0.061227, -0.225969, -0.262388, 0.023657, 0.204226, -0.269891, -0.147583,
          -0.15217, -0.001535, -0.082144, 0.129619, -0.219697, -0.136002, 0.002212, -0.080325
        ],
        [
          0.074327, -0.142377, -0.243098, 0.145107, -0.039218, 0.125999, 0.040278, -0.145272,
          -0.004658, -0.14827, -0.013044, 0.050032, -0.041146, 0.018233, 0.274972, 0.227586,
          0.063961, -0.077964, -0.037889, -0.114207, 0.152696, -0.072364, 0.224002, -0.12046,
          0.017137, 0.012033, 0.125483, 0.129431, -0.029146, -0.081351, 0.067571, -0.221392,
          0.202101, 0.048607, 0.062271, 0.034697, 0.056748, -0.104599, 0.242171, -0.016809,
          -0.009274, -0.12383, -0.012302, 0.002994, 0.053871, 0.151765, 0.012094, 0.243712
        ],
        [
          0.068352, 0.245869, -0.215064, 0.002187, -0.107902, 0.121388, 0.106987, -0.291451,
          -0.138697, 0.170322, -0.189019, -0.00633, -0.059821, 0.149197, -0.186214, -0.141897,
          0.104758, 0.268009, -0.065473, 0.016349, 0.181819, 0.152104, 0.188894, 0.137841,
          -0.377249, -0.210457, 0.054707, 0.079399, -0.049355, -0.018166, 0.08523, -0.163006,
          -0.075092, 0.190612, -0.00023, 0.054803, -0.024721, 0.09974, 0.031532, 0.14001, 0.063799,
          -0.124993, -0.15579, -0.143008, -0.201948, -0.057138, 0.159115, 0.086016
        ],
        [
          0.092507, -0.014073, -0.206166, -0.096062, -0.163076, -0.222664, -0.00078, 0.272502,
          -0.188206, -0.170121, 0.111446, -0.1175, 0.21581, -0.021216, 0.073603, -0.068278,
          0.073724, 0.004861, 0.120517, -0.08068, -0.153741, 0.087297, -0.045848, 0.09038, 0.025599,
          0.098874, -0.123272, 0.004336, 0.037526, 0.152605, 0.100711, -0.134963, 0.166134,
          -0.295281, 0.063873, 0.026648, -0.151727, 0.142101, -0.128114, -0.171456, 0.064587,
          0.234973, 0.188633, 0.16653, 0.05432, -0.040117, -0.218256, -0.162113
        ],
        [
          0.03403, 0.154058, -0.06973, 0.081348, -0.025931, -0.238601, -0.024386, 0.250634, 0.15014,
          0.250277, -0.106557, 0.23134, -0.222105, -0.22794, 0.24727, -0.065094, -0.01697,
          -0.056839, 0.163104, 0.204066, -0.153335, 0.062049, -0.166552, 0.072023, -0.077232,
          -0.156143, -0.083174, 0.019697, 0.138992, -0.027846, -0.162313, 0.034333, -0.047018,
          0.056047, 0.262451, -0.122217, 0.103439, 0.06723, -0.236231, 0.131569, 0.093077, 0.004897,
          0.250415, -0.017748, 0.276833, 0.099611, 0.024383, 0.168687
        ],
        [
          -0.120636, 0.219699, 0.13208, -0.202753, -0.002938, -0.032195, -0.127574, -0.092853,
          -0.078544, -0.017206, -0.050862, -0.136137, -0.026981, -0.014732, 0.015203, -0.044914,
          -0.060946, 0.05723, -0.254518, -0.144683, -0.331097, 0.112699, 0.133199, 0.164831,
          0.092967, 0.035697, -0.044799, 0.02547, -0.250707, -0.020183, 0.062147, 0.02565,
          -0.158265, -0.093403, 0.083183, 0.008754, 0.164466, -0.141194, 0.158693, -0.047579,
          0.218531, 0.150335, 0.062051, 0.050385, 0.188204, 0.133282, -0.169049, -0.211262
        ],
        [
          0.080341, 0.010279, 0.06681, 0.04062, -0.324996, 0.190465, 0.091812, -0.162683, -0.025689,
          0.254128, -0.220199, 0.225064, -0.102768, -0.013733, 0.222634, 0.024611, -0.102805,
          0.146135, 0.020592, -0.116938, 0.154345, 0.063405, 0.025658, -0.058134, -0.236571,
          -0.032048, 0.029297, 0.113224, 0.085469, 0.217856, -0.231829, -0.017428, -0.016778,
          0.059714, 0.04571, 0.285505, -0.176496, 0.157583, 0.102412, 0.285988, 0.104443, 0.21672,
          -0.230723, 0.17096, 0.162925, -0.149338, -0.253109, -0.042553
        ],
        [
          0.086084, 0.017358, 0.087893, -0.241336, -0.130146, 0.196355, -0.289093, -0.076238,
          0.211844, -0.063041, 0.064095, -0.345491, 0.091546, -0.109426, 0.11163, -0.091042,
          -0.02597, 0.170447, -0.050778, 0.091222, -0.05092, 0.045957, -0.052947, 0.09785,
          -0.258516, 0.162173, -0.09476, -0.074847, -0.030011, 0.315193, 0.159912, -0.185294,
          0.049271, 0.065107, -0.031466, 0.186694, 0.087422, -0.022745, -0.091178, 0.03258,
          -0.101391, 0.10129, -0.066288, 0.101074, 0.000913, -0.114749, -0.078926, -0.316099
        ],
        [
          0.099945, 0.211749, 0.213014, 0.039951, 0.147463, -0.247603, 0.368364, -0.200954,
          0.198211, 0.158495, -0.092076, 0.33525, -0.24485, 0.012893, -0.051334, 0.004292,
          -0.256658, 0.180994, -0.134312, -0.180116, 0.204636, -0.05585, -0.195334, 0.024573,
          -0.102614, -0.212329, 0.148848, 0.150312, -0.314114, -0.266317, -0.000745, 0.221932,
          -0.05832, -0.386133, -0.232378, -0.47266, -0.206545, 0.028951, -0.297145, -0.018776,
          -0.023375, 0.120798, 0.308923, -0.025145, -0.092092, 0.002938, 0.059152, 0.260861
        ],
        [
          0.005866, 0.110985, 0.25051, -0.084419, 0.064401, -0.305871, -0.066345, -0.140095,
          -0.221408, 0.169209, -0.193698, 0.024624, 0.061845, 0.071136, 0.087301, 0.231551,
          0.068403, -0.045825, -0.275075, -0.016724, 0.081787, 0.085257, 0.070594, 0.117274,
          -0.276029, -0.215616, -0.103015, 0.129196, 0.160621, -0.139246, -0.057978, 0.030424,
          -0.0252, -0.139183, -0.247168, -0.066673, -0.241269, -0.168976, -0.180992, 0.010219,
          -0.07119, 0.318557, -0.074946, -0.02891, -0.178674, -0.297902, 0.13504, -0.188339
        ],
        [
          0.290339, 0.271347, 0.095572, 0.059915, 0.094132, 0.05892, 0.015988, -0.298986, -0.256332,
          -0.019137, -0.032337, 0.247903, -0.266235, 0.180703, -0.325362, 0.069618, 0.002574,
          0.071326, -0.109369, 0.142397, 0.259971, -0.020152, 0.018569, 0.212482, 0.157827,
          -0.065301, -0.249552, 0.196278, 0.124872, -0.125151, -0.214045, 0.217846, -0.224034,
          0.325975, -0.082396, 0.139185, -0.018275, 0.075343, 0.162449, 0.011777, -0.090706,
          -0.217977, -0.22276, -0.016574, 0.078326, -0.174376, -0.067166, 0.010131
        ],
        [
          0.090333, -0.019343, -0.071947, -0.160495, 0.072955, -0.057693, 0.015806, 0.148316,
          0.129997, -0.107596, 0.179199, 0.229626, 0.131264, -0.075479, 0.010162, -0.248486,
          0.042402, -0.01907, -0.110705, -0.116784, -0.075634, 0.032656, 0.203749, -0.148871,
          -0.045407, -0.054414, 0.111914, 0.105674, 0.245726, -0.022745, 0.205296, -0.290636,
          0.090132, -0.328873, 0.127943, -0.079746, 0.013513, 0.166654, -0.086439, -0.138812,
          0.183354, -0.016308, -0.180539, -0.039712, 0.011675, -0.220755, -0.230314, -0.234745
        ],
        [
          0.021991, 0.200761, 0.245022, 0.146597, -0.083081, 0.305383, 0.261506, -0.253171,
          0.239117, 0.323811, 0.185763, 0.101975, -0.079657, -0.158763, -0.173924, -0.287582,
          -0.101411, 0.208698, 0.064142, 0.063586, 0.186866, 0.137572, 0.046823, -0.189974,
          -0.275707, -0.140802, -0.215588, -0.002302, -0.265636, -0.084839, 0.2168, -0.214856,
          0.039736, 0.168402, -0.208732, 0.168637, 0.009341, -0.151395, -0.049909, 0.020965,
          0.078288, -0.060061, 0.204035, -0.14937, 0.148382, -0.176201, 0.16017, 0.132535
        ],
        [
          0.189081, 0.050023, -0.027232, 0.214445, 0.097827, 0.05365, 0.407782, -0.083003,
          -0.120305, 0.079712, 0.11163, 0.013016, 0.047449, 0.070782, 0.042584, 0.138775, -0.172749,
          -0.104125, 0.05144, -0.150162, -0.028497, 0.252154, -0.019592, 0.30598, 0.126009,
          -0.00736, -0.242266, 0.22839, -0.183098, -0.275177, 0.062906, -0.142023, 0.234368,
          -0.250902, -0.181598, -0.295221, 0.17986, 0.084802, 0.160675, -0.259942, -0.040666,
          0.055058, 0.067486, -0.077957, 0.091228, -0.063944, 0.296386, -0.089503
        ],
        [
          0.163964, -0.307291, -0.079154, 0.102182, -0.001868, 0.07285, -0.050077, -0.169734,
          0.138933, 0.09285, 0.152205, -0.035635, 0.085929, 0.105491, -0.024452, -0.080499,
          -0.052268, -0.277346, -0.181942, -0.297745, -0.004203, 0.02849, 0.253536, 0.072481,
          -0.043761, 0.293611, 0.041071, -0.071302, 0.063022, 0.238909, 0.10183, 0.138376,
          -0.176762, -0.138186, 0.132718, 0.179251, 0.13266, 0.20904, 0.029305, -0.271465, 0.180751,
          0.149261, -0.20581, 0.089926, 0.175378, 0.225409, -0.037133, -0.123258
        ],
        [
          0.108753, 0.231899, 0.117686, -0.193312, 0.207938, -0.098082, -0.226236, -0.127396,
          -0.017747, -0.006304, -0.17727, 0.040428, -0.221108, -0.308382, -0.077655, 0.350159,
          0.098201, -0.009557, 0.265927, 0.190033, 0.280184, 0.007529, 0.055894, -0.109904, 0.0636,
          0.35485, -0.105225, -0.191687, -0.056385, 0.137957, -0.012639, 0.097566, -0.033749,
          0.019026, 0.047015, 0.232193, -0.086216, -0.119661, -0.136846, 0.237743, -0.241411,
          0.210218, 0.180172, -0.06765, 0.177481, -0.187611, 0.068712, 0.129688
        ],
        [
          0.166724, -0.199476, 0.014029, 0.124965, -0.114222, -0.1337, -0.102464, 0.100059,
          0.079251, -0.098409, 0.187632, 0.18229, 0.007721, -0.110975, 0.057368, -0.145706,
          -0.034962, 0.075964, -0.128971, -0.225625, -0.283027, -0.146817, -0.204017, 0.192719,
          -0.094933, -0.184723, -0.191079, 0.184966, 0.031824, -0.010913, 0.231046, -0.066605,
          -0.154935, -0.099946, -0.006262, -0.049027, 0.098224, -0.117783, 0.046147, -0.042994,
          -0.021098, 0.017294, 0.175953, -0.082345, 0.112253, -0.136966, -0.147301, -0.225791
        ],
        [
          -0.153325, -0.172882, -0.247199, 0.147266, -0.116959, 0.02974, -0.028519, 0.099547,
          0.069289, 0.01272, -0.00184, 0.152658, 0.108936, -0.220156, -0.225787, 0.195539,
          -0.116544, 0.012661, 0.012387, -0.149372, -0.117646, 0.020309, -0.134572, -0.028668,
          0.145082, -0.05985, -0.281574, 0.023526, 0.164982, 0.155002, 0.074191, -0.162318,
          0.086034, 0.067566, -0.152321, 0.057411, -0.032928, 0.021898, -0.1666, -0.027441,
          0.158964, 0.230791, 0.186514, 0.2308, -0.038101, 0.074654, -0.069998, 0.205179
        ],
        [
          -0.206024, 0.193399, 0.133644, 0.103085, -0.196445, -0.09889, 0.052782, -0.178299,
          0.240143, -0.094287, 0.102657, -0.137069, 0.086565, -0.002589, -0.074858, -0.223913,
          -0.001497, -0.038185, -0.072098, -0.000122, -0.060191, -0.09493, -0.046241, -0.282956,
          -0.166942, 0.357622, 0.03163, -0.052602, 0.092738, 0.207994, -0.028373, -0.292522,
          -0.171915, -0.029432, 0.223876, 0.161827, -0.25769, -0.10979, 0.0212, 0.133918, 0.104726,
          0.127931, -0.1479, 0.142198, 0.082281, -0.219572, 0.004296, -0.132742
        ],
        [
          -0.24465, -0.037623, 0.01624, -0.178547, 0.017793, 0.014703, -0.073021, -0.070915,
          -0.189018, 0.096954, -0.090361, -0.078321, 0.132455, -0.006149, 0.19753, 0.074933,
          -0.295133, 0.203759, -0.033682, 0.016517, -0.158653, 0.178927, -0.29342, 0.184841,
          0.275292, -0.005604, 0.122269, -0.003549, 0.1717, 0.070938, 0.01196, 0.076081, 0.280811,
          0.1394, 0.045351, 0.151557, 0.112438, 0.040873, -0.147608, -0.088612, 0.232874, 0.191003,
          0.181671, -0.283523, -0.007888, 0.10306, 0.146896, -0.192243
        ],
        [
          0.194967, 0.107702, -0.158489, -0.071794, -0.010954, -0.065789, -0.0639, -0.084948,
          0.10299, -0.148303, -0.198132, -0.042576, 0.003329, 0.072544, 0.028184, 0.178149,
          -0.071014, -0.163447, -0.221702, -0.060573, -0.016546, 0.209077, 0.042767, -0.008563,
          -0.116776, -0.155215, 0.01938, -0.040958, -0.072973, -0.234754, 0.022105, 0.199056,
          -0.091994, 0.011197, 0.304669, -0.081664, -0.038252, -0.146178, -0.004724, -0.328807,
          0.222992, 0.114556, 0.194538, 0.037309, 0.170965, -0.01253, 0.159746, 0.16698
        ],
        [
          0.06534, 0.21552, 0.004921, 0.074001, -0.12857, -0.367094, -0.172351, -0.078623, 0.003172,
          -0.140266, -0.070727, 0.136172, -0.092814, 0.076748, -0.269217, -0.150413, 0.131672,
          0.058237, 0.18715, -0.092094, 0.185025, -0.075629, -0.237496, -0.163472, -0.143386,
          -0.202182, -0.213473, 0.242739, -0.069614, -0.152884, -0.124258, 0.027741, -0.184618,
          0.119843, 0.121832, -0.143569, -0.100378, -0.16256, 0.062844, 0.03149, -0.097591,
          -0.277526, 0.146404, -0.087721, -0.102507, -0.012045, 0.122987, 0.155065
        ],
        [
          -0.232309, 0.198313, 0.095377, -0.25591, 0.1502, -0.033408, 0.309839, -0.277076, 0.081469,
          0.041413, 0.159695, -0.15065, 0.21036, 0.073627, -0.130725, 0.236951, 0.169101, -0.064051,
          -0.021461, 0.009509, -0.15565, -0.090111, -0.191754, -0.072985, -0.160742, 0.089405,
