{
  "kind": "regressor",
  "target": "colour_lab",
  "feature_names": [
    "SiO2_umf",
    "Al2O3_umf",
    "B2O3_umf",
    "Li2O_umf",
    "K2O_umf",
    "Na2O_umf",
    "KNaO_umf",
    "MgO_umf",
    "CaO_umf",
    "SrO_umf",
    "BaO_umf",
    "ZnO_umf",
    "PbO_umf",
    "P2O5_umf",
    "F_umf",
    "V2O5_umf",
    "Cr2O3_umf",
    "MnO_umf",
    "MnO2_umf",
    "FeO_umf",
    "Fe2O3_umf",
    "CoO_umf",
    "NiO_umf",
    "CuO_umf",
    "Cu2O_umf",
    "CdO_umf",
    "TiO2_umf",
    "ZrO2_umf",
    "SnO2_umf",
    "MoO3_umf",
    "Bi2O3_umf",
    "CeO2_umf",
    "PrO2_umf",
    "Pr2O3_umf",
    "Nd2O3_umf",
    "U3O8_umf",
    "Ho2O3_umf",
    "Er2O3_umf",
    "SiO2_Al2O3_ratio_umf",
    "R2O_umf",
    "RO_umf",
    "cone_num",
    "atm_oxidation",
    "atm_reduction",
    "atm_neutral",
    "atm_salt_soda",
    "atm_wood",
    "atm_raku",
    "atm_luster",
    "atm_known"
  ],
  "scaler": {
    "mean": [
      3.048494, 0.471412, 0.158143, 0.039817, 0.104398, 0.170768, 0.275166, 0.118897, 0.473608,
      0.024576, 0.021254, 0.042959, 0.002361, 0.006182, 0.008264, 2.6e-5, 0.001885, 0.00136,
      0.111288, 0.000771, 0.042937, 0.011393, 0.000652, 0.042636, 0.00516, 0.0, 0.045921, 0.016669,
      0.011831, 2e-5, 6e-6, 0.0, 0.0, 9.3e-5, 0.0, 0.0, 0.0, 1.6e-5, 9.025281, 0.314984, 0.685016,
      28.40009, 0.672694, 0.390145, 0.029159, 0.014014, 0.011302, 0.022152, 0.000904, 0.90009
    ],
    "std": [
      3.420469, 3.039114, 0.236206, 0.11276, 0.09358, 0.145517, 0.161112, 0.143479, 0.228586,
      0.095156, 0.084655, 0.108149, 0.039809, 0.021767, 0.13261, 0.001355, 0.027732, 0.022961,
      2.727496, 0.008421, 0.108803, 0.053096, 0.006672, 0.684906, 0.232793, 1.0, 0.117555, 0.077173,
      0.050824, 0.001327, 0.000368, 1.0, 1.0, 0.003647, 1.0, 1.0, 1.0, 0.001048, 12.257966,
      0.192384, 0.192384, 4.613297, 0.46923, 0.487783, 0.168252, 0.11755, 0.105708, 0.147177,
      0.030056, 0.299879
    ]
  },
  "layers": [
    {
      "w": [
        [
          0.024942, 0.131119, 0.006035, 0.103231, 0.038305, -0.102626, -0.05145, 0.016482,
          -0.024241, 0.076547, -0.15456, 0.053804, 0.067702, 0.003893, -0.120256, -0.036868,
          -0.015151, -0.033074, -0.025369, -0.077369, 0.040418, 0.036299, -0.127948, -0.07047,
          -0.142306, 0.025864, -0.04538, 0.05903, 0.097918, -0.081081, 0.140287, -0.082316,
          -0.076242, 0.076862, 0.127705, 0.124687, 0.029818, 0.062062, -0.021448, 0.006177,
          -0.045828, 0.110149, -0.162342, 0.092288, -0.117467, -0.005809, 0.137461, 0.048601,
          0.138827, 0.176997, 0.162934, 0.052288, 0.173572, 0.182842, 0.037269, 0.152427, -0.000905,
          0.005779, -0.13203, -0.088766, 0.064022, -0.117321, 0.178311, -0.096259, -0.093039,
          -0.03447, -0.177949, 0.128754, -0.087086, 0.084572, 0.156408, 0.182503, -0.023079,
          0.006542, 0.011802, 0.04486, 0.049804, -0.113497, 0.013905, 0.097532, 0.087373, 0.076081,
          -0.066604, -0.154251, -0.029494, -0.073268, -0.033288, -0.000122, 0.090458, -0.058576,
          0.084124, 0.070085, 0.131611, 0.128776, -0.006956, -0.118957
        ],
        [
          -0.221289, -0.116431, -0.385164, -0.361506, -0.250992, -0.111307, -0.152474, -0.092816,
          0.08278, -0.104985, -0.260184, -0.032989, -0.325203, -0.303416, -0.273174, -0.172804,
          0.032491, 0.039408, -0.046331, 0.038835, 0.039325, -0.234396, 0.090058, -0.220417,
          0.022546, 0.054452, -0.309858, -0.397708, -0.361283, -0.05442, -0.016758, 0.065934,
          -0.352122, -0.065533, -0.135286, -0.22811, -0.305044, -0.093539, 0.074022, -0.177963,
          -0.083967, -0.12492, -0.299716, 0.110269, 0.113339, -0.239884, -0.168821, -0.250611,
          -0.298595, -0.107363, -0.065769, -0.088433, -0.288943, -0.106464, 0.082911, -0.155749,
          -0.42109, -0.141329, 0.095197, -0.292028, -0.008576, 0.001166, -0.221339, 0.034313,
          -0.277316, -0.050056, -0.205847, -0.014343, -0.250826, 0.038099, -0.210132, -0.016082,
          -0.170182, -0.156916, -0.023779, -0.405439, -0.134502, -0.383344, 0.02783, -0.376721,
          0.018456, -0.30265, 0.057478, -0.365839, -0.249989, -0.319679, 0.039602, 0.042516,
          -0.218427, 0.003243, 0.017072, -0.020977, -0.237091, -0.377144, -0.358682, 0.055033
        ],
        [
          0.134028, 0.126, -0.084064, 0.046353, 0.015506, 0.39118, 0.28142, 0.117922, 0.252752,
          -0.159668, -0.234798, 0.332479, 0.009152, -0.246439, -0.246447, 0.056697, -0.222981,
          -0.201989, 0.05248, -0.064589, -0.000942, -0.252714, 0.075193, -0.050931, -0.15382,
          0.184983, 0.133474, 0.251779, 0.179257, 0.083609, -0.214302, -0.070235, -0.021529,
          -0.13273, 0.198822, -0.04842, 0.208832, 0.054713, 0.131968, -0.052712, 0.029382, -0.01236,
          -0.054036, 0.205259, -0.131838, -0.298565, 0.034231, -0.248512, 0.197384, 0.259855,
          0.129234, -0.031101, -0.272144, 0.041656, -0.04761, 0.162068, 0.252087, 0.197978,
          -0.042025, 0.075963, 0.113713, -0.107872, -0.245821, -0.009586, 0.238797, -0.049037,
          0.046246, -0.353162, -0.060344, 0.286322, -0.073575, 0.085245, 0.235558, 0.16639,
          0.089471, -0.015426, -0.043962, -0.122361, 0.129971, 0.09622, 0.116768, 0.262848,
          0.013767, -0.138341, 0.257065, 0.173282, 0.016125, 0.15723, 0.200381, -0.189474,
          -0.135001, -0.106282, 0.122265, -0.308759, -0.094938, 0.047435
        ],
        [
          -0.175457, 0.153827, -0.244013, -0.22103, 0.231418, -0.070875, -0.252784, 0.053928,
          0.077529, -0.153327, -0.025103, -0.257033, -0.323432, -0.019222, -0.129831, 0.012874,
          0.111923, 0.186024, 0.082101, -0.153942, 0.116844, -0.032553, -0.028717, -0.178345,
          -0.13429, 0.18976, 0.176519, 0.056398, -0.047942, -0.024866, -0.151989, -0.095785,
          0.052648, 0.101213, 0.086706, -0.127109, 0.233708, 0.177485, -0.285642, 0.093729,
          0.066661, -0.216048, -0.095802, 0.044403, -0.363287, -0.186971, -0.255863, -0.32562,
          0.030391, 0.144183, -0.05994, -0.302358, 0.020063, 0.015647, -0.098279, -0.083659,
          -0.081512, 0.003783, 0.065003, -0.19932, -0.145119, 0.078251, 0.005743, 0.141168, 0.08952,
          -0.115145, -0.286215, 0.091648, -0.384373, 0.027778, 0.21604, 0.050912, -0.106641,
          -0.027368, -0.049663, -0.04095, 0.181843, -0.105474, -0.019234, 0.012302, -0.582308,
          -0.286401, -0.17779, -0.272715, -0.151059, 0.002868, -0.239034, -0.049, 0.223585,
          -0.122584, 0.086376, -0.042649, -0.163759, 0.06893, 0.036771, 0.21213
        ],
        [
          0.231001, 0.052416, -0.064734, -0.11178, 0.118994, 0.106837, 0.336879, -0.096397,
          -0.078166, 0.121856, -0.081392, 0.050321, 0.197523, 0.017391, 0.147596, 0.143344,
          -0.26476, 0.305645, -0.099209, 0.290431, -0.031705, 0.323314, -0.013423, -0.186653,
          0.156379, -0.229559, -0.140898, 0.173, 0.220378, -0.037592, 0.012073, -0.08158, -0.262934,
          -0.08464, 0.079511, 0.191902, -0.038849, 0.050918, -0.361808, 0.08218, -0.133095,
          0.051288, -0.01835, 0.206216, 0.128529, -0.145086, -0.124681, 0.270099, -0.039797,
          -0.384277, -0.088951, 0.050367, -0.230606, 0.141105, 0.036992, -0.203079, -0.200709,
          0.179031, -0.124567, -0.021075, 0.217013, 0.2196, 0.321741, 0.055587, -0.02859, -0.082027,
          0.174381, 0.004885, -9.4e-5, 0.1083, -0.207262, -0.209335, -0.427052, 0.033022, -0.324819,
          -0.17403, -0.066676, 0.083042, 0.139422, 0.08363, 0.322129, -0.062928, -0.106578,
          0.343914, -0.163843, 0.182272, -0.179348, 0.232596, -0.257107, 0.278742, 0.068601,
          0.28028, -0.185062, 0.088425, 0.176261, -0.031815
        ],
        [
          0.012398, 0.134889, 0.087494, 0.008911, 0.033733, 0.285843, -0.25334, -0.025653, 0.202278,
          0.166498, -0.065819, 0.169758, -0.143041, -0.139188, -0.025213, 0.048918, 0.039624,
          -0.15982, 0.227208, 0.140041, 0.090819, -0.00622, -0.038287, 0.130314, 0.057797,
          -0.060305, 0.189788, 0.157943, 0.124022, 0.162501, -0.045969, 0.054979, 0.263326, 0.18962,
          -0.271573, -0.102085, 0.006179, 0.15507, 0.459715, -0.12489, 0.109148, -0.069691,
          0.203908, 0.207234, 0.116797, -0.117668, -0.099324, -0.161555, -0.179046, 0.256278,
          0.042024, 0.170237, 0.21748, 0.125436, 0.165356, 0.225065, 0.201375, -0.116768, 0.124223,
          -0.047979, 0.206349, 0.121382, -0.207693, 0.180142, -0.068733, -0.098408, -0.182833,
          0.100974, 0.160342, 0.164652, 0.062886, 0.181489, 0.173991, 0.085182, 0.255758, -0.090109,
          -0.188598, -0.2177, 0.175076, 0.026407, 0.164797, -0.161948, -0.234763, -0.293757,
          -0.044682, 0.139222, -0.029835, -0.054964, 0.267211, -0.180408, -0.039823, 0.196975,
          -0.11689, 0.034507, 0.213608, 0.254164
        ],
        [
          -0.095906, 0.235238, 0.111717, -0.106072, -0.039126, 0.279251, -0.028464, -0.016549,
          0.093709, -0.126143, -0.206838, -0.157608, -0.177469, -0.138714, -0.145935, 0.141332,
          -0.162913, 0.081641, 0.182129, -0.019194, 0.085562, -0.105261, -0.029667, -0.243656,
          -0.221016, -0.046635, -0.127327, -0.20877, -0.17076, -0.035563, -0.204948, 0.016628,
          0.04493, 0.154389, -0.282957, 0.225498, 0.063091, -0.225885, 0.172911, 0.193915,
          -0.101126, -0.080199, 0.073395, 0.164432, -0.043442, -0.21435, -0.076741, -0.055392,
          0.025676, -0.006594, -0.041363, 0.061014, -0.17914, -0.041261, 0.087049, 0.1804, 0.055713,
          -0.040541, -0.022138, 0.049983, 0.082191, -0.047582, -0.161006, -0.022048, -0.252231,
          -0.066209, -0.173039, -0.049, -0.047984, 0.180225, 0.043244, 0.050249, 0.22869, -0.000743,
          -0.224428, -0.032042, 0.057915, 0.065848, 0.039067, -0.127869, 0.025773, -0.085082,
          -0.018645, -0.023405, -0.095974, 0.260046, 0.069187, -0.098146, -0.05429, -0.244582,
          -0.099078, -0.051192, -0.184021, -0.091835, -0.106732, 0.242918
        ],
        [
          -0.285151, -0.058129, 0.071589, 0.351447, -0.287894, -0.11689, 0.356864, 0.378068,
          0.029848, -0.034957, -0.295815, 0.194192, 0.269987, 0.17922, 0.115767, -0.110736,
          0.171437, -0.211713, -0.145615, -0.114546, 0.008207, -0.097994, -0.122795, 0.098689,
          -0.205454, -6.6e-5, -0.046353, 0.025762, -0.17742, -0.349045, -0.145697, -0.187359,
          -0.225716, 0.343308, 0.064205, 0.242341, -0.165208, 0.222261, 0.326471, -0.009245,
          0.042845, 0.006096, -0.162373, 0.243074, 0.12939, 0.2707, -0.251735, 0.141301, 0.247194,
          -0.197017, -0.198086, 0.298065, -0.07283, 0.152894, -0.235633, 0.147573, -0.181098,
          -0.103276, -0.116342, 0.294966, 0.138177, 0.147646, -0.184426, 0.329413, -0.111385,
          0.131264, 0.096574, -0.123746, 0.136295, -0.088823, 0.194517, -0.137965, -0.138266,
          0.347539, 0.165716, -0.15809, 0.286895, 0.199215, -0.051169, 0.308975, 0.268015, 0.045911,
          -0.12104, 0.169351, 0.032747, 0.196451, 0.245466, 0.225999, -0.292468, -0.187154,
          -0.249735, 0.146629, -0.336987, 0.157801, 0.296049, 0.350704
        ],
        [
          -0.042676, 0.093101, -0.207025, 0.149711, -0.108756, -0.014911, 0.107881, -0.247993,
          0.007661, 0.077367, 0.196498, 0.139822, 0.183895, 0.090748, -0.011106, 0.03611, -0.032493,
          0.336989, -0.0434, 0.023737, 0.036609, 0.143498, -0.143104, 0.09029, 0.060852, 0.061789,
          -0.200548, 0.231225, 0.27758, 0.094805, 0.274331, 0.275635, 0.097631, -0.189689, 0.152107,
          -0.035706, -0.074187, 0.139998, 0.301967, 0.272275, -0.069649, -0.054383, 0.191298,
          0.112653, -0.129534, 0.224691, 0.23772, 0.08279, 0.131958, 0.00708, -0.109724, -0.118606,
          0.182625, -0.105814, -0.023827, -0.089543, 0.22428, 0.180674, -0.072544, -0.116661,
          0.176857, -0.048654, -0.007494, -0.038384, -0.05354, -0.170954, 0.112201, -0.084369,
          0.113736, -0.089307, 0.183581, 0.090534, -0.196687, 0.111748, -0.095356, 0.262567,
          -0.158123, -0.042438, -0.048169, 0.305057, 0.125573, 0.152401, -0.030923, 0.191568,
          -0.145605, 0.244865, -0.127643, -0.11333, -0.298277, 0.06434, 0.057721, -0.170635,
          0.197519, -0.014197, -0.031216, -0.061403
        ],
        [
          0.020713, 0.030715, -0.265418, -0.106495, 0.245538, 0.13392, -0.159766, -0.183469,
          0.088356, 0.00079, -0.301769, -0.224993, 0.125812, -0.032235, -0.189866, -0.174431,
          -0.117722, 0.059239, -0.159432, -0.112142, 0.122633, -0.071472, 0.098928, -0.151761,
          -0.080054, -0.106181, -0.013208, 0.142576, 0.002504, 0.060092, 0.087265, -0.200333,
          -0.128747, 0.260839, -0.417085, -0.216493, -0.25132, -0.301154, -0.251659, 0.007462,
          -0.081667, 0.213251, 0.240475, -0.229894, -0.099736, -0.171328, 0.060455, -0.116951,
          0.013935, -0.061554, -0.073801, -0.117015, -0.040409, 0.174909, 0.10194, -0.010654,
          0.199942, 0.014765, 0.182533, -0.007462, -0.092839, -0.292975, -0.006131, 0.039123,
          0.053355, 0.000557, -0.237855, 0.254391, 0.25494, 0.128637, -0.205289, -0.022552,
          -0.364282, 0.199714, -0.275002, 0.079721, -0.209072, 0.023535, -0.163498, 0.062712,
          -0.258541, -0.2988, -0.201834, 0.191048, 0.183538, -0.076094, 0.021731, -0.012638,
          -0.104261, 0.247741, -0.006468, -0.061604, -0.059302, -0.347414, -0.240674, 0.111771
        ],
        [
          -0.400218, -0.073744, -0.323184, -0.265772, -0.105555, -0.227429, 0.01246, -0.298807,
          -0.046474, 0.053247, 0.056279, 0.073104, -0.006912, -0.428896, -0.354649, -0.221113,
          -0.09539, -0.368957, 0.015331, 0.146905, -0.058033, 0.119321, -0.392923, -0.376001,
          0.19038, 0.007525, -0.016329, -0.201048, -0.25326, 0.168733, 0.018187, 0.068848,
          -0.235362, -0.022941, -0.267328, -0.42805, 0.252964, -0.313224, -0.006971, -0.162041,
          -0.27427, -0.019483, 0.221752, 0.035034, 0.199025, 0.073869, -0.063044, 0.17409,
          -0.253919, 0.00555, -0.145068, 0.297187, 0.171565, -0.299674, 0.163153, 0.110297,
          -0.395906, 0.001869, 0.07974, -0.399395, -0.041805, -0.255816, 0.308134, 0.232194,
          0.234242, -0.018953, 0.154486, 0.256141, -0.261022, 0.119956, -0.462562, 0.149763,
          -0.13483, -0.389267, -0.260522, 0.093508, -0.232967, 0.014208, -0.328883, -0.328093,
          -0.454517, 0.0167, -0.204323, 0.048252, 0.147781, -0.158928, -0.245081, -0.375444,
          0.254178, -0.103435, 0.238191, -0.07389, 0.230491, 0.152941, 0.193884, -0.344844
        ],
        [
          0.235369, -0.06441, 0.068792, -0.011083, 0.177654, 0.178476, 0.091261, 0.00134, -0.079038,
          0.063002, -0.136724, -0.240523, -0.163936, -0.21898, -0.203626, -0.279559, -0.275224,
          -0.441085, 0.3111, -0.014803, -0.162606, 0.087168, -0.11316, 0.273879, 0.132263,
          -0.231311, -0.010161, 0.194734, 0.257923, -0.184621, 0.007665, -0.22335, 0.285351,
          -0.253144, 0.175391, 0.101747, 0.149816, -0.149151, -0.289557, -0.279981, -0.051495,
          -0.181866, 0.307285, -0.003609, -0.173878, 0.279412, 0.226919, 0.280774, 0.225888,
          -0.233195, -0.015775, 0.182133, 0.071484, -0.387676, 0.180124, -0.031256, -0.210685,
          -0.086409, -0.015501, 0.042607, -0.218608, 0.183971, -0.180178, -0.389201, 0.253848,
          0.285723, 0.111767, 0.209419, -0.007314, 0.030258, -0.273611, -0.074598, -0.201782,
          -0.126272, 0.023156, 0.003382, -0.235208, -0.119187, 0.126204, -0.310109, 0.146707,
          -0.118142, -0.156362, 0.031558, 0.269607, -0.252333, 0.101507, -0.033136, -0.111946,
          0.180587, 0.196752, 0.110439, 0.216952, 0.219872, 0.185003, 0.132567
        ],
        [
          0.013223, 0.025386, -0.007907, 0.045272, -0.39598, 0.165528, 0.139963, -0.446896,
          0.072798, -0.328435, -0.24745, -0.028799, -0.307696, 0.096115, 0.059556, -0.131556,
          -0.449428, -0.24873, 0.000955, 0.001994, 0.009453, -0.268658, 0.014527, 0.026811,
          -0.017783, -0.331022, 0.079587, 0.043289, 0.191841, -0.256854, -0.043567, 0.065855,
          -0.281728, 0.108687, -0.011738, -0.370926, -0.250063, -0.068929, -0.439219, -0.203199,
          -0.275337, -0.004996, -0.443459, 0.100389, -0.015393, 0.149455, -0.022045, -0.307867,
          0.026328, -0.443645, -0.175875, -0.303961, 0.010664, 0.034103, -0.028921, -0.015958,
          -0.146224, 0.154856, -0.047815, -0.257978, -0.401114, 0.037428, -0.034708, -0.306458,
          -0.344151, -0.003359, 0.047217, -0.100393, 0.086952, -0.289617, -0.041946, 0.105273,
          -0.176151, -0.030183, -0.173312, -0.300055, 0.117865, -0.151399, 0.055449, -0.407902,
          -0.145691, -0.406238, -0.039663, -0.213219, 0.072168, -0.299011, 0.101075, -0.371898,
          0.05805, -0.011319, -0.035658, 0.0894, 0.008728, -0.067242, -0.416964, -0.459907
        ],
        [
          0.144791, -0.065, 0.151606, -0.043376, -0.187709, -0.210437, 0.267211, -0.114574,
          -0.306847, -0.010495, -0.378896, 0.098854, -0.183691, 0.342488, 0.054593, 0.169442,
          -0.140182, -0.109598, -0.219816, 0.03623, 0.055523, -0.09383, 0.045579, 0.194998, 0.2609,
          -0.422392, -0.054172, -0.368718, -0.299772, 0.274658, -0.241747, -0.046713, -0.149845,
          -0.080492, 0.234888, -0.265621, -0.303805, 0.262457, -0.42643, 0.100245, -0.351824,
          -0.29999, -0.343022, -0.368155, 0.013844, 0.268528, -0.146614, -0.226653, -0.155159,
          -0.341514, -0.07143, 0.248534, -0.281017, 0.267238, -0.306523, 0.01151, -0.045531,
          0.351403, 0.211177, 0.33353, -0.087511, 0.326456, -0.085648, 0.361028, -0.121772,
          0.228105, 0.153438, -0.183043, -0.04107, -0.04397, -0.282552, -0.259078, -0.406089,
          -0.241786, 0.303676, -0.256344, 0.199791, -0.043719, -0.227702, -0.08544, 0.026044,
          -0.003918, -0.065105, 0.267533, -0.321667, 0.369638, 0.242713, 0.283166, -0.409824,
          0.083496, -0.433163, -0.273478, -0.460321, -0.307174, 0.311632, 0.29089
        ],
        [
          0.0594, -0.069767, -0.10499, -0.214327, 0.153771, -0.044031, 0.124973, -0.031141,
          -0.006278, -0.037933, -0.213785, 0.045382, 0.072688, -0.363119, -0.332558, 0.007778,
          0.08046, -0.219573, 0.013861, 0.006561, -0.022169, -0.296674, 0.043929, 0.084167,
          -0.431659, -0.232698, 0.10744, -0.113467, 0.111367, -0.027938, -0.272721, 0.106906,
          -0.084243, -0.115735, -0.46362, 0.057426, -0.080495, -0.350449, 0.148033, -0.271987,
          0.002911, -0.246883, 0.039413, -0.429658, 0.096779, -0.312289, -0.323547, -0.334309,
          -0.339495, -0.080618, -0.164058, 0.075965, -0.072589, -0.397955, -0.05951, 0.000427,
          -0.249208, -0.457279, -0.331196, 0.033328, -0.058599, -0.055061, 0.111761, 0.080151,
          -0.038492, 0.02278, -0.444392, -0.070599, -0.187592, -0.201311, -0.070495, 0.13749,
          -0.24896, -0.137789, 0.005087, 0.046127, -0.288604, -0.128365, -0.24912, -0.398463,
          0.164404, 0.064002, -0.368317, 0.161581, 0.015883, 0.068825, -0.290548, 0.051973,
          -0.098868, 0.089764, -0.277978, -0.096144, -0.248571, -0.049751, -0.481487, 0.032291
        ],
        [
          0.082871, -0.407707, -0.033029, -0.241974, 0.034535, -0.288911, -0.00453, 0.010796,
          0.121672, 0.026844, -0.246779, -0.013113, 0.041067, -0.081737, -0.399752, 0.06972,
          -0.007093, -0.010521, -0.349327, -0.035661, -0.243101, -0.009312, -0.428903, -0.020917,
          0.117265, -0.408965, 0.083624, -0.271798, 0.033648, 0.035247, -0.04406, 0.009031,
          0.041415, -0.355727, -0.355843, -0.02703, -0.000554, 0.008497, 0.009474, -0.271964,
          0.009202, -0.377633, -0.038243, -0.382944, -0.309729, -0.252627, -0.300057, -0.012958,
          -0.301629, -0.310313, -0.341605, -0.287841, -0.303973, -0.435012, -0.035453, -0.012396,
          -0.014335, -0.172103, -0.297577, 0.018305, -0.254109, -0.267471, -0.372476, -0.306008,
          -0.253936, -0.274569, -0.015132, -0.051316, -0.023661, 0.001701, 0.00906, 0.001315,
          0.073991, -0.466996, -0.374173, -0.408163, 0.001492, 0.04093, -0.247934, 0.027204,
          -0.581663, 0.047954, -0.332221, -0.354586, -0.208121, -0.390894, -0.309989, -0.332968,
          0.006119, -0.036005, -0.339901, -0.052687, 0.005674, -0.433351, -0.303051, -0.423455
        ],
        [
          -0.38272, -0.061581, -0.347302, -0.041852, -0.066179, -0.00659, -0.154219, -0.287213,
          0.38597, 0.096088, -0.190082, -0.262618, -0.53073, -0.069622, 0.119852, -0.225493,
          0.16111, 0.095567, -0.252497, -0.251123, 0.231955, -0.277362, 0.230513, 0.10723, -0.06258,
          -0.442942, -0.002432, -0.039859, 0.074691, 0.026172, 0.001255, -0.322993, -0.192497,
          -0.262256, -0.280979, -0.335681, -0.175623, 0.0229, -0.560876, -0.41214, -0.232255,
          0.012219, -0.115516, -0.126439, -0.274316, -0.230567, -0.026014, -0.324759, 0.153317,
          -0.378677, -0.262604, -0.304855, -0.153153, 0.192917, 0.129621, 0.169723, -0.268769,
          -0.422548, -0.209718, -0.412882, -0.467135, -0.498765, -0.418479, 0.176902, -0.341479,
          -0.434974, -0.459887, -0.411921, -0.270388, -0.034424, -0.436147, 0.168288, -0.532246,
          -0.190158, 0.003003, -0.142922, -0.035269, -0.365229, -0.514622, -0.08606, 0.119167,
          -0.137292, -0.185415, -0.004764, -0.054631, -0.437616, -0.054111, 0.011356, -0.435089,
          0.160612, -0.548203, 0.193035, -0.298945, -0.428875, -0.329619, -0.13022
        ],
        [
          -0.043061, 0.016758, -0.012169, -0.349475, -0.362725, -0.156881, 0.104051, -0.015788,
          -0.058957, 0.09706, -0.159973, -0.028389, -0.347872, -0.015497, -0.296453, -0.008175,
          -0.0738, -0.067213, -0.431966, -0.353427, -0.361137, -0.329855, -0.371825, 0.064113,
          -0.12173, -0.174195, -0.224562, -0.286356, -0.044713, -0.25299, -0.067192, -0.143502,
          0.058549, 0.01903, -0.231247, 0.054636, -0.310227, 0.120283, -0.100542, 0.022739, 0.00024,
          -0.034276, -0.075637, -0.190726, -0.388766, -0.316641, -0.378813, -0.029927, -0.319596,
          0.098858, -0.073083, -0.002073, -0.435303, -0.02411, 0.050013, -0.079329, -0.192136,
          0.086804, -0.397241, -0.095025, -0.36673, -0.363365, -0.308605, -0.475433, -0.446842,
          -0.468822, 0.141488, -0.102384, 0.045901, -0.215425, -0.198346, -0.037209, -0.068894,
          -0.309646, 0.052302, -0.331764, -0.133278, -0.06446, -0.293796, -0.502226, -0.00758,
          -0.186632, -0.528768, 0.0611, -0.335609, -0.054069, 0.057829, -0.349975, -0.379852,
          -0.465742, -0.315723, -0.498172, -0.09389, -0.492282, -0.285566, 0.03456
        ],
        [
          -0.047979, 0.071167, -0.375734, -0.03332, 0.158542, 0.080419, -0.02471, -0.016078,
          -0.090203, -0.355606, -0.302367, 0.037402, 0.025894, 0.079182, -0.110683, 0.01666,
          -0.359199, 0.145977, -0.447283, -0.463581, -0.085458, -0.441432, -0.023277, -0.452306,
          -0.29895, -0.288446, 0.131096, 0.061073, 0.285395, -0.324012, -0.479121, -0.242687,
          -0.060395, -0.092527, -0.306965, 0.074855, -0.38994, 0.04008, -0.115377, -0.004484,
          -0.294811, -0.277285, -0.308343, 0.153855, 0.034313, 0.035501, -0.018526, -0.336509,
          -0.233171, -0.161073, -0.378095, 0.102849, -0.366544, 0.05095, -0.057106, 0.101206,
          0.012507, 0.271696, 0.067098, -0.005944, -0.586645, 0.086412, -0.307784, 0.142658,
          -0.22875, -0.014396, -0.426943, -0.377067, -0.158553, -0.436615, -0.456641, -0.490986,
          0.182879, -0.147577, -0.003476, -0.264768, -0.3061, -0.187361, -0.051521, -0.409605,
          -0.642492, -0.417417, 0.088506, -0.089467, -0.394398, -0.026968, -0.412647, 0.222709,
          -0.257722, -0.223523, -0.265892, 0.176006, -0.347262, -0.436339, -0.18862, -0.182758
        ],
        [
          -0.001926, 0.004456, -0.459605, 0.062415, -0.034431, -0.072581, 0.113635, -0.075701,
          -0.005929, 0.045591, 0.014353, 0.008283, -0.381096, -0.226949, 0.056491, -0.210721,
          -0.284298, -0.085515, -0.077969, -0.105492, 0.000347, -0.267826, -0.399437, -0.29713,
          0.000271, -0.08639, -0.052838, 0.012408, 0.195409, 0.098603, -0.044632, -0.197078,
          0.015586, -0.0341, 0.176332, 0.000517, -0.045138, 0.11644, -0.516543, 0.009446, 0.014022,
          0.004299, -0.484818, -0.357912, -0.401052, -0.048321, -0.066096, -0.190526, -0.262696,
          0.042415, 0.006468, -0.072777, -0.031955, -0.117038, -0.214288, -0.061301, 0.037672,
          0.147942, 0.000772, 0.07779, -0.461464, -0.040359, -0.361771, -0.38315, -0.045419,
          0.036025, -0.177787, -0.191909, -0.015566, -0.365084, 0.047619, 0.051429, 0.014184,
          -0.387462, -0.100995, -0.012778, -0.018991, -0.42216, 0.108072, -0.497235, -0.063239,
          -0.376072, 0.086686, -0.24599, -0.278838, -0.395603, -0.146188, 0.151855, 0.098389,
          -0.074401, -0.149145, 0.010935, -0.049648, -0.116904, -0.061466, -0.079897
        ],
        [
          -0.388611, -0.466977, -0.309342, -0.08757, -0.199274, -0.180973, 0.145295, -0.338199,
          0.057847, -0.411214, -0.31657, 0.099685, -0.202488, 0.214327, 0.00938, 0.140207,
          -0.315155, -0.112716, -0.304172, -0.599345, -0.567405, -0.391906, -0.106792, -0.051301,
          -0.051298, -0.179823, 0.004602, -0.482748, -0.223129, -0.309122, -0.460397, -0.481837,
          -0.166078, -0.305987, 0.2419, 0.058421, -0.174899, 0.311938, -0.396498, -0.032155,
          -0.400332, -0.192714, -0.191864, -0.101844, -0.442356, 0.043206, -0.489234, -0.364205,
          -0.369558, -0.509479, -0.314354, 0.085681, -0.294882, -0.47798, -0.452236, 0.027262,
          -0.30152, 0.032316, 0.159349, 0.304285, -0.577144, 0.037578, -0.343171, -0.36238,
          -0.383308, -0.378473, 0.197086, -0.48427, -0.452007, -0.184713, -0.065889, -0.499026,
          -0.218355, -0.463294, 0.215255, -0.182657, 0.13673, -0.254382, -0.632788, -0.425623,
          -0.895038, -0.128555, -0.053963, -0.231983, -0.315513, 0.278098, -0.239664, 0.197699,
          -0.584845, -0.414625, -0.615232, -0.451376, 0.008743, -0.797273, -0.14049, -0.305007
        ],
        [
          -0.115549, 0.257657, -0.6918, -0.353746, 0.248813, -0.171819, 0.035379, -0.647137,
          -0.639614, -0.699054, -0.149821, 0.175251, -0.500388, -0.427103, -0.704255, -0.00816,
          -0.551656, 0.118812, -0.37061, -0.55338, -0.772336, -0.548406, -0.674104, -0.695343,
          -0.417839, -0.504565, -0.463308, -0.716171, 0.288046, -0.50942, -0.649578, -0.247919,
          -0.351914, -0.724029, -0.184496, 0.048147, -0.522178, -0.020426, 0.340911, 0.102313,
          -0.556716, -0.537723, -0.298592, -1.4e-5, -0.490632, -0.531171, 0.057073, -0.390187,
          -0.622181, -0.299125, -0.493543, -0.488517, -0.732156, -0.636461, -0.342483, 0.218073,
          -0.467536, 0.048981, 0.129995, 0.171097, -0.361897, -0.3191, -0.269448, -0.05567,
          -0.776514, -0.78793, -0.617058, 0.129571, 0.538311, -0.385514, -0.702208, -0.420157,
          0.244632, -0.393002, 0.100315, -0.196231, -0.74713, -0.494733, 0.243911, 0.074516,
          0.455876, -0.420785, 0.008211, -0.604991, -0.252251, -0.18207, -0.727473, -0.08635,
          0.145058, -0.632592, 0.038205, 0.174847, -0.647294, 0.250186, -0.669394, -0.557552
        ],
        [
          -0.357669, 0.097918, 0.018795, -0.314123, -0.07541, 0.062008, -0.358861, 0.074449,
          0.052561, -0.13774, 0.205633, -0.110605, 0.099318, 0.096127, 0.052867, -0.272379,
          0.068633, -0.239227, -0.344789, -0.459757, 0.000696, -0.18213, 0.088674, 0.137128,
          -0.292926, -0.129532, -0.300542, 0.019461, 0.179323, -0.233464, -0.044505, -0.280371,
          -0.046316, 0.003116, -0.255947, 0.007935, -0.02124, 0.095412, -0.339799, -0.331155,
          0.036075, -0.027917, -0.425515, -0.256814, -0.357097, -0.209351, -0.247734, 0.039776,
          0.005386, 0.012017, -0.281843, 0.153702, -0.29872, 0.164101, -0.155582, -0.283886,
          0.139685, -0.227562, -0.006171, -0.42499, -0.372908, 0.115612, -0.348946, 0.087404,
          -0.417764, -0.113028, -0.078234, -0.131851, -0.263859, -0.311645, -0.457147, -0.230422,
          0.110555, 0.105437, 0.324588, 0.012965, 0.057564, -0.037569, -0.259991, 0.082101, 0.08109,
          -0.150659, -0.426699, -0.026675, -0.221936, 0.176356, 0.000486, -0.071783, 0.168352,
          -0.314231, -0.161193, -0.177526, -0.14495, 0.241562, -0.263144, 0.129017
        ],
        [
          -0.462161, 0.118716, -0.417302, 0.063878, -0.541597, 0.265942, -0.117033, -0.41877,
          0.104371, -0.401952, -0.228304, -0.482807, -0.101089, -0.134166, -0.461302, -0.386508,
          -0.589933, -0.091473, -0.532774, -0.392103, -0.406609, -0.486405, 0.004663, -0.660134,
          0.102512, 0.08557, -0.019411, -0.07409, 0.179722, -0.543775, -0.658975, -0.533378,
          0.008984, -0.533663, -0.45354, 0.218846, -0.230556, -0.0956, -0.679454, 0.072853,
          -0.374655, -0.536857, -0.580568, 0.210731, -0.089376, -0.029022, -0.143436, -0.377778,
          -0.434772, -0.420684, -0.601276, -0.165552, 0.013617, -0.137744, 0.095977, -0.138437,
          -0.221686, 0.029017, -0.067855, -0.017098, -0.653114, -0.164469, -0.519733, -0.167629,
          -0.364919, -0.076009, 0.100241, -0.472646, -0.21978, -0.365636, -0.399242, -0.685852,
          -0.221835, -0.546088, -0.169951, -0.567405, -0.544658, -0.568184, 0.002444, -0.574546,
          -0.661436, -0.463087, -0.107952, -0.423461, -0.55788, 0.009552, -0.512927, -0.322948,
          -0.609415, -0.532902, -0.705079, -0.158207, -0.241209, -0.476047, -0.382103, -0.513642
        ],
        [
          -0.08828, -0.334158, -0.510934, -0.168138, -0.433844, -0.093353, -0.17837, -0.14422,
          -0.137648, -0.11046, -0.051559, -0.319591, -0.332097, -0.286747, -0.22978, -0.276364,
          -0.106001, -0.127341, -0.226682, -0.305318, -0.044872, -0.008251, -0.153981, -0.426448,
          -0.158299, -0.384263, -0.307214, -0.428222, -0.20654, -0.164898, -0.409965, -0.342424,
          -0.289128, -0.42174, -0.411263, -0.240734, -0.174256, -0.276355, -0.546041, -0.321051,
          -0.06606, -0.153557, -0.203363, -0.130167, -0.189394, -0.3961, -0.228281, -0.027012,
          -0.217805, -0.147364, -0.167364, -0.388849, -0.021764, -0.504487, -0.210701, -0.316357,
          -0.479764, -0.178878, -0.341092, -0.185602, -0.258692, -0.46063, -0.327896, -0.242186,
          -0.252099, -0.117662, -0.065755, -0.218397, -0.172041, -0.266275, -0.215034, -0.368389,
          -0.397958, -0.261327, -0.12605, -0.078042, -0.115909, -0.080597, -0.052237, -0.359768,
          -0.527808, -0.172082, -0.338245, -0.148386, -0.20534, -0.102101, -0.249385, -0.390052,
          -0.399358, -0.342084, -0.138732, -0.305163, -0.348426, -0.544002, -0.233039, -0.249841
        ],
        [
          -0.0, -1.4e-5, -0.0, -0.0, -0.0, -0.0, -0.0, 0.0, 0.0001, 0.0, 0.0, -0.0, 0.0, -6.4e-5,
          0.0, 4.9e-5, -0.0, -4.5e-5, -5.8e-5, -0.0, -0.0, -7.3e-5, 0.0, -0.0, -0.0, 4e-6, -2e-6,
          3.8e-5, -0.0, 2e-6, -0.0, 0.0, 9e-5, -0.0, 4.5e-5, -0.0, -0.0, -0.0, 0.0, -0.0, -0.0, 0.0,
          0.0, 0.0, 0.0, 0.0, 0.0, -0.0, -2.4e-5, -0.0, 0.0, 5.3e-5, -0.0, -0.0, 0.0, -0.0, 0.0,
          -0.0, -0.0, -0.0, 0.000117, 1e-6, -0.0, -0.0, -0.0, 0.0, 0.0, -4.4e-5, 0.0, -0.0, 0.0,
          4.9e-5, 6e-6, 0.0, -0.0, 1e-6, -1e-6, -0.0, -1e-6, -0.0, -0.0, 1e-6, 2.5e-5, -0.0, -0.0,
          8.2e-5, 0.0, 0.0, -0.0, 0.0, -0.0, 0.0, 0.0, -0.0, 0.0, 0.0
        ],
        [
          0.028006, 0.334527, 0.206836, -0.135425, 0.32108, 0.179195, -0.087119, 0.208898,
          -0.282609, -0.42044, 0.223013, -0.199906, 0.029552, 0.336078, -0.362625, 0.17278,
          -0.107376, -0.070578, 0.133082, 0.301235, -0.630801, -0.057441, 0.166101, 0.136833,
          0.171974, -0.485794, -0.191881, 0.152638, 0.243468, -0.565917, -0.232541, 0.218949,
          -0.372881, 0.163932, -0.103803, 0.327407, -0.334905, -0.413882, 0.074073, 0.254263,
          0.229749, -0.334683, 0.319704, 0.080627, -0.058115, 0.046864, 0.02722, -0.078244,
          -0.391222, -0.234601, -0.311757, -0.109936, -0.325793, -0.609701, -0.282421, -0.256377,
          0.318668, 0.148176, -0.310656, 0.182184, -0.137493, -0.097303, -0.377263, -0.210086,
          0.098981, 0.20702, -0.492933, -0.483295, -0.000532, -0.165199, -0.460378, -0.319721,
          0.159521, 0.189147, -0.305706, 0.220449, -0.170942, 0.009206, -0.0175, -0.002306,
          0.171179, -0.070012, -0.066622, 0.167851, -0.353409, 0.17905, -0.125454, 0.010673,
          -0.071883, 0.047345, -0.372546, 0.230841, -0.231492, 0.147141, 0.128228, 0.272426
        ],
        [
          0.060716, -0.008849, -0.050186, 0.139529, -0.028393, -0.020763, 0.012662, -0.037648,
          0.0626, -0.030143, 0.141155, 0.001613, -0.131101, 0.068434, -0.110556, -0.022, 0.063178,
          -0.06309, 0.15592, -0.039539, -0.029669, 0.063409, 0.013561, -0.01886, 0.040363, -0.02953,
          0.143489, -0.014761, 0.10343, 0.214767, 0.024172, 0.203206, -0.023496, 0.24719, -0.37897,
          0.071592, 0.025996, 0.006329, 0.102508, 0.088384, -0.054974, -0.013875, 0.113233,
          0.045869, 0.157344, 0.132233, 0.237067, 0.074981, 0.038433, -0.028688, 0.130891, 0.099068,
          -0.041082, -0.031264, 0.244404, 0.00765, 0.000648, 0.046869, -0.070345, -0.042027,
          -0.020608, -0.229411, 0.099544, -0.035355, 0.197963, 0.167073, -0.004105, 0.094502,
          0.010908, 0.234839, -0.039331, 0.12068, 0.040407, -0.003796, -0.049868, 0.093254,
          0.078809, 0.001358, -0.033501, 0.019018, 0.045005, -0.0051, 0.174798, 0.060689, 0.03054,
          -0.366663, -0.042794, 0.038185, -0.079255, 0.107852, 0.004874, -0.046374, -0.003326,
          -0.342037, -0.107547, -0.009631
        ],
        [
          0.040414, -0.016117, 0.02883, 0.033435, -0.498002, 0.051202, 0.211026, -0.009568,
          -0.003571, -0.10141, 0.137356, 0.09987, 0.020572, 0.203812, -0.0381, -0.24408, 0.035108,
          0.09935, -0.052272, -0.474047, -0.521371, -0.118178, 0.018217, 0.03228, -0.320678,
          -0.026222, -0.068031, 0.010534, 0.066065, 0.114214, 0.064693, -0.477975, 0.17884,
          0.089782, 0.187387, 0.05584, -0.085204, 0.049259, -0.368467, -0.242686, -0.011711,
          -0.006786, -0.029254, 0.009485, -0.619333, 0.161262, 0.12641, 0.114103, 0.216666,
          -0.016855, 0.142249, -0.079253, -0.035947, -0.317822, -0.416907, -0.005712, 0.050905,
          0.003051, 0.017179, -0.097121, 0.142406, 0.023842, -0.261616, -0.034239, -0.051031,
          0.006573, 0.149379, -0.096635, -0.104224, 0.091977, 0.08451, -0.168358, 0.006441,
          -0.220368, 0.059532, 0.004268, -0.010098, 0.18109, 0.105824, -0.026994, -0.359836,
          0.05183, -0.032622, -0.271785, 0.133277, 0.032391, 0.066884, 0.04979, -0.257411,
          -0.452983, -0.053727, -0.01492, -0.374426, 0.186164, 0.214989, 0.094832
        ],
        [
          0.06074, -0.34767, 0.062409, -0.342044, 0.057565, 0.106966, -0.014077, 0.072225,
          -0.003052, -0.293516, -0.271176, -0.013212, -0.404341, -0.012964, 0.068463, -0.370135,
          -0.008557, 0.045457, 0.059981, 0.059225, -0.028168, 0.093674, -0.00396, -0.413721,
          -0.089608, 0.013126, -0.367635, -0.022556, -0.028431, -0.373001, -0.02694, -0.00605,
          -0.126997, -0.514668, -0.484762, -0.258106, 0.059519, -0.263175, 0.005309, -0.358525,
          -0.293924, 0.013678, -0.021569, -0.346597, -0.239155, -0.389376, -0.046315, -0.021813,
          -0.411118, -0.3751, -0.276616, 0.064853, 0.077213, -0.446475, -0.007299, -0.222382,
          -0.291997, -0.015388, 0.058397, 0.064885, -0.010648, -0.316957, 0.004192, -0.342594,
          -0.037685, -0.290884, -0.011382, -0.366287, -0.255007, 0.070934, -0.43645, -0.117291,
          -0.414082, -0.458603, -0.43894, -0.340186, 0.030794, -0.300667, 0.06908, -0.127788,
          -0.045649, -0.028846, -0.265292, -0.011566, -0.296597, -0.35186, 0.054429, 0.06361,
          0.058471, -0.237018, -0.007261, -0.224297, -0.257755, -0.460895, -0.020908, -0.397404
        ],
        [
          -0.291715, 0.040884, -0.399014, -0.393034, -0.430954, 0.165632, -0.205918, -0.292056,
          0.112524, 0.090225, -0.313667, -0.020123, -0.004053, 0.004741, -0.350608, 0.041013,
          -0.242331, -0.28447, -0.264366, -0.432879, -0.350943, 0.016524, -0.472112, -0.310378,
          -0.128607, -0.406358, 0.097871, -0.345093, -0.339533, -0.315738, -0.360175, -0.427765,
          -0.028483, 0.074911, -0.397493, 0.007703, -0.013241, 0.073366, -0.308358, -0.325744,
          -0.292454, -0.013795, -0.019666, -0.311645, -0.290933, 0.072563, -0.014962, 0.082681,
          -0.018727, -0.332811, -0.036528, -0.015987, -0.364304, -0.054342, -0.013885, -0.305248,
          -0.002152, -0.013238, 0.079009, -0.431035, -0.356989, -0.004088, -0.262635, 0.011745,
          0.005516, -0.3947, -0.178386, -0.257431, -0.028869, 0.092781, -0.0252, -0.003208,
          -0.02566, -0.287191, 0.08212, -0.004095, 0.002431, 0.066035, -0.235529, -0.019267,
          -0.526937, -0.283586, -0.338711, 0.094721, 0.064628, -0.018328, 0.001939, -0.020783,
          0.064837, -0.167015, -0.311839, -0.356573, 0.007241, 0.010875, -0.314886, -0.462656
        ],
        [
          0.0, -0.000102, -0.0, 6e-5, -0.0, -0.0, -0.0, 0.0, -0.0, 5.4e-5, -2.9e-5, 0.0, 0.0, 0.0,
          -0.0, -0.0, 0.0, 0.0, -1e-6, 1e-6, -0.0, -0.0, 0.0, 1e-6, -0.0, -0.0, -0.0, -0.0, -0.0,
          0.0, 5e-6, -0.0001, -0.0, -2.9e-5, 0.0, -0.0, -0.0, 0.0, -0.0, 0.0, -0.0, -0.0, -1.6e-5,
          -0.0, -0.0, 0.0, 0.0, 0.0, -2.5e-5, 0.0, 2.6e-5, -0.0, -0.0, 0.0, -0.0, 0.0, 0.0, -4e-6,
          -0.0, -0.0, 0.0, 8.1e-5, -1.6e-5, 0.0, -0.0, 6.1e-5, -2e-6, -0.0, -0.0, -0.0, -0.0, -0.0,
          0.0, 0.0, 0.0, 0.0, 0.0, -0.0, 0.0, 5.7e-5, -0.0, -1.1e-5, -1.2e-5, 3.3e-5, 0.0, -6e-6,
          -0.0, -0.0, -0.0, 0.0, -9.2e-5, 5.1e-5, -0.0, -0.0, -0.0, 0.0
        ],
        [
          -0.0, 0.0, 0.0, 1e-6, 2.8e-5, -3e-6, -0.0, 2.6e-5, -0.0, 2e-6, 0.0, -0.0, -0.0, 0.0, -0.0,
          -9.1e-5, -0.0, 0.0, -0.0, 4e-5, 0.0, 0.0, -0.0, -0.0, 7.3e-5, -4e-6, -0.00011, -0.0,
          -6e-6, 0.0, 8e-6, -0.0, 0.0, -0.0, 0.0, -0.000108, -0.0, 0.0, 0.0, -0.0, 0.0, -6e-6, -0.0,
          1e-6, -0.0, -9.5e-5, -0.0, 0.0, 0.0, -0.0, -2e-5, -0.0, -0.0, -0.0, -0.0, -9e-6, 3.3e-5,
          0.0, 0.0, 0.0, 1.7e-5, -0.0, 0.0, 0.0, -0.0, -0.0, 0.0, -1.6e-5, -0.0, 1e-5, -0.0, 0.0,
          0.0, -0.0, 3e-6, -0.0, -0.0, 0.0, 0.0, -0.0, -0.0, 0.0, 0.0, -0.0, 1.9e-5, -1.9e-5, 0.0,
          0.0, 0.0, -7.6e-5, 0.0, -0.0, -2.5e-5, 0.0, 1.3e-5, -3e-6
        ],
        [
          0.008592, -0.279683, -0.0212, -0.316378, -0.394272, -0.295679, -0.382864, -0.382781,
          0.099538, 0.169431, 0.064947, 0.007542, -0.389202, -0.321292, -0.286465, -0.345872,
          -0.001013, 0.004181, -0.292076, -0.304676, 0.085647, 0.02007, -0.347331, 0.166838,
          0.168367, -0.296042, -0.324225, -0.215111, 0.130652, 0.155979, -0.412012, -0.269138,
          -0.031613, -0.315594, -0.409836, 0.132343, -0.013485, 0.111144, 0.030214, 0.054894,
          -0.246271, 0.010834, -0.396195, 0.070335, -0.368653, 0.0719, -0.367593, -0.340764,
          -0.392153, -0.491421, -0.015079, 0.036598, -0.006768, -0.399269, -0.387805, -0.365337,
          -0.383917, 0.163122, -0.35363, -0.304605, -0.421854, -0.371596, 0.023868, 0.020843,
          -0.308608, -0.412861, -0.248773, -0.368802, -0.243674, 0.121474, -0.023568, -0.017837,
          -0.335057, -0.30048, -0.02447, 0.053094, 0.017001, -0.345586, -0.042135, -0.331399,
          0.065635, 0.015775, -0.050629, -0.348922, 0.01476, -0.447484, -0.288773, -0.399642,
          0.022198, -0.323458, -0.307243, 0.154267, -0.376641, -0.257034, -0.300732, -0.465525
        ],
        [
          -0.0, -1.6e-5, 0.0, 0.0, 0.0, 0.0, 0.0, -0.000106, 0.0, -0.0, 0.0, 0.0, 0.0, 0.0, 0.0,
          -0.0, -0.0, -0.0, 0.0, 2e-6, 0.0, -1.2e-5, -0.0, 0.0, 4e-6, 0.0, -1.7e-5, 1e-6, -0.0, 0.0,
          5.6e-5, -1.7e-5, -0.0, -1.3e-5, 0.0, 0.0, -0.0, 0.000128, -0.0, -0.0, 0.0, 0.0, 0.0,
          -1.6e-5, -0.0, 0.0, 0.0, 0.0, -0.0, -0.00011, 0.0, 0.0, 0.0, -0.00012, 0.0, -0.0, 0.0,
          -1.7e-5, 0.0, -0.0, -0.0, 0.0, 0.0, -0.0, -0.0, -0.0, -0.0, -0.0, -0.0, -0.0, 2e-6, 0.0,
          6e-6, 0.0, 0.0, 0.0, 2e-6, 0.0, 0.0, -0.0, 0.0, 0.0, 0.0, 0.0, -0.0, -0.0, 0.0, -0.0,
          6e-6, -0.0, -0.0, -1.1e-5, -0.0, -0.0, 0.0, 0.0
        ],
        [
          -0.0, 0.0, 0.0, 0.0, 2.1e-5, 0.0, 0.0, 0.0, -0.0, -0.0, 0.0, 0.0, 0.0, 0.0, 0.0, -0.0,
          0.0, -0.0, -7e-6, -0.0, -0.0, 0.0, -5.7e-5, 0.0, -5.3e-5, 1e-6, -0.0, -0.0, -4.5e-5, -0.0,
          0.0, 4e-6, 2e-6, 0.0, 4e-6, 0.000124, 0.0, 0.0, -0.0, 0.0, -1.7e-5, -5e-6, 0.000133, 0.0,
          0.0, 0.0, 0.0, 0.000129, -0.0, -4.3e-5, 0.0, -1e-6, -7.5e-5, 0.0, -0.0, 0.0, -0.0, 0.0,
          -0.0, -9.4e-5, 0.0, -0.0, 0.0, -4.5e-5, 0.0, -0.0, 0.0, -0.0, 1e-6, -0.0, 0.0, 0.000108,
          0.0, 0.0, -0.0, -0.0, -0.0, 0.0, 1.4e-5, 1.4e-5, -0.0, 0.0, 0.0, 0.000123, 8.3e-5, -0.0,
          0.0, 0.0, 0.0, -2.8e-5, 0.0, -0.0, -0.0, 0.0, 2.3e-5, -0.0
        ],
        [
          -0.0, 0.0, -0.0, -0.0, -0.0, -0.0, 0.0, -0.0, -0.0, -0.0, 0.0, -0.0, 0.0, -0.0, -8.2e-5,
          -0.0, 0.0, -0.0, 0.0, 0.0, 4.5e-5, -0.0, -0.0, -0.0, -0.0, -0.0, -0.0, 1e-5, -0.0, 0.0,
          0.0, -2.9e-5, -5.6e-5, -0.0, -8e-6, -0.0, 1e-6, 2e-6, 0.0, 0.0, 0.0, 2e-6, -0.0, -0.0,
          -0.0, 0.0, 0.000128, -5.9e-5, 3e-6, -0.0, 6.6e-5, 0.0, 0.0, -2e-5, 0.0, -1.7e-5, 7e-5,
          0.0, 0.0, 2e-5, -8e-6, -0.0, -1.4e-5, 0.0, -0.0, -0.0, 0.0, -4e-6, -0.0, -0.0, 6.5e-5,
          0.0, 5.6e-5, -0.0, -0.0, -0.0, 0.0, 0.0, -0.0, -1e-6, 0.0, 0.0, -0.0, -2e-5, 0.0, 0.0,
          -0.0, -0.0, 1e-6, -0.0, -9e-6, 0.0, 0.0, 0.0, 0.0, -0.0
        ],
        [
          -0.006217, -0.240825, -0.424555, -0.004753, -0.347989, -0.025095, -0.378084, -0.271714,
          -0.323427, 0.028471, -0.425248, -0.268977, -0.248108, 0.009376, -0.018383, 0.006936,
          -0.007674, 0.046802, -0.309512, -0.019813, 0.03177, 0.120294, 0.061715, -0.328662,
          -0.337821, -0.1619, -0.002789, -0.237067, -0.266968, 0.036164, -0.307068, 0.050099,
          -0.309741, -0.3865, -0.304369, 0.020741, -0.428132, -0.276253, 0.132146, -0.377412,
          -0.092906, -0.035625, -0.262699, -0.008613, -0.348143, -0.177134, -0.309786, -0.014958,
          -0.401906, -0.01249, -0.362796, -0.326196, -0.307441, -0.390557, -0.005078, -0.257254,
          0.077696, 0.082971, -0.071202, -0.390257, -0.312707, 0.027483, -0.233918, -0.409077,
          -0.069193, 0.058172, 0.039654, -0.392752, 0.096114, -0.350141, -0.389256, 0.064992,
          -0.402399, -0.367657, -0.453278, 0.039128, 0.013648, -0.020912, 0.067785, -0.436773,
          -0.132403, -0.281204, -0.436759, -0.19861, 0.081954, -0.478756, -0.307316, -0.373408,
          -0.365277, 0.092742, -0.276343, -0.08934, -0.004937, -0.481242, -0.273162, -0.298539
        ],
        [
          -0.006194, 0.094806, -0.024447, -0.035304, -0.00284, -0.149839, -0.207323, -0.209468,
          -0.01244, -0.074904, -0.025587, 0.092796, 0.024324, 0.003457, -0.17201, -0.253303,
          0.015916, 0.082945, -0.015236, -0.190238, -0.08757, 0.078845, -0.111938, -0.17399,
          0.013717, -0.096649, -0.017129, -0.057122, -0.049939, 0.02285, 0.017098, -0.232582,
          -0.024601, -0.28588, 0.073542, -0.115651, -0.010542, 0.044392, 0.050963, 0.007054,
          -0.198732, -0.155469, 0.017199, 0.015692, 0.03754, -0.116402, -0.028556, -0.15984,
          0.081862, -0.026666, 0.075033, -0.146306, 0.020179, 0.022513, -0.092915, -0.018803,
          0.100141, 0.011628, -0.015185, 0.011421, -0.090573, 0.052429, -0.326244, 0.020165,
          0.034305, 0.024055, 0.147378, -0.091879, -0.143422, -0.277625, -0.0196, -0.187084,
          -0.077205, 0.001554, 0.120145, -0.083458, -0.020469, 0.071916, 0.022894, -0.095909,
          -0.080505, 0.023734, -0.11965, 0.091505, -0.026776, -0.027102, -0.000599, -0.035652,
          -0.033677, 0.083396, 0.056487, 0.006237, 0.102595, 0.067621, 0.002122, -0.239116
        ],
        [
          -0.190125, -0.03023, 0.122055, -0.036682, -0.030637, 0.24641, 0.116281, 0.220896,
          -0.08187, 0.047102, -0.139088, -0.153246, -0.187415, -0.072634, -0.087283, 0.167246,
          -0.16845, 0.173636, 0.057529, -0.134246, 0.020712, -0.033651, 0.095169, -0.067059,
          -0.172251, -0.136233, 0.027783, 0.101972, -0.063667, 0.117355, 0.014979, 0.22378,
          0.165027, 0.063025, 0.00597, 0.258352, -0.015747, -0.089646, -0.308217, 0.154038,
          0.244233, -0.181298, -0.014983, 0.013935, -0.13935, 0.124147, -0.146929, -0.251506,
          -0.029381, 0.142919, -0.215456, -0.013458, 0.045089, -0.094686, -0.096849, 0.015484,
          -0.090517, 0.113193, 0.2174, 0.249549, -0.120606, 0.229856, -0.069775, -0.068247,
          -0.230864, -0.163511, 0.006067, -0.003539, -0.105435, 0.042987, -0.081302, 0.018101,
          -0.01699, 0.059585, 0.062636, -0.057078, -0.064819, -0.119559, 0.059424, -0.097552,
          -0.203054, -0.217141, -0.065452, -0.067395, 0.139333, -0.104388, -0.040479, 0.154739,
          0.249734, -0.089886, -0.017714, -0.001345, 0.141615, -0.160221, 0.174749, 0.147402
        ],
        [
          0.002994, -0.275835, -0.06565, -0.036725, -0.146288, -0.027068, 0.235122, -0.029785,
          0.093478, -0.144608, 0.013117, -0.127738, 0.105284, 0.186397, 0.124477, -0.204647,
          -0.044587, -0.057846, -0.084019, 0.183544, 0.103957, -0.00212, -0.107519, -0.058961,
          -0.123608, -0.078051, -0.044054, 0.132469, 0.064525, -0.197183, 0.006883, -0.17783,
          -0.174031, 0.096682, -0.12803, -0.129596, -0.159517, 0.173218, 0.133006, -0.13055,
          -0.121218, 0.114782, 0.231885, -0.141881, 0.141333, 0.24678, 0.200089, 0.130947, 0.120471,
          -0.085315, 0.128222, 0.090497, 0.039944, -0.095173, 0.057935, 0.14363, -0.135398,
          0.199502, -0.071832, 0.086251, -0.004687, -0.088452, 0.210177, -0.094462, 0.188115,
          -0.024295, 0.077498, -0.091174, 0.02417, -0.067645, -0.205699, -0.079067, -0.240227,
          0.265542, 0.25622, 0.005386, 0.096926, 0.001318, 0.133893, 0.151723, 0.266228, 0.008298,
          0.166809, -0.034752, 0.197687, -0.200906, 0.034202, 0.034972, -0.042282, -0.110808,
          0.17894, -0.207672, 0.083531, -0.106835, -0.077052, -0.054018
        ],
        [
          -0.089348, -0.161902, -0.143061, -0.214424, 0.070591, 0.246143, -0.330883, -0.084124,
          0.021377, -0.072481, 0.175907, 0.032523, -0.184509, -0.033245, -0.200554, 0.297516,
          0.238467, 0.067372, -0.166755, 0.162643, 0.303714, -0.075322, -0.072597, -0.205299,
          -0.038827, 0.000327, -0.272622, -0.034323, -0.353379, 0.380755, -0.101734, -0.124749,
          -0.049238, 0.129937, 0.464207, 0.06693, -0.139235, 0.272043, -0.192433, 0.317421,
          -0.069925, -0.023758, -0.296305, 0.051308, 0.037249, 0.271928, -0.222847, 0.036408,
          0.146596, 0.199563, -0.127427, -0.169676, 0.023321, 0.343536, -0.184576, -0.237398,
          0.098685, -0.172142, -0.114163, 0.091831, 0.005573, -0.015087, -0.005138, 0.019226,
          -0.001645, 0.09192, 0.284608, -0.197112, -0.079685, -0.078651, -0.014456, 0.013577,
          0.083927, -0.264239, -0.201341, 0.104106, 0.093495, -0.161331, 0.23831, -0.166856,
          0.364245, 0.3784, -0.281572, -0.079906, -0.18203, -0.0266, 0.194315, 0.201618, -0.055423,
          0.150843, -0.161142, -0.101256, 0.042894, -0.048243, 0.268292, -0.135342
        ],
        [
          -0.304103, 0.492471, -0.044946, 0.412561, 0.46936, 0.288513, 0.312843, 0.248786, 0.181948,
          -0.200063, 0.020608, 0.18184, 0.05344, 0.315913, -0.053859, -0.010872, 0.333322, -0.33076,
          0.36423, 0.126317, 0.040215, -0.2092, 0.373225, 0.029566, 0.333659, -0.480488, 0.345996,
          0.41302, 0.164235, -0.374282, 0.3234, -0.32172, 0.307332, -0.171572, -0.422803, 0.539831,
          0.271415, 0.35156, 0.096619, 0.26876, 0.243457, 0.098473, 0.278868, -0.128176, 0.044658,
          -0.194851, 0.28171, -0.352081, 0.280193, -0.169177, 0.134255, 0.309071, -0.281764,
          -0.366029, -0.21745, 0.233367, 0.391724, -0.093799, 0.281826, -0.379579, 0.002599,
          0.318315, -0.237296, -0.257732, -0.306802, -0.280988, -0.351719, -0.42539, 0.022574,
          0.172415, 0.056271, -0.172134, -0.315439, 0.350841, 0.271437, -0.375821, 0.377868,
          0.196667, -0.329367, 0.237757, -0.299107, -0.338881, 0.302107, 0.060958, 0.320788,
          0.131934, -0.377232, 0.348279, 0.040342, -0.030799, 0.11699, 0.315769, 0.125433, 0.15374,
          -0.217422, 0.410028
        ],
        [
          -0.211533, -0.356421, -0.229476, -0.34027, 0.147566, 0.175189, 0.123244, -0.336545,
          0.349837, 0.07381, 0.273299, 0.072254, -0.114258, -0.179184, -0.230872, 0.270404,
          0.354747, 0.204141, -0.263072, 0.062605, 0.330567, 0.332508, -0.15152, -0.331655,
          0.218518, 0.119317, -0.215361, -0.367261, 0.00276, 0.369686, 0.309232, 0.240378,
          -0.107278, -0.375068, 0.251211, -0.170471, 0.055161, -0.149328, -0.261948, -0.321443,
          -0.21174, -0.284547, -0.279116, 0.420138, -0.030918, 0.227233, 0.329941, 0.469538,
          0.156208, 0.343798, 0.13716, -0.028374, 0.183158, 0.155351, 0.272353, -0.090299,
          -0.327747, 0.132697, -0.229166, 0.169985, 0.272258, 0.261632, 0.303851, 0.481777,
          0.170055, 0.282307, 0.238268, -0.201796, -0.18326, -0.124395, -0.172023, 0.315042,
          0.240221, -0.346463, -0.275584, 0.466974, -0.350725, -0.105694, 0.275672, -0.037031,
          -0.255932, -0.028913, -0.156544, 0.254365, -0.098849, -0.243215, 0.254332, 0.265961,
          -0.398959, 0.156951, 0.239997, -0.392753, -0.135133, 0.260894, 0.413808, 0.174185
        ],
        [
          -0.215165, 0.101411, -0.334415, 0.140471, 0.035141, -0.246489, 0.212031, -0.038473,
          -0.294397, 0.120792, -0.43987, -0.319163, -0.411251, 0.204363, 0.1276, -0.194335,
          0.049171, -0.201112, 0.14732, -0.123532, -0.170357, 0.137321, -0.270988, -0.434615,
          -0.089882, 0.261123, -0.222541, -0.411313, -0.296321, -0.226541, -0.34004, 0.060416,
          0.263904, -0.036679, -0.189054, -0.140384, -0.403007, 0.132512, -0.204287, -0.26924,
          0.105388, -0.024304, 0.049664, -0.360042, 0.114692, 0.299059, 0.06954, 0.285816,
          -0.391952, -0.165375, -0.070074, 0.073554, -0.276041, -0.187959, -0.393825, -0.168566,
          -0.288476, 0.142605, -0.293133, -0.331162, -0.090917, 0.121642, 0.272117, 0.097016,
          -0.216771, 0.132503, -0.056224, -0.419775, -0.248872, 0.156493, -0.27788, -0.357654,
          -0.445554, -0.310977, -0.142446, 0.159863, -0.431255, 0.25712, 0.033488, -0.138057,
          -0.006949, -0.386664, 0.007346, 0.129709, 0.263244, 0.237948, -0.346417, 0.233683,
          -0.411424, 0.179094, 0.256355, -0.362676, 0.027523, -0.462626, -0.16025, 0.006556
        ],
        [
          -0.202183, 0.27126, 0.03201, -0.200882, 0.00983, 0.263491, -0.402501, 0.102676, -0.41277,
          0.305095, -0.329224, -0.385111, -0.249945, -0.066334, -0.105221, -0.364587, 0.088964,
          0.253054, -0.191016, -0.360409, -0.208056, -0.366388, 0.248112, 0.311183, 0.19669,
          -0.162963, -0.036303, -0.186353, -0.039191, 0.2441, -0.036263, 0.134832, -0.206421,
          0.298184, -0.241585, 0.123089, -0.388164, 0.018758, -0.056525, -0.357394, -0.402679,
          -0.121969, 0.142311, 0.025982, -0.325978, 0.137305, -0.403854, -0.133283, -0.393923,
          -0.159598, -0.355904, -0.279601, -0.372049, 0.039089, 0.103224, -0.210132, -0.295992,
          0.223557, -0.392529, -0.255424, -0.439415, -0.433545, 0.100885, 0.142133, 0.278139,
          0.054605, 0.206245, -0.430254, -0.292957, -0.435684, -0.402614, 0.063413, 0.015409,
          -0.455913, 0.027983, 0.143085, -0.351639, -0.386023, -0.089065, -0.446959, -0.556126,
          -0.183747, -0.375111, -0.224017, 0.267509, 0.08309, 0.167905, -0.394812, -0.241745,
          0.125937, -0.432623, -0.420987, 0.025901, -0.003563, -0.159057, 0.034584
        ],
        [
          -0.232479, -0.435164, -0.024578, -0.350094, -0.329941, 0.083716, -0.20753, 0.107621,
          -0.319973, -0.094886, -0.352298, -0.399388, -0.361393, -0.060156, 0.008948, -0.027979,
          -0.085396, 0.224579, -0.404299, -0.329498, -0.263114, 0.065904, 0.220358, -0.285467,
          0.119636, 0.156046, -0.370955, -0.274872, -0.210115, 0.218398, -0.392728, 0.17079,
          -0.192813, 0.133264, -0.249817, 0.033604, 0.107775, 0.078026, 0.305726, -0.412718,
          0.086588, -0.369617, -0.166895, 0.027708, -0.226967, -0.061066, 0.173301, -0.332629,
          -0.005727, -0.089551, -0.383994, -0.382243, 0.175019, 0.243355, 0.223664, 0.147909,
          -0.366662, -0.202588, 0.056989, -0.249368, -0.266069, -0.144299, 0.056902, 0.111699,
          -0.327884, -0.017698, -0.086425, 0.120717, -0.236449, 0.113935, -0.467516, -0.028689,
          0.198468, -0.244078, -0.351854, -0.00472, -0.248845, 0.081044, 0.253982, -0.226588,
          -0.183783, -0.36961, -0.368832, -0.173762, -0.040237, -0.092161, -0.206603, -0.455068,
          -0.172265, -0.110935, 0.032361, -0.393378, -0.113031, 0.262851, -0.293394, -0.029531
        ],
        [
          -0.397683, 0.048064, -0.048369, -0.299931, -0.27821, 0.203126, -0.379119, -0.500479,
          0.173929, -0.024045, 0.09969, -0.004832, 0.019943, -0.344364, -0.058564, 0.203817,
          -0.207976, -0.323078, -0.174111, -0.411116, -0.305275, -0.247604, -0.174656, -0.091399,
          -0.285165, 0.048721, -0.205822, -0.41006, -0.368647, -0.073968, -0.369911, -0.073658,
          -0.015244, 0.136084, -0.418927, -0.18762, 0.127037, -0.104937, 0.199183, -0.442828,
          -0.429268, 0.116286, -0.160651, 0.021413, 0.123977, -0.19363, 0.071691, 0.128503,
          0.005322, 0.022376, 0.126016, -0.419344, -0.30022, 0.184752, -0.267487, -0.217076,
          -0.429193, 0.090037, -0.077013, 0.000422, -0.363605, -0.140326, 0.066643, -0.287275,
          -0.189383, -0.338602, 0.196058, 0.086949, 0.204264, -0.075618, 0.122715, 0.184799,
          0.174426, 0.085572, -0.192386, -0.364363, -0.227325, -0.082843, 0.172043, -0.400699,
          -0.116254, -0.240081, -0.266276, -0.125858, 0.127034, -0.316405, -0.294182, -0.332576,
          -0.163647, -0.102921, 0.191445, -0.327491, 0.150875, -0.046376, 0.010533, -0.456935
        ],
        [
          0.072384, -0.293061, -0.345432, -0.396576, -0.261824, -0.316539, -0.310677, -0.329549,
          0.069839, 0.094573, -0.325722, 0.168224, -0.012768, 0.177137, -0.352597, 0.108108,
          0.012746, -0.094851, -0.302321, -0.194913, -0.045393, -0.102827, -0.42349, -0.352749,
          0.033395, 0.054003, -0.412256, 0.066634, -0.242108, -0.053275, -0.030726, 0.011427,
          0.081628, -0.186513, 0.160598, -0.349472, 0.05797, 0.132514, -0.084881, -0.34627,
          0.010293, -0.357909, -0.439468, 0.140796, -0.177693, 0.08317, -0.189627, -0.320198,
          0.008982, -0.08913, -0.36121, -0.022075, -0.063655, -0.097077, -0.13432, 0.075047,
          0.048481, 0.08485, -0.408825, 0.191113, -0.076203, 0.048137, -0.207349, -0.022426,
          -0.070744, -0.39062, -0.241985, 0.03447, -0.313553, 0.089943, -0.009424, -0.014419,
          -0.393934, -0.373521, 0.238683, -0.2903, 0.018307, -0.255811, -0.290196, -0.494079,
          -0.08914, 0.125965, -0.17909, -0.250889, -0.219908, -0.084012, -0.163305, 0.17833,
          0.029538, -0.109814, -0.410017, 0.084954, -0.358131, -0.514141, -0.030661, -0.090158
        ],
        [
          -0.188048, 0.310789, 0.089489, -0.216451, 0.383238, 0.285257, 0.176286, -0.123021,
          0.064879, 0.068156, 0.216399, 0.000461, 0.057789, 0.489128, -0.020691, 0.457941, 0.169702,
          -0.296871, -0.140874, -0.119872, -0.153767, -0.3509, 0.466218, 0.205432, 0.325898,
          -0.324514, -0.241259, -0.309252, 0.452094, 0.22064, 0.133193, -0.197496, 0.193484,
          -0.209485, -0.127625, 0.313562, 0.405219, -0.285808, -0.29108, 0.496774, -0.200834,
          -0.24292, -0.229498, -0.201027, -0.134017, 0.197347, 0.162572, -0.11642, 0.247246,
          0.187078, 0.423422, 0.402783, -0.295027, 0.101749, -0.022636, 0.410774, 0.233202,
          0.501831, 0.367728, -0.231614, 0.130169, 0.439935, 0.304804, -0.323682, 0.005618,
          -0.150215, -0.41712, -0.178779, -0.046997, 0.400565, -0.14155, 0.358201, -0.302708,
          -0.079382, -0.364496, -0.199253, -0.276912, -0.202083, 0.120575, 0.029245, -0.107157,
          -0.177242, 0.516602, 0.378028, 0.126567, -0.117624, -0.372001, 0.469159, -0.329127,
          -0.03297, -0.048563, -0.153774, -0.194405, 0.440705, -0.348182, 0.35219
        ]
      ],
      "b": [
        0.070926, 0.06894, 0.446257, 0.093536, 0.38647, 0.176121, 0.037573, 0.43999, 0.14238,
        0.34185, 0.111359, 0.379486, 0.033902, 0.240601, 0.318598, 0.420783, 0.424094, 0.325871,
        0.391443, 0.12345, 0.112573, 0.085132, 0.219561, 0.233303, 0.232305, 0.087903, 0.342749,
        0.099276, 0.183247, 0.237617, 0.37107, 0.32274, 0.330968, 0.177305, 0.304798, 0.03288,
        0.226784, 0.118118, 0.090417, 0.154217, 0.406367, 0.407575, 0.198624, -0.002667, 0.10851,
        0.15479, 0.439514, 0.040233, 0.36329, 0.130863, 0.430324, 0.18846, 0.304997, 0.19816,
        0.270728, 0.045517, 0.104883, 0.376317, 0.418174, 0.402621, 0.312706, 0.384019, 0.00543,
        0.174668, 0.129833, 0.288549, 0.146196, 0.118531, 0.169086, 0.364297, 0.22722, 0.105265,
        0.177938, 0.16524, 0.169709, 0.266409, 0.310831, 0.29198, 0.088199, 0.42707, 0.283416,
        0.208336, 0.394081, 0.063314, 0.050242, 0.44785, 0.15909, 0.329388, 0.066675, 0.281418,
        0.188841, 0.039844, 0.301285, 0.236083, 0.222113, 0.100106
      ]
    },
    {
      "w": [
        [
          -0.048441, 0.030583, -0.093198, 0.263739, -0.167, 0.085273, -0.070125, -0.104212,
          0.367648, -0.167445, 0.144708, 0.012504, 0.208205, -0.060794, 0.116591, 0.253611,
          0.170011, -0.343104, 0.030892, 0.333109, 0.011338, 0.00893, 0.22093, -0.126846, -0.083218,
          0.227793, 0.150357, 0.324818, -0.062973, -0.103314, -0.075562, 0.024758, 0.219445,
          0.14617, -0.026821, -0.084012, 0.327855, -0.048351, 0.040649, 0.04352, 0.221109, 0.228733,
          0.203505, 0.107072, 0.116782, -0.158464, 0.263772, 0.055053
        ],
        [
          0.221036, 0.339018, 0.138835, 0.176829, 0.155924, 0.260771, -0.047858, -0.204425,
          0.106053, 0.067996, 0.047744, 0.266963, -0.109166, 0.069462, -0.157036, 0.17503, 0.151607,
          0.002824, 0.073351, 0.234116, 0.138956, -0.029571, 0.356967, 0.115846, 0.364625, 0.150344,
          -0.099778, 0.351462, 0.175793, 0.100462, -0.052727, 0.074519, 0.061363, -0.145233,
          -0.178738, -0.2312, 0.408802, -0.01171, 0.050913, 0.271395, 0.076458, -0.036933, 0.269776,
          0.024406, 0.278481, 0.127271, 0.331439, 0.16647
        ],
        [
          0.12456, 0.267074, 0.03544, 0.186866, -0.150729, 0.137932, 0.208065, 0.024417, 0.148178,
          -0.041552, 0.213075, 0.14782, 0.132672, -0.228287, 0.086348, 0.152443, -0.211096,
          -0.092825, 0.063132, 0.274718, 0.240459, 0.240735, 0.090868, -0.093863, -0.212862,
          0.139127, -0.128725, 0.359293, 0.269972, -0.026217, 0.179229, 0.288043, 0.420839,
          -0.008436, 0.159991, -0.185054, 0.333751, -0.229077, -0.106461, 0.236436, 0.121341,
          0.227453, 0.114311, -0.082821, 0.295678, 0.224145, 0.280774, 0.367273
        ],
        [
          0.24307, 0.162767, 0.010621, 0.036249, 0.115188, 0.175126, -0.018029, -0.024516, 0.097772,
          -0.025326, -0.098269, 0.255938, -0.052585, -0.222985, -0.058647, 0.194111, 0.179817,
          -0.09243, 0.163965, 0.09024, 0.301877, 0.298359, 0.126928, -0.035413, 0.152041, -0.061271,
          0.086137, 0.072601, 0.29235, -0.286729, -0.021823, 0.254034, 0.132764, -0.197757,
          0.285935, 0.186913, 0.180842, -0.206972, 0.062997, 0.10233, -0.070462, 0.035729, 0.251907,
          -0.05826, 0.038323, 0.089702, 0.242273, -0.04941
        ],
        [
          0.128354, 0.012457, -0.115902, -0.124783, 0.0167, -0.034847, -0.105169, -0.044727,
          0.319558, -0.128377, 0.001396, -0.005181, -0.097526, 0.062456, -0.003444, -0.021069,
          -0.08173, -0.094386, 0.121972, -0.009781, 0.244545, 0.260803, 0.364203, 0.117582, 0.08425,
          0.277179, 0.002576, 0.267013, 0.156795, 0.000241, 0.117293, 0.010403, 0.170768, 0.157639,
          -0.212238, -0.146065, 0.436556, 0.074799, -0.087853, 0.038538, -0.037311, 0.28104,
          0.229192, -0.053005, 0.051057, -0.194802, 0.335897, 0.089216
        ],
        [
          0.138282, -0.061049, 0.20667, 0.459778, 0.257362, -0.032928, 0.014276, 0.090652, 0.040262,
          0.134256, 0.152937, 0.273432, 0.255856, -0.195816, -0.106025, -0.050853, 0.172458,
          0.249725, 0.160801, 0.007492, 0.007369, 0.207725, 0.093669, 0.036277, 0.209696, -0.076599,
          -0.106464, 0.073245, -0.043257, 0.241432, -0.06562, -0.050766, -0.004561, 0.090487,
          0.128647, 0.198222, -0.094609, 0.053628, -0.079537, 0.256687, 0.171818, -0.109253,
          0.13969, 0.290768, 0.055508, 0.2212, -0.054313, 0.272398
        ],
        [
          0.238203, 0.254702, 0.213842, -0.001154, 0.415992, 0.027062, -0.07887, 0.033462, 0.261546,
          0.142262, -0.144007, 0.202837, 0.329405, -0.247659, -0.078102, -0.331551, 0.031909,
          0.312495, 0.169938, 0.234042, 0.280548, 0.079209, 0.197278, 0.0193, 0.27676, -0.062001,
          0.245029, -0.03575, -0.004038, 0.049509, -0.112997, 0.211978, 0.011342, 0.094669,
          -0.006307, -0.106697, -0.053159, 0.14977, -0.146229, 0.052387, -0.090766, 0.027271,
          0.081361, 0.249383, -0.029391, 0.069166, 0.172343, 0.072041
        ],
        [
          0.239987, 0.169168, 0.174764, -0.279506, -0.104888, 0.254887, -0.164981, -0.055402,
          0.349782, -0.065118, 0.171868, 0.381036, -0.118939, 0.014106, 0.086239, 0.147758,
          -0.130655, -0.008375, 0.131589, 0.346505, 0.304246, -0.014233, 0.363467, -0.001547,
          -0.102995, 0.240261, -0.070111, 0.367366, 0.084808, 0.159722, 0.019807, -0.033918,
          0.458883, -0.015828, 0.133371, -0.035634, 0.4058, -0.153613, -0.109447, 0.060323,
          0.219535, 0.218951, 0.25274, -0.138965, 0.079986, 0.107872, 0.354145, 0.117629
        ],
        [
          0.296462, 0.167899, 0.025385, 0.276972, 0.267018, 0.250223, 0.19192, -0.195496, -0.176571,
          0.073885, 0.097682, 0.028636, -0.102956, -0.29492, 0.090591, -0.209477, -0.063874,
          0.185723, 0.037086, -0.172442, 0.358183, -0.061765, 0.277671, 0.352596, 0.230278,
          0.177455, -0.342899, 0.045072, 0.318495, 0.213729, -0.088432, 0.091306, 0.324743,
          0.155948, 0.185888, 0.25641, 0.006402, 0.401533, -0.083188, 0.212217, 0.169085, -0.171248,
          0.118159, 0.415458, -0.114991, 0.299636, -0.066193, -0.00991
        ],
        [
          0.118492, 0.212832, 0.088674, -0.16665, -0.055475, 0.119579, 0.294846, 0.158138, 0.016784,
          0.006346, 0.339356, 0.017658, -0.042198, 0.166667, -0.192795, -0.201066, 0.118576,
          0.094893, -0.044724, 0.010709, 0.233856, 0.23434, 0.310954, 0.240945, 0.01135, 0.230649,
          -0.142175, 0.14466, 0.070466, 0.174562, 0.182178, 0.111825, 0.305559, -0.131907, 0.271814,
          0.060091, 0.248384, 0.294754, 0.019996, 0.173636, 0.384912, -0.129157, 0.232106,
          -0.014957, 0.158647, 0.356258, 0.153485, 0.293759
        ],
        [
          0.164772, 0.02883, 0.269169, -0.072793, 0.010775, 0.122019, -0.202744, -0.215837, 0.21505,
          -0.041701, -0.003384, 0.289309, 0.234226, 0.211904, -0.178454, -0.030392, 0.302773,
          0.06824, 0.208519, 0.09484, -0.073614, 0.108132, 0.046081, 0.195266, -0.170183, 0.274766,
          0.430956, -0.004886, 0.023699, 0.12326, 0.074662, 0.140703, 0.00753, -0.025312, 0.175947,
          0.143315, 0.16513, -0.163711, -0.124836, 0.071514, -0.171266, 0.12387, 0.064385, 0.105604,
          0.006326, -0.056755, 0.309856, 0.071841
        ],
        [
          0.131094, 0.100241, 0.345267, -0.01754, 0.28488, 0.210266, 0.003529, -0.179384, 0.307247,
          -0.183542, -0.086385, 0.184541, 0.181532, 0.115486, -0.221983, 0.131834, 0.16921,
          -0.080394, 0.005882, 0.387233, -0.115577, 0.004216, 0.006711, 0.05487, 0.05251, -0.085274,
          0.065427, 0.006694, -0.05677, -0.013322, 0.006211, 0.10227, -0.01538, -0.058781, 0.307853,
          0.344346, 0.187115, 0.010729, -0.220666, 0.049189, -0.26004, 0.33072, 0.156171, 0.212335,
          0.333283, -0.196307, 0.20316, 0.035788
        ],
        [
          -0.073198, 0.224185, -0.088719, -0.208344, -0.211659, 0.203076, 0.173383, -0.085883,
          0.243336, -0.125786, 0.101501, 0.236976, -0.022326, 0.218971, -0.12968, -0.195, 0.12632,
          0.102129, -0.010349, 0.215722, 0.177443, 0.011984, 0.135846, -0.035894, 0.040667,
          0.310635, 0.054907, 0.199354, 0.151446, -0.177981, -0.158398, 0.098703, 0.077343,
          -0.154129, 0.071215, 0.04445, 0.044844, -0.144433, -0.074734, 0.301085, 0.306824,
          0.174286, -0.039132, 0.223939, 0.264478, 0.199058, -0.032452, 0.185187
        ],
        [
          0.308314, 0.173399, 0.259111, -0.170753, 0.250126, -0.009438, 0.01059, -0.16892, 0.110271,
          -0.111619, 0.11377, -0.005883, 0.257306, 0.003136, -0.17111, -0.370498, -0.255855,
          0.182935, 0.143678, 0.136989, 0.01193, 0.239398, 0.291803, 0.180603, 0.020549, -0.041538,
          -0.239204, -0.065722, 0.030828, -0.21437, -0.137809, 0.137193, 0.294733, 0.025173,
          0.37617, 0.145044, -0.063875, 0.102901, -0.1605, 0.238773, 0.000895, 0.355542, 0.052373,
          0.057806, 0.32416, -0.053408, 0.224778, 0.244258
        ],
        [
          0.289616, 0.355392, 0.373577, -0.443097, 0.332062, 0.233726, 0.072768, -0.122264,
          0.177312, 0.162705, 0.298588, 0.140077, -0.148111, -0.130366, 0.104118, 0.06028,
          -0.003321, -0.122031, 0.103901, 0.114972, 0.370067, 0.220596, 0.089466, 0.069748,
          -0.096699, 0.352155, -0.255529, 0.131816, 0.097838, 0.047279, 0.021826, 0.231887,
          0.079158, -0.099556, 0.085079, 0.209958, -0.032995, 0.081387, 0.150989, 0.345118, 0.31566,
          0.07512, 0.002141, 0.214355, 0.28297, 0.080883, 0.113658, 0.292856
        ],
        [
          0.298342, 0.013102, 0.168278, 0.077116, -0.01795, 0.307181, 0.106018, 0.090611, 0.018218,
          0.107778, -0.092649, 0.068679, 0.199687, -0.1329, 0.075872, -0.080863, -0.10889,
          -0.046921, 0.033513, -0.001505, 0.145925, 0.266585, -0.076879, -0.15741, 0.055453,
          0.255104, 0.036837, 0.084806, 0.151825, -0.089068, -0.273696, 0.279383, 0.186142,
          0.009351, 0.229522, 0.108295, 0.029833, 0.156779, -0.224116, -0.004598, -0.05345,
          0.383466, 0.320284, 0.071861, 0.065172, -0.318771, 0.264705, 0.162005
        ],
        [
          0.194359, 0.281173, 0.238361, -0.055001, -0.346189, 0.264861, 0.163004, -0.091306,
          0.222274, -0.106712, 0.266131, -0.013125, -0.077053, -0.188301, 0.05444, -0.295587,
          -0.110608, -0.018892, 0.328453, 0.037447, 0.027424, 0.244365, 0.169796, 0.146596,
          -0.226688, 0.231624, -0.039814, 0.03726, 0.239098, 0.015911, 0.074955, 0.074532, 0.183278,
          -0.067603, 0.350997, -0.022607, 0.120703, -0.124777, 0.015587, 0.078828, 0.297529,
          0.057044, 0.357033, -0.143357, 0.257411, 0.327124, 0.019533, 0.344985
        ],
        [
          0.07072, 0.294124, 0.125446, -0.016485, -0.206042, 0.008313, -0.072077, -0.150723,
          0.050785, -0.059408, 0.095487, -0.007272, -0.205724, 0.143308, -0.149277, -0.027536,
          0.081376, 0.179248, 0.299084, 0.109984, 0.138337, 0.066825, 0.191248, -0.013674, 0.076671,
          0.046847, -0.03658, 0.168448, 0.282935, 0.030569, 0.129588, 0.322231, 0.03657, 0.062507,
          0.026816, 0.084563, 0.416474, 0.110474, -0.076795, 0.225197, -0.035317, 0.337812,
          0.276968, -0.091548, 0.256699, -0.014672, 0.104097, 0.031499
        ],
        [
          0.209606, 0.330526, 0.276631, 0.000633, 0.140152, 0.222215, -0.157232, -0.196525,
          0.047978, 0.137921, 0.12442, 0.25021, -0.115565, 0.063062, -0.223734, 0.120522, 0.129023,
          -0.091309, 0.278528, 0.017959, 0.212899, 0.052413, 0.196225, -0.164819, -0.153704,
          0.333763, 0.049639, 0.301404, 0.359553, -0.121366, -0.133659, 0.167171, 0.395072, 0.14663,
          0.010541, 0.145505, 0.063562, 0.191002, 0.211123, 0.006839, 0.048889, -0.048147, 0.092227,
          0.101515, 0.132198, -0.13326, 0.066725, 0.326055
        ],
        [
          0.188063, 0.168765, -0.015227, 0.03662, -0.074337, 0.073145, -0.113025, -0.211201,
          0.029649, -0.004939, 0.230084, 0.209996, -0.162486, -0.034512, 0.058532, 0.294208,
          -0.365419, -0.098645, 0.252765, -0.007523, 0.132987, 0.131185, 0.414725, -0.051521,
          0.141803, 0.195968, 0.109158, 0.272703, 0.370293, 0.026152, -0.067906, 0.178934, 0.232014,
          -0.167081, -0.125464, -0.318441, 0.430694, -0.297959, -0.254308, 0.269336, 0.098099,
          0.147083, 0.083414, 0.091266, 0.372733, 0.181062, 0.139994, 0.284843
        ],
        [
          0.036592, 0.140931, 0.031275, -0.364393, -0.089545, 0.287624, -0.007266, -0.050126,
          0.182492, -0.047796, 0.39265, 0.228368, -0.307138, -0.101972, -0.14993, -0.19842,
          -0.224744, 0.070006, 0.188373, 0.030284, 0.515627, 0.276232, 0.324097, 0.023506,
          -0.101971, 0.406358, -0.32776, 0.506103, 0.330506, 0.031148, 0.045887, 0.260412, 0.528307,
          -0.044961, 0.33744, -0.107058, 0.382327, -0.163235, 0.013277, 0.206014, 0.635881,
          -0.125726, 0.580409, 0.069874, 0.301156, 0.315219, 0.095127, 0.225266
        ],
        [
          -0.041802, 0.207692, 0.10178, 0.167966, -0.112531, 0.008065, -0.02788, 0.193026, 0.273255,
          -0.06634, -0.00656, 0.013376, 0.190766, 0.03906, -0.10967, 0.127507, -0.209611, 0.166158,
          0.03877, 0.220133, 0.053489, 0.18915, 0.274877, 0.059872, -0.011841, 0.327, -0.068972,
          0.122431, 0.062735, 0.223854, -0.087196, 0.225599, 0.298231, -0.145541, -0.039265,
          -0.139631, 0.190318, -0.108972, -0.19524, 0.306882, 0.267868, 0.114445, 0.132462,
          -0.207104, 0.285045, 0.133253, 0.010061, 0.003954
        ],
        [
          0.243096, 0.24614, -0.030001, 0.038204, 0.027535, 0.123367, 0.151516, 0.11903, 0.036788,
          0.161123, 0.178674, 0.308434, -0.076553, 0.160099, 0.13908, -0.292781, 0.164105, 0.1415,
          0.257283, -0.0258, 0.352363, 0.280634, 0.117111, 0.24008, -0.048045, 0.067431, -0.308159,
          0.205003, 0.254999, -0.119945, 0.235772, -0.098324, 0.0845, -0.212741, 0.201904, 0.224402,
          0.283384, 0.194437, -0.212132, 0.208356, 0.299447, -0.016217, 0.051207, 0.150497,
          0.154877, 0.291119, 0.145171, 0.019938
        ],
        [
          0.21973, 0.030275, 0.34874, -0.136314, 0.086115, 0.367605, 0.068163, -0.198283, 0.142187,
          -0.130325, 0.326394, 0.28845, 0.240334, -0.067703, -0.044463, 0.069414, -0.206179,
          0.161506, 0.141309, -0.051557, 0.17434, 0.321123, 0.309827, -0.032478, -0.168488,
          0.055855, 0.132354, -0.029266, 0.245059, -0.245836, 0.08576, 0.090564, 0.273666,
          -0.124276, 0.32548, 0.020169, 0.216002, 0.18283, 0.002247, 0.337603, 0.307605, -0.083478,
          0.152474, 0.058045, 0.213598, 0.347095, -0.020395, 0.158515
        ],
        [
          0.26488, 0.346876, 0.173089, 0.182302, 0.204352, 0.127052, 0.186459, 0.001697, 0.088596,
          -0.030595, 0.323092, 0.307988, -0.052097, -0.002567, -0.031223, 0.039192, -0.205729,
          0.157914, 0.129264, 0.05417, 0.042633, 0.038346, 0.353637, -0.002225, -0.164146, 0.153072,
          -0.101605, -0.039367, 0.096577, 0.010346, 0.018448, 0.067592, 0.13747, 0.177108, 0.135744,
          -0.041086, 0.033271, 0.129651, 0.140327, 0.061041, 0.301546, -0.11427, 0.132738, 0.232071,
          0.084166, 0.251491, 0.02462, 0.254239
        ],
        [
          -0.019381, 0.305455, 0.067794, -0.004631, 0.09304, 0.268754, -0.056665, 0.195251,
          -0.020858, -0.160701, 0.117785, -0.003091, -0.106796, 0.102347, 0.170539, -0.148729,
          0.174185, 0.036186, 0.046392, 0.220976, 0.253819, 0.372446, 0.070268, 0.101912, -0.042448,
          -0.001085, -0.3284, 0.344722, 0.278456, 0.05318, -0.089061, 0.078508, 0.013812, -0.111894,
          0.169816, 0.299346, 0.154057, -0.104913, -0.302491, 0.025926, 0.187756, 0.296711,
          0.212684, 0.295834, 0.140808, 0.072675, -0.008781, 0.31112
        ],
        [
          0.19552, -0.008004, 0.087091, 0.189234, 0.304586, 0.284821, -0.044717, 0.003872,
          -0.080627, -0.19975, -0.055181, -0.059206, 0.182808, 0.060626, -0.175416, 0.233184,
          -0.046937, -0.008843, 0.010508, 0.041007, 0.029607, 0.071031, 0.088241, 0.247047,
          0.067619, -0.006248, -0.237401, 0.182085, -0.054617, 0.16768, -0.03503, 0.086569,
          0.188705, -0.163519, -0.108724, 0.04969, 0.19731, -0.010335, -0.088508, 0.308553,
          -0.030149, 0.180607, 0.252009, -0.017292, -0.020092, -0.052078, 0.186001, 0.162692
        ],
        [
          0.282812, 0.402618, 0.262856, -0.470877, -0.29829, 0.338309, -0.119017, -0.186687,
          0.238634, -0.078614, 0.350402, 0.286022, -0.514856, 0.1542, -0.134388, -0.039319,
          -0.145265, -0.311699, 0.183047, 0.007687, 0.20084, 0.107904, 0.341377, 0.156328,
          -0.346248, 0.177682, -0.089591, 0.075266, 0.343742, 0.048756, -0.166895, 0.092486,
          0.104534, 0.031884, 0.050464, 0.234754, 0.369927, -0.192997, -0.04321, 0.388096, 0.253777,
          -0.032865, 0.212289, 0.133961, 0.275751, 0.227678, 0.337958, 0.356536
        ],
        [
          0.31816, -0.002448, 0.15244, -0.008362, 0.079336, 0.186382, -0.177814, 0.108657, 0.302729,
          -0.199027, -0.066558, 0.039212, -0.105274, -0.193368, -0.068575, -0.000276, 0.067885,
          0.145295, 0.327741, 0.080872, -0.017774, 0.263119, 0.024297, 0.174781, 0.277683, 0.172241,
          0.280896, 0.035952, 0.081654, -0.130543, -0.146222, 0.350578, 0.016883, -0.006307,
          0.100288, 0.091124, 0.100667, -0.273639, 0.198142, 0.026529, 0.014667, 0.25325, 0.275372,
          0.067535, 0.10336, 0.008658, 0.313944, 0.130989
        ],
        [
          0.338459, 0.15002, 0.036353, -0.04468, 0.363399, 0.100808, 0.197072, 0.143383, 0.03683,
          -0.189415, 0.254355, 0.094301, 0.084129, -0.010565, -0.031293, 0.131408, -0.080932,
          -0.07694, 0.09111, 0.071719, 0.205947, 0.283026, 0.114809, 0.058007, 0.084089, 0.074312,
          -0.098907, 0.324703, 0.25492, 0.013293, 0.083396, -0.051584, 0.227334, -0.017122, 0.22609,
          -0.070827, -0.021821, 0.01171, 0.264412, 0.148045, 0.195423, -0.106272, -0.004548,
          0.172999, 0.163167, 0.198502, 0.043142, 0.25548
        ],
        [
          0.050452, 0.079913, 0.186358, -0.33106, -0.204619, 0.263645, 0.071619, 0.115909, 0.167599,
          -0.209267, -0.056044, 0.409368, -0.029689, 0.087232, -0.2274, -0.152429, -0.241988,
          -0.064769, 0.367418, 0.384367, 0.232493, 0.161219, 0.391471, 0.028052, -0.312212,
          0.194095, -0.008279, 0.202216, 0.185236, -0.00632, -0.081999, 0.051789, 0.242205,
          0.104915, 0.289039, 0.033491, 0.420112, 0.121614, -0.17985, 0.034356, 0.145362, 0.322456,
          0.421339, 0.133432, 0.27922, 0.137674, 0.002381, 0.088041
        ],
        [
          0.078173, 0.197067, 0.093121, 0.113623, -0.165182, 0.134424, -0.122404, -0.014565,
          0.281203, 0.047767, 0.205411, 0.070387, -0.101737, -0.072406, -0.048433, 0.312634,
          0.22936, 0.096666, 0.045517, 0.298658, -0.058418, 0.225733, 0.081904, -0.166938, 0.102205,
          0.347342, -0.166612, 0.130162, 0.297774, -0.051944, -0.17571, 0.075131, 0.162429,
          0.140691, 0.076686, -0.090727, 0.433608, -0.128127, -0.114411, 0.031416, 0.120833,
          0.029303, 0.348682, 0.015209, 0.105415, -0.013644, 0.225312, 0.306207
        ],
        [
          0.286922, 0.122218, 0.24966, 0.190286, 0.182369, -0.025097, -0.259162, -0.01971, 0.066814,
          -0.222256, 0.016503, -0.064211, 0.26165, 0.029497, 0.159047, 0.020878, -0.116239,
          0.101317, 0.272785, 0.351412, 0.090047, 0.048201, 0.281168, -0.082917, 0.084484, 0.0789,
          -0.064221, 0.063327, 0.014379, 0.042434, 0.123691, 0.065371, 0.241726, -0.202438,
          0.128557, -0.003331, 0.290212, 0.225222, -0.00303, 0.267981, -0.088933, 0.377085,
          0.198739, 0.247574, 0.160836, -0.20517, 0.135031, -0.033726
        ],
        [
          0.100167, 0.121561, 0.122689, -0.121281, 0.001217, 0.094118, 0.21661, -0.062096, 0.023545,
          0.070627, 0.257305, 0.047515, -0.071018, -0.140496, 0.15267, -0.066767, 0.021047,
          -0.151664, -0.019662, 0.173412, 0.015405, -0.104331, 0.11923, -0.109574, 0.03495,
          0.267509, -0.06208, 0.292932, 0.276453, 0.141056, -0.129687, 0.151859, 0.300562, 0.105322,
          0.044305, -0.104655, 0.295122, 0.201672, 0.315918, -0.030761, 0.172424, -0.132794, 0.2523,
          -0.045823, -0.081017, 0.382648, -0.099031, 0.234405
        ],
        [
          0.146429, 0.138486, 0.251328, 0.534227, 0.580149, -0.053747, -0.269232, -0.115559,
          0.312942, 0.136249, -0.103271, 0.058636, 0.338569, 0.06033, 0.16746, -0.062843, 0.076973,
          -0.01793, 0.136153, 0.22622, -0.106116, 0.164868, -0.078938, 0.111601, -0.161589,
          -0.240341, 0.335753, 0.080653, -0.085109, -0.197336, 0.018315, 0.470652, -0.2197,
          -0.091831, 0.125896, 0.272472, -0.260507, 0.230797, 0.193962, 0.158265, -0.254483,
          0.330694, -0.013069, -0.053631, -0.04294, 0.126827, -0.066458, 0.17664
        ],
        [
          0.29085, 0.06026, 0.084355, 0.226106, 0.271934, 0.3206, 0.057875, -0.18556, 0.164581,
          -0.07753, 0.189685, -0.029781, -0.119582, 0.103047, -0.057567, -0.075104, -0.090709,
          0.364518, 0.227941, 0.019933, 0.011913, 0.023297, 0.327249, 0.21574, 0.265445, 0.195889,
          -0.167898, 0.269728, 0.162182, -0.222834, -0.131852, 0.124434, 0.350759, -0.096397,
          0.286555, 0.156183, 0.027337, 0.006768, -0.03935, 0.236765, -0.025757, 0.020009, 0.157507,
          0.156937, -0.02951, 0.151868, 0.124264, 0.156509
        ],
        [
          0.26308, 0.021233, 0.271593, 0.264388, 0.159344, 0.230487, -0.22521, -0.159773, 0.200053,
          -0.023441, 0.060687, 0.092399, 0.284348, 0.140608, -0.194647, 0.073282, 0.110216,
          0.135916, 0.140758, 0.292578, 0.068584, 0.096032, 0.320389, 0.239232, 0.191709, 0.3033,
          0.028516, 0.300039, 0.080545, -0.090891, -0.144873, 0.10013, 0.070747, -0.093694,
          -0.017718, 0.125712, 0.192652, 0.117169, -0.066479, 0.259823, 0.116035, 0.214709,
          0.096393, 0.188254, 0.016052, -0.014071, 0.077822, 0.267168
        ],
        [
          0.085862, -0.161742, 0.078207, 0.325541, 0.438657, 0.045922, -0.04578, 0.017467, 0.25716,
          -0.119866, 0.099718, -0.047998, 0.522523, -0.217456, -0.071557, -0.115136, 0.192462,
          -0.013142, 0.209888, 0.076381, 0.136576, 0.305162, 0.029634, 0.197582, 0.090085, -0.07925,
          0.253586, -0.081889, 0.015133, 0.099818, -0.070963, 0.189328, -0.082654, 0.119901,
          0.431026, 0.253469, -0.004272, 0.388144, -0.149643, 0.027574, 0.005137, 0.450478,
          0.133391, 0.15186, -0.037434, -0.020467, -0.010769, 0.00441
        ],
        [
          0.166627, -0.137194, 0.1169, 0.107788, -0.142263, -0.153073, 0.060969, -0.13057, 0.445561,
          0.11591, -0.239413, -0.044493, 0.380505, -0.070824, -0.159339, 0.202027, 0.534031,
          -0.251406, 0.063077, 0.368241, -0.188006, -0.169344, 0.070245, 0.05147, -0.241789,
          0.272806, 0.267674, -0.013247, 0.250047, -0.075287, -0.132336, 0.159663, 0.012284,
          -0.193586, -0.393738, -0.059952, 0.302885, -0.035027, 0.260649, -0.070952, -0.242975,
          0.198975, -0.134041, -0.180313, 0.323474, -0.097568, 0.287159, -0.052954
        ],
        [
          0.280836, 0.099517, -0.045178, 0.192508, 0.069119, 0.000236, -0.096227, -0.094839,
          0.278832, -0.052273, 0.230931, -0.002198, -0.041744, 0.065295, -0.035127, -0.031756,
          0.159255, 0.228282, 0.358789, 0.2916, 0.291897, 0.125218, 0.307555, -0.092007, -0.036584,
          0.115162, 0.102162, 0.119759, 0.360879, -0.084843, -0.210541, 0.145321, 0.044275,
          -0.183636, -0.04719, -0.099321, 0.212035, 0.160745, 0.13435, 0.122743, -0.057783,
          0.089893, 0.313315, -0.232714, 0.022331, 0.053619, 0.146694, 0.001864
        ],
        [
          0.044869, 0.374795, 0.3094, -0.035122, -0.184177, 0.189103, 0.168095, 0.210464, 0.050795,
          0.096398, 0.000986, 0.09121, -0.105497, -0.070032, 0.142988, -0.206384, -0.035509,
          0.163889, 0.342478, 0.020495, 0.156926, 0.194675, 0.068107, 0.185284, 0.207324, 0.077585,
          -0.274457, 0.038319, 0.363831, -0.117494, -0.067346, 0.12651, 0.298254, -0.197193,
          0.058301, 0.181148, 0.419073, 0.038568, -0.397769, 0.136595, 0.219126, 0.045556, 0.408727,
          0.032873, 0.04776, 0.246539, 0.358616, 0.002841
        ],
        [
          0.149488, 0.083452, 0.097128, -0.54805, -0.032385, 0.336756, -0.002839, -0.211723,
          0.207952, -0.107, 0.229507, 0.142534, -0.286859, -0.120751, 0.076234, -0.122494, 0.230167,
          -0.169019, 0.084247, 0.137146, 0.343688, 0.303656, 0.047186, -0.024034, -0.06907,
          0.176297, -0.045294, 0.339261, 0.336199, -0.051817, -0.028805, 0.299907, 0.331358,
          -0.226139, 0.062206, 0.020097, 0.095465, -0.19744, -0.227998, 0.227087, 0.093972,
          -0.038978, 0.072158, 0.201957, 0.334082, 0.071073, 0.117356, 0.343677
        ],
        [
          -0.01829, 0.043681, 0.017071, -0.183822, 0.058975, 0.294871, 0.039832, -0.06595, 0.303871,
          -0.203631, 0.034037, 0.18892, -0.034202, -0.232071, -0.06691, 0.214591, 0.1922, 0.038105,
          0.070194, -0.048205, 0.128033, -0.055097, 0.345002, 0.028088, -0.114831, 0.279774,
          -0.03444, 0.092197, 0.289819, 0.182759, 0.090576, -0.092844, 0.227841, 0.091387,
          -0.089097, -0.013529, 0.360678, -0.23039, 0.164266, 0.132356, 0.199622, -0.118062,
          0.29859, 0.006849, 0.178348, 0.196098, 0.217019, 0.31932
        ],
        [
          0.072572, -0.036396, 0.239268, 0.324447, 0.075622, -0.123478, 0.057589, -0.068047,
          0.231361, -0.037625, -0.189839, 0.065184, -0.027254, -0.094583, -0.006217, 0.13221,
          0.099918, 0.337706, 0.205124, -0.051451, -0.130203, 0.049036, 0.177614, 0.23011, 0.35681,
          -0.064136, 0.138104, 0.036736, -0.140697, -0.218741, 0.093749, 0.030784, -0.110819,
          -0.184774, 0.178354, 0.236495, 0.04836, 0.27644, 0.104708, 0.072453, -0.306376, 0.10111,
          0.126793, 0.139362, 0.032812, -0.02469, 0.061364, -0.170624
        ],
        [
          -0.078595, 0.038405, -0.076986, 0.071049, -0.262494, -0.04073, 0.012611, 0.124592,
          -0.040908, -0.194743, 0.08358, 0.267467, -0.296874, 0.087589, 0.161756, 0.245063, 0.03391,
          -0.115188, -0.076574, 0.242514, 0.11648, -0.118931, 0.232767, -0.10736, 0.096498,
          0.223075, -0.142852, 0.318735, 0.077329, 0.044553, -0.039825, 0.05691, 0.361587,
          -0.066193, 0.029049, -0.32548, 0.425929, -0.248674, 0.150041, -0.088545, 0.213122,
          -0.036047, 0.344961, -0.064495, 0.313333, 0.183062, 0.090722, -0.051476
        ],
        [
          0.255743, -0.008861, 0.322368, 0.227093, 0.494811, 0.140181, 0.06947, 0.108359, -0.052721,
          0.017556, -0.062196, 0.093432, 0.148659, -0.243934, -0.089357, -0.060638, 0.204019,
          -0.048871, 0.089527, -0.019143, 0.15693, 0.197134, 0.113077, 0.19082, -0.07108, 0.18744,
          0.044505, 0.059114, 0.145541, -0.213358, 0.017615, 0.193376, -0.025138, -0.194773,
          0.020567, 0.358051, 0.096473, 0.004416, -0.001071, 0.156717, 0.201709, -0.072401,
          -0.036947, 0.374124, -0.119735, 0.07041, 0.289603, 0.154136
        ],
        [
          -0.000631, -0.061175, -0.107779, -0.095233, 0.070142, 0.068501, 0.105458, 0.185354,
          0.118338, -0.158081, -0.034724, 0.29004, 0.146856, -0.241174, 0.048571, 0.08151, 0.336414,
          -0.228382, 0.146165, 0.286084, 0.067931, 0.069779, -0.057013, -0.147084, -0.253577,
          0.308372, 0.058741, 0.129287, 0.188639, -0.218864, -0.073904, 0.206783, 0.300373,
          0.022146, 0.061543, -0.134842, 0.345057, -0.18959, 0.145759, 0.01233, 0.15769, 0.251627,
          0.219073, -0.065067, 0.13645, 0.017859, 0.225807, -0.055073
        ],
        [
          0.31942, 0.252935, 0.022389, 0.279881, -0.027497, 0.094353, -0.133168, -0.010724,
          0.305303, -0.087884, -0.015006, 0.19212, 0.282542, -0.108995, 0.121301, -0.089299,
          0.065467, -0.134231, 0.146205, 0.33785, 0.022601, 0.205579, -0.069696, -0.025234,
          0.122463, 0.207608, 0.142384, 0.139595, -0.014537, -0.065238, 0.022532, 0.28469, 0.003305,
          0.144365, 0.038829, -0.035823, 0.130526, 0.020561, -0.009189, 0.101166, -0.135754,
          0.132032, 0.211201, 0.021141, 0.031589, 0.049289, 0.304772, 0.293647
        ],
        [
          0.109729, 0.017125, 0.182328, -0.195227, 0.12153, 0.046476, -0.065988, -0.055255,
          0.124983, 0.096813, 0.012546, 0.038427, -0.032276, -0.105056, -0.172571, 0.051925,
          -0.062439, 0.063675, 0.341427, 0.335224, 0.355827, 0.054035, 0.019051, -0.078135, 0.06068,
          0.359131, 0.19007, 0.012654, 0.343804, -0.117662, -0.253805, 0.148091, 0.002896,
          -0.007773, 0.108375, 0.087949, 0.228549, 0.163695, 0.079296, 0.158679, 0.21859, 0.342808,
          0.024137, 0.026772, 0.105149, -0.002839, 0.229517, 0.308201
        ],
        [
          0.035573, 0.325237, 0.330442, 0.215538, -1.3e-5, 0.357525, -0.112836, 0.007404, -0.003321,
          -0.210911, 0.104618, 0.184542, -0.039809, -0.171723, 0.041199, -0.11687, 0.108821,
          -0.27071, 0.064906, 0.132074, 0.193541, 0.106574, 0.130182, 0.177223, 0.027966, 0.012957,
          -0.075874, 0.354936, 0.11218, -0.101019, 0.022494, 0.219916, 0.256667, -0.200345,
          0.013966, 0.083528, 0.09792, 0.109127, -0.197111, 0.118165, 0.124523, 0.293595, 0.310443,
          -0.101692, 0.048056, -0.045244, 0.04211, 0.37797
        ],
        [
          0.008573, 0.158068, 0.108749, 0.007605, -0.106121, 0.137798, -0.086867, 0.134146,
          -0.023501, 0.14932, 0.105015, 0.081446, 0.160028, -0.271654, 0.165453, -0.02503,
          -0.082573, -0.162718, -0.020107, 0.351376, -0.004247, 0.204934, 0.144113, 0.171106,
          -0.196489, 0.179894, 0.015934, 0.248086, -0.021298, -0.185267, -0.1606, 0.254924,
          0.075903, 0.003494, 0.053038, 0.186388, 0.369739, -0.00881, -0.018255, 0.077325, -0.14452,
          0.063269, 0.25651, 0.014463, 0.37681, -0.012114, 0.228291, 0.143762
        ],
        [
          0.167923, 0.055639, 0.162015, 0.103377, 0.275096, 0.344165, -0.108917, -0.214016,
          0.177355, -0.033007, -0.11532, 0.260275, 0.315374, 0.300499, -0.157649, 0.223667,
          0.176367, 0.015462, 0.180232, 0.31564, 0.152021, 0.103946, 0.145363, 0.121767, 0.048223,
          0.309099, 0.192131, 0.205986, -0.022999, 0.080967, -0.19962, 0.023429, 0.167719,
          -0.046392, 0.229951, 0.028072, 0.103489, -0.10618, 0.242488, 0.200052, 0.050794, 0.137062,
          0.004997, 0.222117, 0.102341, 0.019541, 0.213378, -0.04055
        ],
        [
          0.327169, 0.220456, 0.144791, -0.394902, -0.06649, 0.380419, 0.034623, -0.108056,
          0.010366, 0.040542, 0.126979, 0.181182, -0.137428, -0.169648, 0.037208, 0.227975,
          -0.309262, -0.010281, 0.155188, 0.163027, 0.136926, 0.335422, 0.20638, 0.040603,
          -0.083497, 0.073223, -0.182626, 0.283825, 0.077612, 0.090771, -0.111227, 0.167608,
          0.234888, -0.076506, 0.124234, 0.105699, 0.289544, 0.072873, -0.15998, 0.231545, -0.03403,
          0.069483, 0.054826, 0.246933, 0.114966, 0.009684, 0.104915, 0.044913
        ],
        [
          0.224895, 0.066049, 0.039226, -0.116091, -0.124029, 0.291764, 0.132448, -0.095461,
          0.229084, -0.178308, 0.147132, 0.216132, -0.278504, -0.036697, 0.128693, 0.08381,
          -0.071966, -0.13359, 0.095088, 0.071924, 0.237184, 0.112086, 0.417226, -0.094742,
          -0.026654, 0.208549, -0.058707, 0.307954, 0.285102, -0.057688, 0.168808, -0.03488,
          0.435366, -0.005412, 0.174499, -0.15448, 0.34176, -0.251909, 0.146453, 0.204546, 0.247992,
          -0.03395, 0.255287, -0.023285, 0.198544, 0.193554, 0.166427, 0.395038
        ],
        [
          0.13333, 0.287312, -0.075378, 0.05684, -0.001077, 0.1466, 0.172664, -0.185527, -0.031999,
          0.105234, -0.023451, 0.237068, -0.038475, 0.188274, -0.17771, -0.024808, 0.117691,
          0.172231, 0.117581, 0.05581, 0.19285, 0.252993, 0.302072, 0.22294, -0.115282, 0.019598,
          0.102724, 0.314283, 0.08014, -0.084851, 0.153146, -0.095389, 0.163964, -0.022267,
          0.039107, 0.083214, 0.168422, 0.10756, 0.114884, 0.156703, 0.219761, 0.008324, 0.014296,
          -0.177716, 0.070243, 0.163038, 0.27603, 0.213296
        ],
        [
          0.233234, 0.050894, 0.05918, -0.050142, -0.065183, -0.064598, 0.061971, 0.209921,
          0.096408, -0.201144, -0.066191, 0.027523, 0.210778, 0.047107, 0.151566, -0.004513,
          0.157769, -0.048284, 0.224811, 0.158224, -0.024709, 0.089325, 0.131498, 0.084988,
          0.147594, 0.199246, -0.130643, 0.264772, 0.112121, 0.172465, 0.128717, -0.008036,
          0.291553, -0.204068, -0.002732, 0.067022, 0.045032, 0.072933, -0.445444, 0.005229,
          -0.108243, 0.359646, 0.310446, 0.067738, 0.307545, -0.281373, -0.072879, -0.038578
        ],
        [
          0.148263, 0.239978, 0.125247, 0.13803, 0.218338, -0.01117, -0.115754, 0.127003, 0.192177,
          0.152946, 0.034836, 0.362106, -0.04988, -0.339737, 0.171087, 0.072679, 0.087197,
          -0.115548, 0.161778, 0.277287, 0.120934, 0.214246, 0.042011, 0.148088, -0.215268,
          0.052938, -0.192396, 0.014732, 0.325923, 0.059603, -0.112408, 0.095339, 0.109303,
          0.074415, 0.384871, 0.148523, 0.314571, 0.173062, -0.410584, 0.249589, 0.147274, 0.11094,
          0.343125, 0.1071, 0.304527, 0.150359, 0.134855, 0.188709
        ],
        [
          0.101188, 0.322999, 0.274255, -0.19297, 0.172198, 0.22698, -0.188804, -0.222139, 0.149745,
          -0.087568, -0.015977, 0.038334, 0.045712, 0.050819, -0.023701, -0.465964, -0.18866,
          0.093282, -0.024849, 0.02895, -0.00624, 0.294986, 0.232159, 0.113093, 0.134753, 0.180956,
          0.020057, 0.167928, -0.075595, -0.013248, 0.070989, 0.202174, 0.028152, -0.111919,
          0.306241, 0.115848, 0.214747, 0.034931, 0.116748, 0.210828, 0.139527, 0.223818, 0.147493,
          0.090992, 0.279003, 0.191686, -0.032438, -0.034325
        ],
        [
          0.293895, 0.130044, 0.138114, 0.066115, -0.014591, 0.216422, 0.035368, -0.090343,
          0.128127, 0.108229, -0.36266, 0.287555, 0.097742, 0.132695, 0.144982, 0.138602, 0.17956,
          0.027659, 0.099015, 0.085009, 0.286113, 0.186284, 0.178136, -0.131356, -0.266276,
          -0.055015, 0.202948, 0.276882, 0.135534, 0.198538, -0.21425, 0.101516, 0.042791,
          -0.029716, -0.165586, 0.206962, 0.068692, 0.182252, -0.144105, 0.3154, -0.183604,
          0.409621, -0.074596, 0.096428, 0.36977, -0.351096, -0.029733, 0.08852
        ],
        [
          0.352612, 0.059801, 0.183474, 0.093486, 0.043858, 0.250202, -0.20763, 0.038282, 0.449261,
          -0.142257, -0.064791, -0.104923, 0.40186, -0.181028, 0.064365, -0.075965, 0.163149,
          0.124061, 0.03843, 0.345043, -0.051879, 0.208023, -0.100649, 0.101955, -0.076634,
          0.004203, 0.062641, 0.204737, -0.069707, 0.164792, 0.065471, 0.141286, 0.055998,
          -0.187138, 0.097653, 0.20522, 0.096759, 0.182698, -0.09694, 0.072968, -0.407312, 0.470536,
          0.022243, 0.099055, 0.118699, -0.273328, 0.062743, -0.080939
        ],
        [
          0.107104, 0.296542, 0.318607, -0.066128, -0.234391, -0.022067, 0.216619, -0.22501,
          0.435941, -0.036879, -0.189606, 0.360768, -0.3189, 0.034744, -0.005667, -0.198558,
          -0.040217, -0.056231, 0.305273, 0.016335, 0.331064, 0.004065, 0.072796, -0.22475,
          -0.271209, 0.035008, 0.310438, 0.148248, 0.016714, -0.174277, 0.005151, 0.348203,
          0.126723, -0.225978, -0.01689, -0.267017, 0.086928, -0.17621, -0.195224, 0.187223,
          -0.183493, 0.469233, 0.367018, -0.139795, 0.201285, -0.188955, 0.147572, 0.264264
        ],
        [
          0.149274, 0.269918, 0.363429, 0.170469, 0.212015, -0.000106, -0.143136, -0.05345,
          0.080787, 0.12858, -0.202706, 0.118278, 0.232177, 0.074577, -0.08153, 0.163273, 0.10462,
          0.053349, -0.016351, 0.17285, 0.263145, 0.205892, 0.260878, 0.017009, -0.168963,
          -0.077246, 0.035408, 0.218311, 0.233007, -0.087392, -0.061308, 0.176777, 0.075069,
          -0.131466, 0.074418, -0.043732, -0.070976, -0.009652, -0.216456, 0.217948, -0.144524,
          0.444986, 0.01059, -0.044359, 0.137536, -0.284565, 0.283941, -0.046304
        ],
        [
          0.290591, 0.310992, 0.105677, 0.005734, -0.053725, 0.077354, 0.064985, -0.165367, 6e-5,
          -0.044305, 0.056518, 0.324748, -0.24191, 0.15393, -0.148022, -0.025365, 0.054175,
          -0.123079, 0.030999, 0.162261, 0.25217, 0.061441, 0.153799, 0.055293, -0.013325, 0.166253,
          -0.018568, 0.354035, 0.193654, -0.096556, -0.126914, 0.243319, 0.021076, 0.17674,
          -0.127178, 0.024527, 0.182892, -0.034263, 0.102705, 0.097023, 0.148385, -0.007132,
          -0.045316, -0.159111, 0.274124, -0.092303, -0.007584, 0.101526
        ],
        [
          0.216251, 0.253963, -7.1e-5, -0.249041, 0.104838, 0.054385, 0.189062, 0.195235, 0.359576,
          -0.181996, 0.165776, 0.298181, -0.023544, 0.005979, -0.129377, -0.068703, 0.063948,
          -0.084201, 0.163829, 0.207665, 0.084106, 0.177928, 0.33991, -0.246029, -0.059357,
          0.045209, 0.192948, 0.32659, 0.348586, -0.107713, 0.137111, 0.01761, 0.247972, -0.183904,
          0.248807, -0.067538, 0.295578, 0.00451, -0.176731, -0.017678, 0.285208, 0.183686,
          0.039923, -0.109461, 0.305614, -0.182311, 0.086399, -0.021275
        ],
        [
          0.099431, 0.345481, 0.378841, 0.080219, 0.117435, 0.341738, 0.018741, -0.159798, 0.201942,
          0.074251, 0.430216, 0.258811, -0.228541, -0.23031, 0.046025, -0.117028, -0.152561,
          0.155745, 0.215579, 0.046232, 0.354713, 0.302672, 0.248589, 0.04146, -0.186985, 0.099267,
          -0.156914, 0.032427, 0.063426, -0.01911, 0.174936, -0.081379, 0.286828, 0.049222,
          0.094901, 0.347043, 0.184281, 0.055775, 0.182725, 0.093671, 0.386978, -0.260447, 0.348995,
          0.200826, 0.150498, 0.308497, 0.205134, 0.263137
        ],
        [
          0.165203, 0.212891, 0.194268, 0.24293, 0.221516, 0.32741, 0.178789, -0.04543, 0.036372,
          -0.075715, 0.287917, 0.057601, 0.17282, 0.085758, -0.094601, 0.02324, -0.177758,
          -0.161156, 0.265003, -0.00795, 0.104028, 0.328786, 0.101634, 0.280324, 0.135952, 0.057549,
          -0.133541, 0.224513, 0.136434, -0.23812, 0.052962, -0.00843, 0.316163, -0.175211,
          0.102415, -0.006291, 0.325903, 0.07755, 0.164639, 0.154436, 0.051517, 0.040526, 0.16452,
          0.094515, 0.215142, 0.111738, 0.337701, 0.029543
        ],
        [
          0.372615, -0.079199, 0.21284, 0.067461, 0.335399, 0.206623, -0.066162, -0.060528,
          0.231504, 0.053567, 0.287471, 0.020818, 0.338655, 0.058495, -0.084826, -0.088177,
          -0.161174, -0.07158, 0.003809, -0.010172, 0.234515, 0.26023, 0.300242, 0.255345,
          -0.251706, 0.250983, 0.220488, 0.058873, 0.138974, 0.195814, 0.01755, 0.363499, -0.089831,
          -0.142318, 0.237502, 0.217632, 0.167847, 0.452471, -0.037666, -0.011562, 0.237063,
          0.221001, -0.024819, 0.20754, 0.224649, 0.315169, 0.137436, 0.062354
        ],
        [
          0.282543, 0.1894, -0.020001, -0.007494, -0.012455, -0.03559, -0.252422, 0.002213,
          0.173452, -0.005604, -0.324711, 0.212792, -0.032717, -0.041601, -0.180505, 0.349613,
          0.384255, -0.245764, 0.323902, 0.257913, 0.233159, -0.02995, 0.202738, -0.312938,
          -0.251449, 0.348443, 0.247845, 0.136946, -0.018825, 0.106999, -0.036299, 0.095492,
          0.374233, -0.18739, -0.231261, 0.108493, 0.174501, -0.264183, 0.057577, 0.223199,
          -0.31098, 0.467538, 0.237826, -0.2897, 0.343399, -0.19542, 0.108508, 0.231882
        ],
        [
          0.229063, -0.134134, -0.087546, -0.095961, -0.169537, -0.066729, -0.148774, 0.06129,
          0.278666, -0.153186, -0.142879, 0.17762, 0.089003, -0.052276, 0.026832, -0.089388,
          0.254999, 0.128158, -0.011043, 0.042452, -0.30845, -0.173533, -0.151666, 0.115142,
          0.073444, -0.075248, 0.012696, 0.36394, 0.044644, -0.104871, 0.097494, 0.087552, 0.041008,
          -0.135484, -0.331534, -0.304163, 0.295388, -0.201218, -0.04363, -0.189487, -0.512157,
          0.399634, 0.17648, -0.246239, 0.352895, -0.434488, -0.067086, -0.13779
        ],
        [
          -0.01695, -0.044452, -0.069412, 0.331185, -0.030113, 0.104815, -0.073251, 0.025428,
          0.11027, -0.101349, -0.105314, 0.194815, 0.292133, -0.108267, -0.18869, 0.303479,
          0.037106, 0.105598, 0.038843, -0.07038, 0.130374, 0.066194, -0.02677, 0.05557, 0.217227,
          0.143484, -0.068916, 0.123865, 0.178943, 0.177346, 0.032967, -0.073954, 0.196599, 0.04756,
          -0.192852, 0.10227, 0.047185, 0.252639, -0.052021, 0.126362, 0.191061, 0.194928, 0.267282,
          0.246013, -0.098273, 0.090174, 0.04838, 0.225999
        ],
        [
          0.104081, 0.388112, 0.279354, -0.01212, -0.0787, 0.086707, 0.067293, -0.210733, 0.305466,
          -0.228901, 0.115508, 0.143343, 0.101338, 0.09327, -0.093468, -0.348377, -0.246114,
          0.004685, 0.186726, 0.28283, 0.220729, 0.179459, 0.153592, -0.135857, -0.13155, 0.378611,
          -0.019363, 0.105662, 0.214758, 0.142578, -0.079027, 0.020746, 0.027714, -0.020954,
          0.487979, 0.295227, 0.000244, -0.101962, 0.107414, 0.36357, 0.094771, 0.23966, 0.025532,
          0.223766, 0.326799, 0.005759, 0.268344, 0.074703
        ],
        [
          -0.026584, 0.088961, 0.059401, -0.047306, 0.105837, 0.203714, -0.023945, -0.108153,
          -0.049723, 0.023322, 0.013055, 0.134794, 0.124127, 0.056086, 0.11628, 0.041712, -0.176468,
          0.079182, 0.063869, 0.122908, 0.057426, 0.298792, 0.060224, 0.209551, 0.350918, 0.197382,
          -0.025104, 0.237294, 0.324137, -0.04424, 0.101311, 0.135728, 0.413509, -0.031764,
          0.169333, 0.210821, 0.341523, 0.074076, -0.072081, 0.208955, 0.281873, 0.194409, 0.352159,
          -0.16008, 0.178263, 0.186044, 0.306719, 0.002358
        ],
        [
          0.293151, 0.126722, 0.01505, 0.146865, 0.060524, 0.137193, -0.248474, -0.158933, 0.35438,
          -0.184168, -0.165631, 0.105403, 0.250646, 0.054928, -0.047708, 0.196633, 0.205028,
          -0.120132, 0.032088, 0.174425, 0.040978, 0.22032, 0.140533, -0.029136, -0.089297,
          0.001431, 0.105735, 0.117014, 0.106682, -0.194608, -0.027798, 0.349033, 0.021395,
          -0.024297, 0.277721, 0.030237, 0.172806, -0.033595, 0.056942, -0.035391, -0.029455,
          0.37129, 0.21179, 0.150337, 0.235528, -0.208541, 0.285432, 0.310712
        ],
        [
          0.127835, 0.350156, 0.148387, -0.184022, -0.291669, 0.024821, -0.118929, -0.117751,
          0.186521, -0.071703, -0.007877, 0.377138, -0.193323, -0.122735, -0.169236, -0.290384,
          0.180425, -0.084446, 0.287748, 0.022159, 0.191337, 0.006643, 0.071226, -0.232906,
          -0.251923, 0.116847, -0.223738, 0.404518, 0.097409, -0.13616, -0.1583, 0.169672, 0.059225,
          0.121566, 0.210824, -0.133457, 0.225739, -0.330662, 0.06517, 0.1319, 0.025856, 0.047195,
          0.271512, -0.133973, 0.086692, 0.034648, 0.185509, 0.299436
        ],
        [
          0.002245, 0.126984, 0.231815, 0.07918, 0.391597, 0.082905, 0.12886, -0.159687, 0.287136,
          -0.0503, 0.055943, -0.041907, 0.605347, 0.204866, -0.123624, 0.223262, 0.457415, 0.024975,
